%YAML:1.0
---
opencv_ml_svm:
   format: 3
   svmType: C_SVC
   kernel:
      type: LINEAR
   C: 1.2500000000000000e+01
   term_criteria: { iterations:100 }
   var_count: 100
   class_count: 2
   class_labels: !!opencv-matrix
      rows: 2
      cols: 1
      dt: i
      data: [ 0, 1 ]
   sv_total: 1
   support_vectors:
      - [ 5.15900195e-01, -6.30851984e-01, 1.10752857e+00,
          3.32097858e-01, -5.08386977e-02, 4.87176925e-01,
          -2.20541000e+00, 6.63198754e-02, 3.13189101e+00,
          -6.97931111e-01, -6.59704134e-02, -1.54488295e-01,
          7.96443105e-01, -2.19719276e-01, -8.89836669e-01,
          -5.85697711e-01, -1.00423682e+00, -2.30742648e-01,
          4.64569360e-01, 1.29766309e+00, -2.61059497e-02,
          3.78337771e-01, -1.18117523e+00, 1.40901834e-01,
          1.28315723e+00, 1.04553807e+00, 2.89958030e-01,
          -4.67484683e-01, -3.13795507e-01, 1.32939517e+00,
          1.39794195e+00, -9.90611315e-03, -2.09940076e-01,
          1.02612458e-01, -5.29999375e-01, -9.15250599e-01,
          -2.24402830e-01, 3.47789615e-01, -7.62787521e-01,
          1.20982692e-01, -8.82566795e-02, 1.30015627e-01,
          3.67135584e-01, -4.82312262e-01, 4.95264351e-01,
          7.51739647e-03, -3.89150649e-01, -6.47780061e-01,
          1.00613296e+00, -1.43266827e-01, -5.02971649e-01,
          -1.06088531e+00, 5.04900396e-01, -4.15601045e-01,
          2.57873476e-01, -2.03699484e-01, 3.30205858e-01,
          -3.71270955e-01, -3.81629611e-03, 8.11243415e-01,
          2.04223484e-01, -4.68826771e-01, -5.04799485e-01,
          -1.19689703e-01, -1.48849398e-01, -1.35174823e+00,
          -2.01869696e-01, -8.95458236e-02, 8.74232411e-01,
          -1.37893558e+00, 1.33364081e-01, 8.86252224e-02,
          2.61049300e-01, -6.38368502e-02, 1.50652564e+00,
          -8.71308222e-02, 3.23419571e-02, 1.38495147e+00,
          -5.61652601e-01, 1.46333754e-01, 3.51009071e-01,
          1.24757672e-02, -4.58132029e-01, 1.55643359e-01,
          5.17622381e-02, -2.46465113e-03, 3.89216810e-01,
          1.12196875e+00, 9.17613447e-01, 3.86673361e-02,
          -1.31333852e+00, 4.85785604e-02, -1.03899002e-01,
          -2.31720233e+00, -4.15559441e-01, -6.63570046e-01,
          -8.23706090e-02, -5.18771887e-01, 5.02982438e-01,
          -2.30282888e-01 ]
   uncompressed_sv_total: 41
   uncompressed_support_vectors:
      - [ 0., 0., 0., 0., 0., 0., 0., 0., 6.25000000e-02, 0., 0., 0.,
          6.25000000e-02, 0., 0., 0., 0., 6.25000000e-02, 0.,
          6.25000000e-02, 6.25000000e-02, 0., 1.25000000e-01, 0., 0.,
          6.25000000e-02, 0., 0., 0., 0., 0., 0., 0., 0., 6.25000000e-02,
          0., 0., 0., 0., 0., 0., 0., 0., 0., 0., 0., 0., 0.,
          6.25000000e-02, 0., 0., 0., 0., 0., 0., 0., 1.25000000e-01, 0.,
          0., 0., 0., 0., 0., 0., 0., 0., 0., 0., 0., 0., 0., 0., 0., 0.,
          6.25000000e-02, 0., 0., 0., 0., 0., 0., 0., 0., 0., 0., 0., 0.,
          0., 0., 0., 0., 0., 0., 1.87500000e-01, 0., 0., 0., 0., 0., 0. ]
      - [ 0., 1.44927539e-02, 0., 2.89855078e-02, 0., 1.44927539e-02,
          4.34782617e-02, 0., 0., 0., 0., 0., 0., 0., 7.24637657e-02, 0.,
          0., 0., 1.44927539e-02, 0., 1.44927539e-02, 0., 0., 0.,
          1.44927539e-02, 0., 0., 0., 0., 1.44927539e-02, 2.89855078e-02,
          0., 0., 2.89855078e-02, 2.89855078e-02, 1.44927539e-02, 0.,
          1.44927539e-02, 4.34782617e-02, 0., 0., 8.69565234e-02, 0., 0.,
          0., 0., 0., 1.44927539e-02, 2.89855078e-02, 0., 0., 0., 0.,
          1.44927539e-02, 0., 0., 0., 0., 0., 0., 0., 0., 0., 0.,
          1.44927539e-02, 1.44927539e-02, 0., 1.44927539e-02, 0.,
          1.44927539e-02, 0., 1.44927539e-02, 2.89855078e-02, 0.,
          2.89855078e-02, 0., 0., 1.44927539e-02, 0., 2.89855078e-02,
          4.34782617e-02, 0., 2.89855078e-02, 0., 1.44927539e-02, 0.,
          2.89855078e-02, 0., 2.89855078e-02, 1.44927539e-02,
          2.89855078e-02, 0., 0., 5.79710156e-02, 0., 0., 1.44927539e-02,
          0., 2.89855078e-02, 0. ]
      - [ 0., 0., 0., 1.58730168e-02, 3.17460336e-02, 0., 3.17460336e-02,
          0., 0., 0., 0., 0., 1.58730168e-02, 0., 3.17460336e-02, 0., 0.,
          0., 0., 0., 0., 0., 3.17460336e-02, 0., 4.76190522e-02,
          6.34920672e-02, 0., 0., 0., 0., 0., 0., 0., 1.58730168e-02,
          1.58730168e-02, 0., 0., 1.58730168e-02, 1.58730168e-02, 0., 0.,
          0., 0., 3.17460336e-02, 0., 0., 0., 0., 0., 0., 3.17460336e-02,
          4.76190522e-02, 1.58730168e-02, 1.11111119e-01, 3.17460336e-02,
          0., 0., 4.76190522e-02, 0., 0., 0., 0., 6.34920672e-02, 0., 0.,
          0., 1.58730168e-02, 1.58730168e-02, 0., 0., 0., 0., 0., 0., 0.,
          0., 1.58730168e-02, 0., 4.76190522e-02, 0., 1.58730168e-02, 0.,
          0., 0., 3.17460336e-02, 0., 0., 0., 0., 3.17460336e-02, 0., 0.,
          0., 1.58730168e-02, 0., 6.34920672e-02, 0., 1.58730168e-02,
          1.58730168e-02, 0. ]
      - [ 0., 0., 0., 0., 0., 0., 0., 0., 0., 0., 0., 0., 0., 0.,
          6.25000000e-02, 0., 0., 0., 0., 0., 0., 0., 6.25000000e-02, 0.,
          0., 0., 0., 0., 0., 6.25000000e-02, 0., 0., 0., 1.87500000e-01,
          0., 0., 0., 0., 0., 0., 0., 1.25000000e-01, 0., 0., 0., 0.,
          6.25000000e-02, 0., 0., 0., 0., 0., 0., 0., 0., 0., 0., 0., 0.,
          0., 0., 0., 0., 0., 6.25000000e-02, 0., 0., 0., 0., 0., 0., 0.,
          0., 0., 6.25000000e-02, 0., 0., 0., 0., 6.25000000e-02, 0., 0.,
          0., 0., 0., 0., 6.25000000e-02, 0., 0., 6.25000000e-02, 0., 0.,
          0., 0., 0., 0., 1.25000000e-01, 0., 0., 0. ]
      - [ 0., 0., 0., 1.44927539e-02, 0., 4.34782617e-02, 1.44927539e-02,
          0., 1.44927539e-02, 0., 0., 0., 0., 0., 2.89855078e-02, 0., 0.,
          2.89855078e-02, 0., 1.44927539e-02, 0., 0., 4.34782617e-02, 0.,
          8.69565234e-02, 0., 0., 0., 0., 0., 1.44927539e-02, 0., 0., 0.,
          1.44927539e-02, 0., 0., 2.89855078e-02, 0., 1.44927539e-02, 0.,
          2.89855078e-02, 1.44927539e-02, 0., 0., 0., 0., 0., 0., 0.,
          2.89855078e-02, 0., 1.44927539e-02, 0., 0., 0., 0.,
          1.44927539e-02, 0., 0., 0., 0., 1.44927539e-02, 0., 0., 0., 0.,
          0., 0., 1.44927539e-02, 1.44927539e-02, 1.44927539e-02,
          7.24637657e-02, 0., 0., 2.89855078e-02, 1.44927539e-02,
          1.44927539e-02, 0., 0., 2.89855078e-02, 0., 0., 0.,
          1.44927539e-02, 0., 4.34782617e-02, 0., 4.34782617e-02, 0.,
          1.44927539e-02, 0., 0., 1.15942031e-01, 2.89855078e-02, 0., 0.,
          1.44927539e-02, 4.34782617e-02, 0. ]
      - [ 0., 0., 0., 0., 0., 0., 0., 0., 7.14285746e-02, 0., 0., 0., 0.,
          0., 7.14285746e-02, 0., 0., 0., 0., 0., 0., 0., 1.42857149e-01,
          0., 0., 0., 0., 0., 0., 7.14285746e-02, 0., 0., 0., 0., 0., 0.,
          0., 0., 0., 0., 0., 7.14285746e-02, 7.14285746e-02, 0., 0., 0.,
          0., 0., 0., 0., 0., 0., 0., 0., 0., 0., 0., 0., 0., 0., 0., 0.,
          7.14285746e-02, 0., 0., 0., 0., 0., 0., 7.14285746e-02, 0., 0.,
          0., 0., 7.14285746e-02, 0., 0., 0., 0., 0., 0., 0., 0., 0.,
          7.14285746e-02, 0., 0., 0., 1.42857149e-01, 0., 0., 0., 0.,
          7.14285746e-02, 0., 0., 0., 0., 0., 0. ]
      - [ 6.32911408e-03, 1.89873427e-02, 0., 3.79746854e-02,
          2.53164563e-02, 1.26582282e-02, 0., 0., 6.32911408e-03, 0., 0.,
          3.79746854e-02, 0., 0., 0., 6.32911408e-03, 6.32911408e-03,
          1.89873427e-02, 1.26582282e-02, 1.89873427e-02, 0., 0.,
          6.32911408e-03, 6.32911408e-03, 0., 0., 6.32911408e-03,
          6.32911408e-03, 0., 0., 0., 0., 0., 0., 1.89873427e-02,
          2.53164563e-02, 1.89873427e-02, 0., 1.89873427e-02, 0., 0.,
          6.32911408e-03, 5.06329127e-02, 6.32911408e-03, 6.32911408e-03,
          6.32911408e-03, 7.59493709e-02, 4.43037972e-02, 6.32911408e-03,
          0., 6.32911408e-03, 1.26582282e-02, 1.26582282e-02, 0., 0., 0.,
          6.32911408e-03, 6.32911408e-03, 0., 1.20253168e-01, 0.,
          1.26582282e-02, 1.89873427e-02, 0., 2.53164563e-02, 0.,
          6.32911408e-03, 6.32911408e-03, 1.26582282e-02, 0.,
          1.26582282e-02, 6.32911408e-03, 0., 0., 6.32911408e-03,
          1.89873427e-02, 0., 6.32911408e-03, 0., 0., 1.26582282e-02, 0.,
          4.43037972e-02, 0., 3.79746854e-02, 0., 0., 4.43037972e-02, 0.,
          0., 0., 0., 1.89873427e-02, 0., 0., 6.32911408e-03,
          1.26582282e-02, 6.32911408e-03, 0., 0. ]
      - [ 0., 0., 0., 0., 1.19047621e-02, 1.19047621e-02, 0., 0.,
          2.38095243e-02, 0., 0., 2.38095243e-02, 1.19047621e-02, 0.,
          1.19047621e-02, 0., 0., 0., 2.38095243e-02, 3.57142873e-02, 0.,
          1.19047621e-02, 4.76190485e-02, 2.38095243e-02, 3.57142873e-02,
          5.95238097e-02, 0., 0., 0., 0., 1.19047621e-02, 1.19047621e-02,
          0., 8.33333358e-02, 1.19047621e-02, 0., 0., 1.19047621e-02,
          1.19047621e-02, 0., 0., 4.76190485e-02, 1.19047621e-02,
          1.19047621e-02, 0., 1.19047621e-02, 1.19047621e-02, 0.,
          2.38095243e-02, 0., 1.19047621e-02, 0., 0., 0., 2.38095243e-02,
          0., 0., 0., 0., 0., 0., 0., 0., 0., 2.38095243e-02,
          2.38095243e-02, 0., 1.19047621e-02, 0., 0., 1.19047621e-02, 0.,
          0., 1.19047621e-02, 1.19047621e-02, 1.19047621e-02,
          1.19047621e-02, 2.38095243e-02, 2.38095243e-02, 0.,
          2.38095243e-02, 0., 1.19047621e-02, 1.19047621e-02, 0., 0., 0.,
          1.19047621e-02, 2.38095243e-02, 0., 2.38095243e-02, 0., 0.,
          7.14285746e-02, 1.19047621e-02, 1.19047621e-02, 0., 0., 0., 0. ]
      - [ 0., 0., 0., 5.88235296e-02, 0., 0., 0., 0., 1.76470593e-01, 0.,
          0., 0., 0., 0., 0., 0., 0., 0., 0., 0., 0., 5.88235296e-02, 0.,
          0., 5.88235296e-02, 0., 0., 0., 0., 5.88235296e-02, 0., 0., 0.,
          0., 0., 0., 0., 0., 0., 0., 0., 0., 0., 0., 5.88235296e-02, 0.,
          0., 0., 0., 0., 0., 0., 0., 0., 5.88235296e-02, 0., 0., 0., 0.,
          0., 5.88235296e-02, 0., 0., 0., 0., 0., 0., 0., 0., 0., 0., 0.,
          0., 0., 0., 0., 0., 5.88235296e-02, 0., 0., 0., 0., 0., 0., 0.,
          0., 0., 0., 0., 0., 0., 0., 0., 3.52941185e-01, 0., 0., 0., 0.,
          0., 0. ]
      - [ 0., 0., 0., 0., 0., 0., 1.00000001e-01, 0., 2.00000003e-01, 0.,
          0., 0., 0., 0., 0., 0., 0., 0., 1.00000001e-01, 0., 0., 0., 0.,
          0., 1.00000001e-01, 0., 0., 0., 0., 1.00000001e-01, 0., 0., 0.,
          0., 0., 0., 0., 0., 0., 0., 0., 0., 0., 0., 0., 0., 0., 0., 0.,
          0., 0., 0., 0., 0., 0., 0., 0., 0., 0., 0., 0., 0., 0., 0., 0.,
          1.00000001e-01, 0., 0., 0., 2.00000003e-01, 0., 0., 0., 0., 0.,
          0., 0., 0., 0., 0., 0., 0., 0., 0., 0., 0., 0., 0., 0., 0., 0.,
          0., 0., 1.00000001e-01, 0., 0., 0., 0., 0., 0. ]
      - [ 0., 0., 0., 0., 0., 0., 0., 0., 0., 0., 0., 0., 0., 0., 0., 0.,
          0., 0., 0., 0., 0., 0., 0., 0., 0., 0., 0., 0., 0., 0., 0., 0.,
          0., 0., 0., 0., 0., 0., 0., 0., 0., 0., 0., 0., 0., 0., 0., 0.,
          0., 0., 0., 0., 0., 0., 0., 0., 1.42857149e-01, 0., 0., 0., 0.,
          0., 0., 0., 0., 0., 0., 0., 0., 0., 0., 0., 0., 0., 0., 0., 0.,
          0., 0., 0., 0., 0., 0., 0., 0., 0., 0., 0., 0., 0., 0., 0., 0.,
          8.57142925e-01, 0., 0., 0., 0., 0., 0. ]
      - [ 7.81250000e-03, 3.90625000e-02, 0., 0., 7.81250000e-03, 0.,
          7.81250000e-03, 0., 7.81250000e-03, 1.56250000e-02, 0.,
          5.46875000e-02, 0., 0., 0., 1.56250000e-02, 7.81250000e-03,
          4.68750000e-02, 0., 3.90625000e-02, 0., 0., 7.81250000e-03,
          1.56250000e-02, 0., 3.90625000e-02, 3.12500000e-02, 0., 0.,
          7.81250000e-03, 0., 0., 0., 7.81250000e-03, 8.59375000e-02,
          7.81250000e-03, 0., 1.56250000e-02, 1.56250000e-02, 0., 0., 0.,
          0., 7.81250000e-03, 0., 0., 1.56250000e-02, 1.56250000e-02,
          2.34375000e-02, 0., 0., 7.81250000e-03, 0., 6.25000000e-02, 0.,
          0., 7.81250000e-03, 3.90625000e-02, 0., 0., 0., 1.56250000e-02,
          7.03125000e-02, 0., 0., 0., 0., 1.56250000e-02, 2.34375000e-02,
          0., 0., 3.12500000e-02, 0., 0., 0., 0., 0., 0., 1.09375000e-01,
          7.81250000e-03, 0., 0., 0., 0., 0., 0., 0., 7.81250000e-03, 0.,
          7.81250000e-03, 0., 0., 0., 0., 1.56250000e-02, 7.81250000e-03,
          1.56250000e-02, 7.81250000e-03, 0., 0. ]
      - [ 1.11111114e-02, 1.11111114e-02, 0., 0., 2.22222228e-02, 0.,
          1.66666675e-02, 0., 0., 5.55555569e-03, 0., 1.11111114e-02, 0.,
          5.55555569e-03, 1.11111114e-02, 3.33333351e-02, 3.33333351e-02,
          1.66666675e-02, 1.11111114e-02, 3.33333351e-02, 0., 0., 0.,
          2.77777780e-02, 1.11111114e-02, 1.11111114e-02, 2.22222228e-02,
          2.22222228e-02, 0., 0., 2.77777780e-02, 0., 0., 2.22222228e-02,
          2.77777780e-02, 2.22222228e-02, 5.55555569e-03, 1.66666675e-02,
          1.66666675e-02, 0., 0., 2.22222228e-02, 0., 2.22222228e-02, 0.,
          5.55555569e-03, 1.66666675e-02, 1.11111114e-02, 0., 0.,
          5.55555569e-03, 5.00000007e-02, 1.66666675e-02, 5.55555569e-03,
          0., 0., 0., 1.11111114e-02, 0., 0., 0., 2.77777780e-02,
          1.11111114e-02, 0., 1.11111114e-02, 2.77777780e-02, 0.,
          3.33333351e-02, 1.11111114e-02, 3.33333351e-02, 0.,
          1.66666675e-02, 1.66666675e-02, 0., 0., 0., 0., 0.,
          5.55555569e-03, 1.11111114e-02, 1.11111114e-02, 0.,
          1.11111114e-02, 5.55555569e-03, 0., 0., 1.66666675e-02,
          1.11111114e-02, 0., 5.55555569e-03, 1.66666675e-02, 0.,
          5.55555569e-03, 0., 2.77777780e-02, 1.66666675e-02,
          2.77777780e-02, 1.66666675e-02, 0., 0. ]
      - [ 1.49253728e-02, 2.98507456e-02, 0., 0., 1.49253728e-02, 0.,
          1.99004970e-02, 0., 0., 4.97512426e-03, 0., 2.48756222e-02,
          4.97512426e-03, 0., 1.99004970e-02, 4.97512426e-03,
          1.49253728e-02, 2.48756222e-02, 1.99004970e-02, 1.49253728e-02,
          4.97512426e-03, 4.97512426e-03, 2.98507456e-02, 1.99004970e-02,
          0., 4.47761193e-02, 4.97512426e-03, 4.97512426e-03, 0., 0.,
          1.49253728e-02, 0., 0., 3.98009941e-02, 4.47761193e-02,
          4.97512426e-03, 0., 1.99004970e-02, 1.99004970e-02, 0., 0.,
          4.97512445e-02, 9.95024852e-03, 1.49253728e-02, 0.,
          4.97512426e-03, 4.97512426e-03, 9.95024852e-03, 2.98507456e-02,
          0., 4.97512426e-03, 2.98507456e-02, 4.97512426e-03,
          9.95024852e-03, 4.97512426e-03, 0., 4.97512426e-03,
          9.95024852e-03, 0., 0., 0., 4.97512426e-03, 2.48756222e-02,
          4.97512426e-03, 1.99004970e-02, 9.95024852e-03, 0.,
          4.97512426e-03, 0., 2.98507456e-02, 0., 1.99004970e-02,
          4.97512426e-03, 0., 1.49253728e-02, 0., 0., 9.95024852e-03,
          2.98507456e-02, 9.95024852e-03, 9.95024852e-03, 0.,
          1.49253728e-02, 4.97512426e-03, 0., 4.97512426e-03,
          1.49253728e-02, 9.95024852e-03, 1.99004970e-02, 4.97512426e-03,
          4.97512426e-03, 0., 0., 9.95024852e-03, 9.95024852e-03,
          4.97512426e-03, 1.49253728e-02, 4.97512426e-03, 9.95024852e-03,
          0. ]
      - [ 0., 2.85714287e-02, 0., 0., 0., 0., 2.85714287e-02, 0.,
          1.42857144e-02, 0., 0., 1.42857144e-02, 1.42857144e-02, 0., 0.,
          0., 0., 0., 1.42857144e-02, 2.85714287e-02, 2.85714287e-02, 0.,
          2.85714287e-02, 0., 0., 1.00000001e-01, 2.85714287e-02, 0., 0.,
          0., 0., 0., 0., 0., 4.28571440e-02, 0., 0., 2.85714287e-02,
          2.85714287e-02, 0., 0., 4.28571440e-02, 0., 2.85714287e-02, 0.,
          0., 2.85714287e-02, 0., 2.85714287e-02, 0., 0., 0., 0., 0., 0.,
          0., 1.42857144e-02, 4.28571440e-02, 0., 0., 0., 2.85714287e-02,
          5.71428575e-02, 0., 0., 0., 0., 0., 0., 0., 0., 0., 0., 0.,
          2.85714287e-02, 0., 0., 0., 2.85714287e-02, 0., 1.42857144e-02,
          0., 0., 0., 0., 0., 2.85714287e-02, 2.85714287e-02,
          5.71428575e-02, 0., 2.85714287e-02, 0., 0., 0., 5.71428575e-02,
          1.42857144e-02, 1.42857144e-02, 0., 0., 0. ]
      - [ 0., 0., 0., 0., 4.54545468e-02, 0., 4.54545468e-02, 0.,
          9.09090936e-02, 0., 0., 0., 0., 0., 0., 4.54545468e-02,
          4.54545468e-02, 0., 0., 0., 0., 0., 0., 0., 4.54545468e-02, 0.,
          0., 0., 0., 0., 0., 0., 0., 0., 0., 0., 0., 0., 0., 0., 0.,
          4.54545468e-02, 4.54545468e-02, 0., 0., 0., 9.09090936e-02,
          4.54545468e-02, 0., 0., 0., 4.54545468e-02, 0., 0., 0., 0.,
          4.54545468e-02, 0., 0., 0., 0., 0., 0., 0., 0., 0., 0., 0., 0.,
          9.09090936e-02, 0., 0., 4.54545468e-02, 0., 0., 4.54545468e-02,
          0., 0., 0., 0., 0., 0., 0., 0., 0., 0., 0., 0., 0., 0.,
          4.54545468e-02, 0., 0., 9.09090936e-02, 0., 4.54545468e-02, 0.,
          0., 0., 0. ]
      - [ 0., 1.36986300e-02, 0., 0., 0., 0., 0., 0., 2.73972601e-02,
          1.36986300e-02, 0., 1.36986300e-02, 0., 0., 1.36986300e-02, 0.,
          1.36986300e-02, 5.47945201e-02, 1.36986300e-02, 5.47945201e-02,
          0., 0., 0., 1.36986300e-02, 0., 2.73972601e-02, 0., 0., 0.,
          2.73972601e-02, 1.36986300e-02, 0., 0., 0., 1.09589040e-01, 0.,
          0., 0., 0., 0., 0., 0., 0., 5.47945201e-02, 0., 0., 0., 0., 0.,
          0., 1.36986300e-02, 0., 1.36986300e-02, 0., 1.36986300e-02, 0.,
          0., 2.73972601e-02, 0., 0., 0., 1.36986300e-02, 6.84931502e-02,
          0., 0., 0., 0., 1.36986300e-02, 0., 0., 2.73972601e-02,
          5.47945201e-02, 0., 0., 2.73972601e-02, 0., 0., 1.36986300e-02,
          2.73972601e-02, 0., 0., 0., 0., 0., 0., 0., 8.21917802e-02, 0.,
          1.36986300e-02, 0., 1.36986300e-02, 0., 0., 1.36986300e-02,
          5.47945201e-02, 1.36986300e-02, 1.36986300e-02, 1.36986300e-02,
          0., 0. ]
      - [ 1.42857149e-01, 0., 0., 0., 1.42857149e-01, 0., 0., 0., 0., 0.,
          0., 0., 0., 0., 0., 0., 0., 0., 0., 7.14285746e-02, 0., 0., 0.,
          0., 0., 0., 0., 0., 0., 0., 0., 0., 0., 0., 7.14285746e-02, 0.,
          0., 0., 0., 0., 0., 0., 7.14285746e-02, 0., 0., 0., 0., 0., 0.,
          0., 0., 7.14285746e-02, 0., 7.14285746e-02, 0., 0., 0., 0., 0.,
          0., 0., 0., 0., 0., 0., 0., 0., 7.14285746e-02, 7.14285746e-02,
          0., 0., 0., 0., 0., 0., 0., 0., 0., 0., 1.42857149e-01, 0., 0.,
          0., 0., 0., 0., 0., 0., 0., 0., 0., 0., 0., 0., 0.,
          7.14285746e-02, 0., 0., 0., 0. ]
      - [ 0., 0., 0., 0., 0., 0., 0., 0., 1.11111112e-01, 0., 0., 0., 0.,
          0., 0., 0., 0., 0., 0., 0., 0., 0., 0., 0., 0., 0., 0., 0., 0.,
          0., 0., 0., 0., 0., 1.11111112e-01, 0., 0., 0., 0., 0., 0., 0.,
          0., 0., 0., 0., 0., 0., 0., 0., 0., 0., 0., 0., 1.11111112e-01,
          0., 1.11111112e-01, 0., 0., 0., 0., 0., 0., 0., 0.,
          1.11111112e-01, 0., 0., 0., 0., 0., 0., 0., 0., 0., 0., 0., 0.,
          0., 0., 0., 0., 0., 0., 0., 0., 1.11111112e-01, 0., 0., 0.,
          1.11111112e-01, 0., 0., 2.22222224e-01, 0., 0., 0., 0., 0., 0. ]
      - [ 1.83486231e-02, 1.37614673e-02, 0., 0., 1.83486231e-02, 0.,
          1.37614673e-02, 0., 0., 4.58715577e-03, 0., 4.58715558e-02,
          9.17431153e-03, 4.58715577e-03, 1.83486231e-02, 0.,
          1.83486231e-02, 0., 9.17431153e-03, 1.83486231e-02,
          4.58715577e-03, 4.58715577e-03, 2.75229346e-02, 0.,
          4.12844010e-02, 9.17431153e-03, 1.37614673e-02, 1.37614673e-02,
          0., 1.37614673e-02, 1.37614673e-02, 0., 0., 0., 9.17431153e-03,
          1.37614673e-02, 0., 1.83486231e-02, 4.58715577e-03, 0., 0.,
          9.17431153e-03, 9.17431153e-03, 1.37614673e-02, 0.,
          4.58715577e-03, 1.83486231e-02, 1.83486231e-02, 4.58715577e-03,
          0., 9.17431153e-03, 9.17431153e-03, 0., 1.83486231e-02,
          3.21100913e-02, 0., 0., 9.17431153e-03, 0., 0., 0.,
          2.29357779e-02, 9.17431153e-03, 0., 1.83486231e-02,
          9.17431153e-03, 0., 1.37614673e-02, 4.58715577e-03,
          5.04587144e-02, 4.58715577e-03, 0., 2.75229346e-02, 0.,
          1.37614673e-02, 0., 4.58715577e-03, 3.21100913e-02, 0., 0.,
          2.29357779e-02, 0., 2.29357779e-02, 1.37614673e-02, 0., 0.,
          1.83486231e-02, 0., 3.21100913e-02, 0., 5.04587144e-02, 0.,
          4.58715577e-03, 1.83486231e-02, 9.17431153e-03, 1.37614673e-02,
          1.37614673e-02, 9.17431153e-03, 1.83486231e-02, 4.58715577e-03 ]
      - [ 0., 0., 0., 9.37500000e-02, 0., 0., 3.12500000e-02, 0., 0., 0.,
          0., 0., 0., 0., 0., 0., 0., 3.12500000e-02, 0., 0., 0., 0.,
          3.12500000e-02, 0., 0., 0., 0., 0., 0., 0., 0., 0., 0.,
          3.12500000e-02, 0., 0., 0., 3.12500000e-02, 0., 0., 0.,
          3.12500000e-02, 0., 0., 6.25000000e-02, 0., 0., 0., 0., 0., 0.,
          0., 0., 0., 0., 0., 0., 0., 0., 4.37500000e-01, 0., 0., 0., 0.,
          0., 0., 0., 0., 0., 9.37500000e-02, 0., 0., 0., 0., 0.,
          3.12500000e-02, 0., 0., 0., 0., 0., 0., 0., 0., 0., 0., 0., 0.,
          0., 0., 0., 0., 0., 6.25000000e-02, 0., 0., 0., 0.,
          3.12500000e-02, 0. ]
      - [ 0., 9.09090936e-02, 0., 0., 0., 0., 0., 0., 4.54545468e-02, 0.,
          0., 9.09090936e-02, 0., 0., 0., 0., 0., 4.54545468e-02, 0.,
          9.09090936e-02, 4.54545468e-02, 0., 0., 4.54545468e-02, 0., 0.,
          4.54545468e-02, 0., 0., 0., 0., 0., 0., 4.54545468e-02,
          9.09090936e-02, 0., 0., 0., 4.54545468e-02, 0., 0.,
          4.54545468e-02, 0., 4.54545468e-02, 0., 0., 0., 0.,
          4.54545468e-02, 0., 0., 4.54545468e-02, 0., 4.54545468e-02, 0.,
          0., 0., 0., 0., 0., 0., 0., 0., 0., 0., 0., 0., 0., 0., 0., 0.,
          4.54545468e-02, 0., 0., 0., 0., 0., 0., 4.54545468e-02, 0., 0.,
          0., 0., 0., 0., 0., 0., 0., 0., 0., 0., 0., 0., 0., 0., 0., 0.,
          0., 0., 0. ]
      - [ 0., 0., 0., 0., 0., 0., 0., 0., 0., 0., 0., 0., 0., 0., 0., 0.,
          0., 0., 0., 0., 0., 0., 3.33333343e-01, 0., 0., 0., 0., 0., 0.,
          0., 0., 0., 0., 0., 0., 0., 0., 0., 0., 0., 0., 0., 0., 0., 0.,
          0., 0., 0., 0., 0., 0., 0., 0., 0., 0., 0., 0., 0., 0., 0., 0.,
          0., 0., 0., 0., 0., 0., 0., 0., 0., 0., 0., 0., 0., 0., 0., 0.,
          0., 0., 0., 0., 0., 0., 0., 0., 0., 0., 0., 0., 0., 0., 0., 0.,
          6.66666687e-01, 0., 0., 0., 0., 0., 0. ]
      - [ 0., 0., 0., 0., 0., 0., 0., 0., 0., 0., 0., 0., 0., 0., 0., 0.,
          0., 0., 0., 0., 0., 0., 0., 0., 0., 0., 0., 0., 0., 0., 0., 0.,
          0., 0., 0., 0., 0., 0., 0., 0., 0., 9.09090936e-02, 0., 0., 0.,
          0., 0., 0., 0., 0., 0., 0., 0., 0., 0., 0., 0., 0., 0., 0., 0.,
          0., 0., 0., 0., 0., 0., 0., 0., 0., 0., 0., 9.09090936e-02, 0.,
          9.09090936e-02, 0., 0., 1.81818187e-01, 0., 0., 1.81818187e-01,
          0., 0., 0., 0., 0., 9.09090936e-02, 0., 0., 0., 1.81818187e-01,
          0., 0., 9.09090936e-02, 0., 0., 0., 0., 0., 0. ]
      - [ 0., 0., 0., 0., 0., 0., 5.55555560e-02, 0., 1.66666672e-01,
          5.55555560e-02, 0., 0., 0., 0., 0., 0., 0., 0., 0., 0., 0., 0.,
          0., 0., 0., 0., 0., 0., 0., 5.55555560e-02, 5.55555560e-02, 0.,
          0., 0., 0., 0., 0., 5.55555560e-02, 0., 0., 0., 0., 0., 0., 0.,
          0., 5.55555560e-02, 0., 0., 0., 0., 0., 5.55555560e-02, 0.,
          5.55555560e-02, 0., 0., 0., 0., 0., 0., 0., 0., 0., 0., 0., 0.,
          0., 0., 0., 0., 0., 0., 0., 0., 0., 0., 5.55555560e-02, 0., 0.,
          0., 0., 0., 0., 0., 0., 0., 0., 0., 0., 1.11111112e-01, 0., 0.,
          1.66666672e-01, 0., 0., 0., 5.55555560e-02, 0., 0. ]
      - [ 4.44444455e-02, 2.22222228e-02, 0., 0., 0., 0., 0., 0.,
          2.22222228e-02, 0., 0., 2.22222228e-02, 2.22222228e-02, 0., 0.,
          0., 4.44444455e-02, 0., 0., 8.88888910e-02, 2.22222228e-02, 0.,
          2.22222228e-02, 2.22222228e-02, 0., 0., 2.22222228e-02, 0., 0.,
          0., 0., 0., 0., 2.22222228e-02, 6.66666701e-02, 0., 0.,
          2.22222228e-02, 6.66666701e-02, 0., 0., 2.22222228e-02, 0., 0.,
          0., 0., 2.22222228e-02, 0., 0., 2.22222228e-02, 0., 0., 0., 0.,
          0., 0., 8.88888910e-02, 2.22222228e-02, 0., 0., 0.,
          2.22222228e-02, 0., 0., 2.22222228e-02, 0., 0., 0., 0.,
          2.22222228e-02, 0., 0., 0., 0., 0., 0., 0., 0., 0., 0., 0., 0.,
          0., 0., 0., 0., 1.11111112e-01, 0., 2.22222228e-02, 0.,
          2.22222228e-02, 0., 0., 0., 4.44444455e-02, 0., 0., 0.,
          2.22222228e-02, 0. ]
      - [ 0., 0., 0., 0., 2.23880596e-02, 0., 0., 7.46268639e-03,
          1.49253728e-02, 0., 0., 4.47761193e-02, 7.46268639e-03, 0.,
          7.46268639e-03, 0., 7.46268639e-03, 2.23880596e-02,
          7.46268639e-03, 1.49253728e-02, 0., 0., 0., 4.47761193e-02,
          7.46268639e-03, 2.98507456e-02, 2.23880596e-02, 0., 0., 0., 0.,
          0., 0., 7.46268639e-03, 5.97014911e-02, 0., 0., 7.46268639e-03,
          2.98507456e-02, 0., 0., 2.23880596e-02, 7.46268639e-03,
          7.46268639e-03, 0., 1.49253728e-02, 1.49253728e-02, 0.,
          2.98507456e-02, 0., 0., 7.46268639e-03, 1.49253728e-02, 0.,
          2.98507456e-02, 0., 0., 2.23880596e-02, 0., 0., 0.,
          1.49253728e-02, 4.47761193e-02, 0., 1.49253728e-02,
          7.46268639e-03, 7.46268639e-03, 0., 7.46268639e-03,
          7.46268639e-03, 0., 7.46268639e-03, 1.49253728e-02, 0.,
          7.46268639e-03, 0., 7.46268639e-03, 1.49253728e-02,
          1.49253728e-02, 0., 7.46268639e-03, 0., 5.22388034e-02,
          7.46268639e-03, 0., 0., 1.49253728e-02, 2.23880596e-02,
          5.22388034e-02, 0., 2.98507456e-02, 0., 0., 7.46268639e-03,
          2.98507456e-02, 7.46268639e-03, 7.46268639e-03, 7.46268639e-03,
          4.47761193e-02, 0. ]
      - [ 4.38596494e-03, 7.30994157e-03, 2.63157897e-02, 3.07017546e-02,
          4.38596494e-03, 1.60818715e-02, 2.92397663e-03, 5.84795326e-03,
          0., 1.46198831e-03, 1.16959065e-02, 1.31578948e-02,
          4.38596494e-03, 1.90058481e-02, 2.92397663e-03, 1.46198831e-03,
          1.46198831e-03, 1.46198831e-03, 5.84795326e-03, 4.38596494e-03,
          1.46198831e-03, 2.63157897e-02, 1.02339182e-02, 0.,
          4.38596494e-03, 1.46198831e-03, 1.60818715e-02, 1.16959065e-02,
          3.21637429e-02, 0., 7.30994157e-03, 1.90058481e-02,
          2.19298247e-02, 0., 4.38596494e-03, 1.46198831e-03,
          2.92397663e-02, 1.02339182e-02, 1.02339182e-02, 1.31578948e-02,
          1.31578948e-02, 0., 8.77192989e-03, 8.77192989e-03,
          3.21637429e-02, 2.92397663e-03, 1.46198831e-03, 0.,
          1.46198831e-03, 2.04678364e-02, 3.65497097e-02, 8.77192989e-03,
          4.38596494e-03, 0., 2.92397663e-03, 2.04678364e-02,
          1.46198831e-03, 5.84795326e-03, 7.30994157e-03, 7.89473653e-02,
          5.11695892e-02, 0., 5.84795326e-03, 8.77192989e-03,
          7.30994157e-03, 4.38596494e-03, 1.16959065e-02, 7.30994157e-03,
          1.46198831e-03, 5.84795326e-03, 2.33918130e-02, 8.77192989e-03,
          7.30994157e-03, 1.75438598e-02, 4.38596494e-03, 2.33918130e-02,
          8.77192989e-03, 2.92397663e-03, 8.77192989e-03, 1.46198831e-03,
          5.84795326e-03, 1.02339182e-02, 7.30994157e-03, 2.92397663e-03,
          1.31578948e-02, 2.92397663e-03, 2.92397663e-03, 1.46198831e-03,
          5.84795326e-03, 1.46198831e-03, 1.46198831e-03, 1.02339182e-02,
          2.04678364e-02, 0., 1.46198831e-03, 1.16959065e-02, 0.,
          1.90058481e-02, 1.31578948e-02, 1.60818715e-02 ]
      - [ 0., 0., 0., 0., 2.24719103e-02, 0., 1.12359552e-02, 0., 0., 0.,
          0., 1.12359552e-02, 1.12359552e-02, 0., 0., 2.24719103e-02, 0.,
          5.61797768e-02, 0., 1.12359552e-02, 0., 0., 1.12359552e-02,
          2.24719103e-02, 0., 5.61797768e-02, 4.49438207e-02, 0., 0.,
          2.24719103e-02, 1.12359552e-02, 0., 0., 0., 5.61797768e-02,
          1.12359552e-02, 0., 0., 1.12359552e-02, 0., 0., 0.,
          1.12359552e-02, 1.12359552e-02, 0., 0., 2.24719103e-02,
          1.12359552e-02, 0., 0., 0., 1.12359552e-02, 0., 8.98876414e-02,
          0., 0., 2.24719103e-02, 3.37078646e-02, 0., 0., 0., 0.,
          3.37078646e-02, 0., 0., 0., 0., 4.49438207e-02, 4.49438207e-02,
          0., 0., 3.37078646e-02, 0., 0., 1.12359552e-02, 0., 0.,
          2.24719103e-02, 7.86516890e-02, 0., 0., 0., 0., 0., 0., 0.,
          1.12359552e-02, 4.49438207e-02, 0., 4.49438207e-02, 0., 0., 0.,
          0., 1.12359552e-02, 0., 1.12359552e-02, 0., 0., 0. ]
      - [ 2.00000003e-01, 0., 0., 0., 0., 0., 0., 0., 0., 0., 0., 0., 0.,
          0., 0., 0., 0., 0., 0., 0., 0., 0., 0., 0., 0., 0., 0., 0., 0.,
          0., 0., 0., 0., 0., 0., 0., 0., 0., 0., 0., 0., 0., 0., 0., 0.,
          0., 0., 0., 0., 0., 0., 0., 0., 2.00000003e-01, 0., 0., 0., 0.,
          0., 0., 0., 0., 0., 0., 0., 0., 0., 0., 0., 0., 0., 0., 0., 0.,
          0., 0., 0., 0., 0., 2.00000003e-01, 0., 0., 0., 0., 0., 0., 0.,
          0., 0., 4.00000006e-01, 0., 0., 0., 0., 0., 0., 0., 0., 0., 0. ]
      - [ 0., 0., 0., 0., 0., 0., 1.15384623e-01, 0., 0., 3.84615399e-02,
          0., 0., 0., 0., 3.84615399e-02, 0., 0., 1.15384623e-01, 0., 0.,
          7.69230798e-02, 0., 0., 0., 3.84615399e-02, 0., 0., 0., 0.,
          3.84615399e-02, 0., 0., 0., 1.15384623e-01, 3.84615399e-02,
          3.84615399e-02, 0., 0., 0., 0., 0., 0., 0., 0., 0., 0., 0., 0.,
          0., 0., 0., 0., 3.84615399e-02, 0., 0., 0., 0., 0., 0., 0., 0.,
          0., 0., 0., 0., 0., 0., 0., 0., 3.84615399e-02, 0., 0., 0., 0.,
          0., 0., 0., 0., 0., 3.84615399e-02, 0., 0., 0., 0., 0., 0.,
          3.84615399e-02, 0., 0., 1.15384623e-01, 0., 0., 0., 0.,
          7.69230798e-02, 0., 0., 0., 0., 0. ]
      - [ 0., 0., 0., 0., 0., 0., 0., 0., 0., 0., 0., 0., 0., 0.,
          7.14285746e-02, 0., 0., 0., 0., 0., 0., 0., 0., 0.,
          1.42857149e-01, 0., 0., 0., 0., 0., 0., 0., 0., 0., 0., 0., 0.,
          0., 0., 0., 0., 0., 0., 0., 0., 0., 0., 0., 0., 0., 0., 0., 0.,
          0., 0., 0., 7.14285746e-02, 0., 0., 0., 0., 0., 0., 0., 0., 0.,
          0., 0., 0., 0., 0., 0., 0., 0., 0., 0., 0., 0., 7.14285746e-02,
          7.14285746e-02, 7.14285746e-02, 0., 0., 7.14285746e-02, 0., 0.,
          0., 0., 0., 2.14285731e-01, 0., 0., 0., 7.14285746e-02, 0., 0.,
          0., 0., 1.42857149e-01, 0. ]
      - [ 5.55555560e-02, 0., 0., 0., 1.85185187e-02, 0., 3.70370373e-02,
          0., 9.25925970e-02, 1.85185187e-02, 0., 0., 0., 1.85185187e-02,
          1.85185187e-02, 3.70370373e-02, 3.70370373e-02, 0.,
          1.85185187e-02, 1.85185187e-02, 1.85185187e-02, 0., 0.,
          1.85185187e-02, 0., 0., 0., 1.85185187e-02, 0., 0.,
          1.85185187e-02, 0., 0., 0., 0., 1.85185187e-02, 0., 0., 0., 0.,
          0., 0., 0., 0., 0., 0., 0., 5.55555560e-02, 0., 0., 0.,
          5.55555560e-02, 3.70370373e-02, 9.25925970e-02, 1.85185187e-02,
          0., 1.85185187e-02, 0., 0., 0., 0., 0., 0., 0., 0., 0., 0.,
          1.85185187e-02, 5.55555560e-02, 0., 0., 1.85185187e-02,
          1.85185187e-02, 0., 0., 0., 0., 0., 0., 0., 0., 0., 0., 0., 0.,
          0., 0., 1.85185187e-02, 0., 0., 0., 0., 0., 0., 0.,
          1.29629627e-01, 0., 0., 0., 0. ]
      - [ 0., 5.26315793e-02, 0., 0., 5.26315793e-02, 0., 0., 0.,
          5.26315793e-02, 0., 0., 1.05263159e-01, 0., 0., 0., 0., 0., 0.,
          0., 0., 0., 0., 5.26315793e-02, 0., 0., 0., 5.26315793e-02, 0.,
          0., 0., 0., 0., 0., 1.05263159e-01, 5.26315793e-02, 0., 0.,
          1.05263159e-01, 0., 0., 0., 0., 0., 0., 0., 0., 0., 0.,
          1.05263159e-01, 0., 0., 5.26315793e-02, 5.26315793e-02, 0., 0.,
          0., 0., 0., 0., 0., 0., 0., 0., 0., 0., 0., 0., 0., 0., 0., 0.,
          5.26315793e-02, 0., 0., 0., 0., 0., 0., 0., 0., 0., 0., 0., 0.,
          0., 0., 5.26315793e-02, 0., 0., 0., 0., 0., 0., 5.26315793e-02,
          0., 0., 0., 0., 0., 0. ]
      - [ 0., 0., 0., 0., 0., 0., 0., 0., 0., 0., 0., 0., 0., 0., 0.,
          8.33333358e-02, 8.33333358e-02, 8.33333358e-02, 0.,
          8.33333358e-02, 8.33333358e-02, 0., 8.33333358e-02, 0., 0.,
          8.33333358e-02, 0., 0., 0., 0., 0., 0., 0., 0., 8.33333358e-02,
          0., 0., 0., 0., 0., 0., 8.33333358e-02, 0., 0., 0., 0., 0., 0.,
          0., 0., 0., 0., 0., 0., 0., 0., 8.33333358e-02, 0., 0., 0., 0.,
          0., 0., 0., 0., 0., 0., 0., 0., 0., 0., 0., 0., 0., 0., 0., 0.,
          0., 0., 0., 0., 0., 0., 0., 0., 0., 8.33333358e-02,
          8.33333358e-02, 0., 0., 0., 0., 0., 0., 0., 0., 0., 0., 0., 0. ]
      - [ 0., 2.50000004e-02, 0., 0., 0., 0., 0., 0., 5.00000007e-02, 0.,
          0., 0., 0., 0., 0., 2.50000004e-02, 0., 2.50000004e-02,
          2.50000004e-02, 0., 0., 0., 0., 0., 0., 0., 0., 0., 0.,
          5.00000007e-02, 0., 0., 0., 0., 2.50000004e-02, 0., 0.,
          2.50000004e-02, 0., 0., 0., 0., 0., 2.50000004e-02, 0., 0., 0.,
          7.50000030e-02, 2.50000004e-02, 0., 0., 1.00000001e-01,
          2.50000004e-02, 2.50000000e-01, 0., 0., 0., 0., 0., 0., 0., 0.,
          0., 0., 0., 0., 0., 0., 5.00000007e-02, 0., 0., 0., 0., 0., 0.,
          0., 0., 5.00000007e-02, 0., 0., 0., 0., 0., 0., 0., 0.,
          5.00000007e-02, 2.50000004e-02, 0., 5.00000007e-02, 0., 0., 0.,
          2.50000004e-02, 0., 0., 0., 0., 0., 0. ]
      - [ 0., 0., 0., 0., 0., 0., 0., 0., 0., 0., 0., 0., 0., 0., 0., 0.,
          0., 0., 0., 8.33333358e-02, 0., 0., 0., 0., 0., 8.33333358e-02,
          0., 0., 0., 8.33333358e-02, 0., 0., 0., 0., 0., 0., 0.,
          8.33333358e-02, 0., 0., 0., 1.66666672e-01, 0., 8.33333358e-02,
          0., 0., 0., 0., 0., 0., 0., 0., 0., 0., 0., 0., 0., 0., 0., 0.,
          0., 0., 0., 0., 0., 0., 0., 0., 0., 0., 0., 0., 0., 0.,
          8.33333358e-02, 0., 0., 0., 0., 0., 0., 0., 0., 0., 0., 0., 0.,
          0., 0., 1.66666672e-01, 0., 0., 0., 1.66666672e-01, 0., 0., 0.,
          0., 0., 0. ]
      - [ 0., 0., 3.33333343e-01, 0., 0., 0., 0., 0., 0., 0., 0., 0., 0.,
          0., 0., 0., 0., 0., 0., 0., 0., 0., 0., 0., 0., 0., 0., 0., 0.,
          0., 3.33333343e-01, 0., 0., 0., 0., 0., 0., 0., 0., 0., 0., 0.,
          0., 0., 0., 0., 0., 0., 0., 0., 0., 0., 0., 0., 0., 0., 0., 0.,
          0., 0., 0., 0., 0., 0., 0., 0., 0., 0., 0., 0., 0., 0., 0., 0.,
          0., 0., 0., 0., 0., 0., 0., 0., 0., 0., 0., 0., 0., 0., 0., 0.,
          0., 0., 0., 3.33333343e-01, 0., 0., 0., 0., 0., 0. ]
      - [ 2.04918021e-03, 2.04918021e-03, 1.63934417e-02, 2.56147534e-02,
          2.04918021e-03, 3.68852429e-02, 0., 2.66393423e-02, 0., 0.,
          2.04918012e-02, 0., 0., 1.02459006e-02, 1.02459011e-03,
          1.02459011e-03, 3.07377032e-03, 0., 6.14754064e-03,
          2.04918021e-03, 3.07377032e-03, 3.48360650e-02, 0., 0.,
          1.02459011e-03, 1.02459011e-03, 2.04918021e-03, 6.14754064e-03,
          2.25409828e-02, 0., 3.07377032e-03, 3.17622945e-02,
          1.63934417e-02, 0., 4.09836043e-03, 1.02459011e-03,
          2.97131129e-02, 1.02459011e-03, 0., 2.66393423e-02,
          1.94672123e-02, 0., 1.02459011e-03, 2.04918021e-03,
          3.38114724e-02, 7.17213098e-03, 2.04918021e-03, 2.04918021e-03,
          0., 2.04918012e-02, 2.15163920e-02, 2.04918021e-03,
          4.09836043e-03, 0., 3.07377032e-03, 1.33196712e-02,
          1.02459011e-03, 1.02459011e-03, 1.84426215e-02, 4.50819656e-02,
          6.55737668e-02, 1.02459011e-03, 4.09836043e-03, 1.33196712e-02,
          1.02459011e-03, 0., 1.94672123e-02, 8.19672085e-03,
          1.02459011e-03, 1.02459011e-03, 2.66393423e-02, 1.02459011e-03,
          4.09836043e-03, 1.33196712e-02, 0., 3.58606540e-02,
          8.19672085e-03, 1.02459011e-03, 9.22131073e-03, 0.,
          6.14754064e-03, 3.58606540e-02, 2.04918021e-03, 1.02459011e-03,
          4.81557362e-02, 2.45901626e-02, 0., 1.02459011e-03,
          3.07377032e-03, 0., 1.02459011e-03, 4.50819656e-02,
          4.71311435e-02, 2.04918021e-03, 3.07377032e-03, 4.09836043e-03,
          2.04918021e-03, 1.43442620e-02, 0., 7.17213098e-03 ]
      - [ 0., 0., 0., 0., 0., 0., 0., 0., 0., 0., 0., 0., 0., 0., 0., 0.,
          0., 0., 0., 0., 0., 0., 0., 0., 7.69230798e-02, 0., 0., 0., 0.,
          0., 7.69230798e-02, 0., 0., 7.69230798e-02, 7.69230798e-02, 0.,
          0., 0., 0., 0., 0., 0., 0., 0., 0., 0., 0., 0., 0., 0., 0., 0.,
          7.69230798e-02, 0., 2.30769247e-01, 0., 0., 0., 0., 0., 0., 0.,
          0., 0., 0., 0., 0., 0., 0., 0., 0., 0., 7.69230798e-02, 0., 0.,
          0., 0., 0., 0., 0., 0., 0., 0., 0., 0., 0., 1.53846160e-01, 0.,
          0., 0., 7.69230798e-02, 0., 0., 7.69230798e-02, 0., 0., 0., 0.,
          0., 0. ]
      - [ 3.99999991e-02, 1.99999996e-02, 0., 0., 6.66666683e-03,
          6.66666683e-03, 1.99999996e-02, 0., 1.33333337e-02,
          6.66666683e-03, 0., 3.33333351e-02, 1.33333337e-02, 0.,
          1.33333337e-02, 1.33333337e-02, 1.99999996e-02, 6.66666683e-03,
          1.99999996e-02, 0., 0., 0., 0., 1.33333337e-02, 6.66666683e-03,
          1.99999996e-02, 3.33333351e-02, 1.33333337e-02, 0.,
          6.66666683e-03, 4.66666669e-02, 0., 0., 6.66666683e-03,
          1.99999996e-02, 0., 0., 1.33333337e-02, 6.66666683e-03, 0., 0.,
          0., 0., 6.66666683e-03, 0., 0., 1.33333337e-02, 1.99999996e-02,
          0., 0., 0., 3.33333351e-02, 2.66666673e-02, 4.66666669e-02,
          6.66666683e-03, 0., 0., 1.99999996e-02, 6.66666683e-03, 0., 0.,
          1.33333337e-02, 6.66666701e-02, 0., 0., 6.66666683e-03, 0.,
          1.99999996e-02, 1.33333337e-02, 0., 0., 6.66666683e-03,
          1.99999996e-02, 0., 6.66666683e-03, 0., 1.99999996e-02,
          3.99999991e-02, 1.99999996e-02, 0., 0., 0., 1.33333337e-02, 0.,
          0., 0., 1.99999996e-02, 3.33333351e-02, 2.66666673e-02,
          6.66666683e-03, 0., 0., 0., 6.66666683e-03, 1.99999996e-02,
          6.66666683e-03, 1.33333337e-02, 1.33333337e-02, 6.66666683e-03,
          0. ]
   decision_functions:
      -
         sv_count: 1
         rho: -9.3443280253540451e-01
         alpha: [ 1. ]
         index: [ 0 ]
