%YAML:1.0
---
opencv_ml_svm:
   format: 3
   svmType: C_SVC
   kernel:
      type: LINEAR
   C: 1.2500000000000000e+01
   term_criteria: { iterations:100 }
   var_count: 100
   class_count: 2
   class_labels: !!opencv-matrix
      rows: 2
      cols: 1
      dt: i
      data: [ 0, 1 ]
   sv_total: 1
   support_vectors:
      - [ -2.11295247e+00, 1.45618296e+00, 9.59409550e-02,
          -9.82224286e-01, 6.98213100e-01, -1.73517203e+00,
          3.64671610e-02, -3.92608672e-01, 6.25446141e-01,
          6.43368125e-01, 1.29495728e+00, 8.08119595e-01, 1.09564066e+00,
          8.83199871e-02, -2.66341507e-01, 2.33781978e-01,
          1.12396754e-01, -2.93051213e-01, -6.77858114e-01,
          3.93104732e-01, -8.21249902e-01, 5.73807836e-01,
          -3.26422244e-01, -3.82047623e-01, 6.23668194e-01,
          -6.35456324e-01, 1.00170851e+00, 4.47472751e-01,
          5.83798885e-01, -1.55940533e+00, -4.36872810e-01,
          2.45121098e+00, -5.03769405e-02, 1.01323165e-01,
          7.57297724e-02, -1.60341299e+00, 4.66863453e-01,
          -5.95969439e-01, -4.43833739e-01, -2.59971991e-02,
          -1.82752684e-01, 4.62994337e-01, 3.62500310e-01,
          3.32712531e-01, 6.02342069e-01, 2.50432879e-01, 2.81829566e-01,
          -2.18222644e-02, -1.91531509e-01, -2.89657474e-01,
          1.30472410e+00, -1.02848446e+00, -3.17957163e-01,
          -3.14218611e-01, -1.53570339e-01, 2.06019950e+00,
          -1.16201138e+00, -3.97024840e-01, -6.20239139e-01,
          4.21730608e-01, -7.34279633e-01, -2.86400676e-01,
          8.97744477e-01, -2.18892425e-01, 2.05488920e-01,
          2.85708219e-01, -9.35502648e-02, -1.84380636e-01,
          5.08791879e-02, 2.81585306e-02, 1.12413621e+00,
          -4.61013138e-01, -6.12772882e-01, 8.29010606e-01,
          -1.76808670e-01, -9.23844397e-01, -5.42800665e-01,
          7.20663130e-01, -7.80932724e-01, 4.16597098e-01,
          2.90129215e-01, 4.42587495e-01, -1.74344838e+00,
          3.40373725e-01, 1.51362628e-01, -2.52711952e-01,
          -3.11242461e-01, 6.40086710e-01, -8.96808505e-01,
          -1.04413599e-01, -5.67667663e-01, -7.06869140e-02,
          1.69885933e+00, -1.72755229e+00, -4.84914154e-01,
          -4.44718391e-01, 6.08061850e-01, 3.69477540e-01,
          1.09246564e+00, -5.38414299e-01 ]
   uncompressed_sv_total: 120
   uncompressed_support_vectors:
      - [ 0., 1.58730168e-02, 1.58730168e-02, 7.93650821e-02, 0.,
          1.58730168e-02, 0., 0., 0., 3.17460336e-02, 0., 0., 0., 0., 0.,
          0., 1.58730168e-02, 3.17460336e-02, 1.58730168e-02,
          1.58730168e-02, 1.58730168e-02, 0., 1.58730168e-02, 0., 0.,
          1.58730168e-02, 0., 1.58730168e-02, 0., 0., 1.58730168e-02, 0.,
          0., 1.58730168e-02, 0., 3.17460336e-02, 3.17460336e-02, 0.,
          1.58730168e-02, 0., 3.17460336e-02, 0., 0., 1.58730168e-02, 0.,
          1.58730168e-02, 0., 0., 0., 0., 1.58730168e-02, 0., 0.,
          1.58730168e-02, 0., 9.52381045e-02, 1.58730168e-02, 0., 0.,
          1.11111119e-01, 0., 0., 0., 0., 1.58730168e-02, 0., 0., 0.,
          6.34920672e-02, 4.76190522e-02, 0., 0., 0., 0., 0., 0., 0.,
          3.17460336e-02, 1.58730168e-02, 0., 0., 0., 0., 1.58730168e-02,
          1.58730168e-02, 0., 0., 0., 0., 0., 0., 3.17460336e-02, 0., 0.,
          1.58730168e-02, 0., 0., 0., 0., 1.58730168e-02 ]
      - [ 0., 0., 0., 0., 0., 0., 0., 0., 0., 0., 6.25000000e-02, 0., 0.,
          0., 0., 0., 0., 0., 0., 0., 6.25000000e-02, 0., 0., 0.,
          6.25000000e-02, 0., 0., 0., 0., 6.25000000e-02, 0., 0., 0., 0.,
          0., 0., 0., 0., 0., 0., 6.25000000e-02, 0., 0., 0., 0., 0., 0.,
          0., 0., 0., 0., 0., 0., 0., 0., 0., 0., 0., 0., 0., 0., 0., 0.,
          0., 0., 0., 0., 0., 0., 6.25000000e-02, 0., 0., 0.,
          6.25000000e-02, 0., 0., 0., 6.25000000e-02, 6.25000000e-02, 0.,
          1.25000000e-01, 0., 6.25000000e-02, 0., 0., 0., 0., 0.,
          6.25000000e-02, 6.25000000e-02, 0., 0., 0., 0., 0., 0., 0.,
          6.25000000e-02, 0., 6.25000000e-02 ]
      - [ 0., 0., 0., 0., 0., 0., 0., 0., 0., 0., 0., 0., 0., 0., 0.,
          1.42857149e-01, 0., 0., 0., 0., 0., 0., 0., 0., 0., 0., 0., 0.,
          0., 0., 0., 0., 0., 0., 0., 0., 0., 0., 0., 0., 0., 0., 0., 0.,
          0., 0., 0., 0., 0., 0., 0., 0., 0., 0., 0., 0., 0., 0., 0., 0.,
          0., 0., 0., 0., 0., 0., 0., 0., 0., 0., 0., 0., 0., 0., 0., 0.,
          0., 0., 0., 8.57142925e-01, 0., 0., 0., 0., 0., 0., 0., 0., 0.,
          0., 0., 0., 0., 0., 0., 0., 0., 0., 0., 0. ]
      - [ 0., 0., 0., 0., 0., 0., 0., 0., 0., 0., 0., 4.54545468e-02, 0.,
          0., 0., 4.54545468e-02, 4.54545468e-02, 0., 4.54545468e-02, 0.,
          0., 0., 0., 0., 0., 0., 0., 0., 0., 0., 0., 0., 0., 0., 0., 0.,
          0., 0., 0., 0., 0., 0., 0., 0., 0., 0., 0., 0., 0.,
          1.36363640e-01, 4.54545468e-02, 0., 0., 0., 0., 4.54545468e-02,
          0., 0., 0., 0., 0., 0., 0., 0., 0., 0., 0., 9.09090936e-02,
          4.54545468e-02, 0., 0., 1.36363640e-01, 0., 0., 0., 0., 0., 0.,
          0., 4.54545468e-02, 0., 0., 0., 0., 0., 0., 0., 4.54545468e-02,
          0., 1.36363640e-01, 0., 0., 0., 0., 0., 0., 0., 0.,
          4.54545468e-02, 4.54545468e-02 ]
      - [ 0., 0., 0., 0., 0., 0., 0., 0., 0., 0., 0., 0., 0., 0., 0., 0.,
          0., 0., 0., 0., 0., 0., 0., 0., 0., 0., 0., 0., 0., 0., 0., 0.,
          0., 0., 0., 0., 6.66666687e-01, 0., 0., 0., 0., 0., 0., 0., 0.,
          0., 0., 0., 0., 0., 0., 0., 0., 0., 0., 0., 0., 0., 0., 0., 0.,
          0., 0., 0., 0., 0., 0., 0., 0., 0., 0., 0., 0., 0., 0., 0., 0.,
          0., 3.33333343e-01, 0., 0., 0., 0., 0., 0., 0., 0., 0., 0., 0.,
          0., 0., 0., 0., 0., 0., 0., 0., 0., 0. ]
      - [ 0., 0., 0., 0., 0., 0., 0., 0., 0., 0., 0., 0., 0.,
          9.09090936e-02, 0., 0., 0., 9.09090936e-02, 0., 9.09090936e-02,
          0., 0., 0., 0., 0., 0., 0., 0., 0., 0., 0., 0., 0., 0., 0., 0.,
          9.09090936e-02, 0., 0., 0., 0., 0., 0., 0., 0., 0., 0., 0., 0.,
          0., 0., 0., 0., 0., 0., 0., 9.09090936e-02, 0., 0., 0., 0., 0.,
          0., 0., 0., 9.09090936e-02, 0., 0., 0., 0., 0., 0., 0., 0., 0.,
          0., 0., 0., 9.09090936e-02, 0., 0., 0., 0., 0., 0., 0., 0., 0.,
          9.09090936e-02, 0., 0., 0., 0., 0., 9.09090936e-02, 0., 0.,
          1.81818187e-01, 0., 0. ]
      - [ 0., 0., 0., 0., 0., 0., 9.09090936e-02, 0., 0., 0., 0., 0., 0.,
          0., 0., 0., 0., 0., 0., 0., 0., 0., 0., 9.09090936e-02, 0., 0.,
          0., 0., 0., 0., 0., 0., 0., 0., 0., 0., 0., 0., 0., 0., 0., 0.,
          0., 0., 0., 0., 0., 0., 0., 0., 0., 0., 0., 0., 0., 0., 0., 0.,
          0., 0., 0., 0., 0., 0., 0., 0., 1.81818187e-01, 0., 0., 0., 0.,
          0., 9.09090936e-02, 9.09090936e-02, 0., 0., 0., 0., 0.,
          1.81818187e-01, 0., 9.09090936e-02, 0., 0., 0., 0., 0., 0., 0.,
          0., 0., 0., 0., 0., 0., 0., 0., 0., 9.09090936e-02,
          9.09090936e-02 ]
      - [ 0., 0., 0., 1.66666672e-01, 0., 0., 8.33333358e-02, 0., 0., 0.,
          0., 0., 0., 0., 0., 0., 0., 0., 0., 0., 0., 0., 0., 0., 0., 0.,
          0., 0., 0., 0., 0., 0., 0., 0., 0., 0., 0., 0., 0., 0.,
          8.33333358e-02, 0., 0., 0., 0., 8.33333358e-02, 8.33333358e-02,
          0., 0., 0., 0., 0., 0., 0., 0., 0., 0., 0., 0., 0., 0., 0., 0.,
          0., 0., 0., 0., 0., 0., 0., 0., 8.33333358e-02, 0., 0., 0., 0.,
          0., 0., 8.33333358e-02, 0., 8.33333358e-02, 0., 0., 0., 0., 0.,
          0., 0., 0., 8.33333358e-02, 0., 0., 0., 0., 0., 0., 0., 0.,
          8.33333358e-02, 8.33333358e-02 ]
      - [ 0., 0., 0., 0., 0., 0., 0., 0., 2.50000000e-01, 0., 0., 0., 0.,
          0., 0., 0., 0., 0., 0., 0., 0., 0., 0., 0., 0., 0., 0., 0., 0.,
          0., 0., 0., 0., 0., 0., 0., 0., 0., 0., 0., 0., 0., 0., 0., 0.,
          0., 0., 0., 0., 0., 0., 0., 0., 0., 0., 0., 0., 0., 0., 0., 0.,
          0., 0., 0., 0., 2.50000000e-01, 0., 0., 0., 0., 0., 0., 0., 0.,
          0., 0., 0., 0., 0., 2.50000000e-01, 0., 0., 0., 0., 0., 0., 0.,
          0., 0., 0., 2.50000000e-01, 0., 0., 0., 0., 0., 0., 0., 0., 0. ]
      - [ 0., 0., 0., 2.00000003e-01, 0., 0., 0., 0., 0., 0., 0., 0., 0.,
          0., 0., 0., 0., 0., 0., 0., 0., 0., 0., 0., 0., 0., 0., 0., 0.,
          0., 0., 2.00000003e-01, 0., 0., 0., 0., 0., 0., 0., 0.,
          4.00000006e-01, 0., 0., 0., 0., 0., 0., 0., 0., 0., 0., 0., 0.,
          0., 0., 0., 0., 0., 0., 0., 0., 0., 0., 0., 0., 0., 0., 0., 0.,
          0., 0., 0., 0., 0., 0., 0., 0., 0., 0., 0., 0., 0., 0., 0., 0.,
          0., 0., 0., 0., 0., 0., 0., 0., 0., 0., 0., 0., 0., 0.,
          2.00000003e-01 ]
      - [ 0., 0., 0., 0., 0., 0., 0., 0., 0., 0., 0., 0., 0.,
          1.11111112e-01, 0., 0., 0., 0., 0., 0., 0., 0., 0., 0., 0., 0.,
          0., 0., 0., 0., 0., 0., 0., 0., 0., 1.11111112e-01, 0., 0., 0.,
          0., 0., 0., 0., 0., 0., 0., 0., 0., 0., 0., 0., 0., 0., 0., 0.,
          0., 0., 0., 0., 0., 0., 0., 0., 0., 0., 0., 0., 0., 0., 0., 0.,
          0., 0., 0., 0., 0., 2.22222224e-01, 0., 0., 1.11111112e-01, 0.,
          0., 0., 0., 0., 0., 0., 0., 2.22222224e-01, 0., 0., 0., 0., 0.,
          0., 0., 0., 2.22222224e-01, 0., 0. ]
      - [ 2.17391308e-02, 1.08695654e-02, 0., 9.78260860e-02,
          1.08695654e-02, 0., 1.08695654e-02, 0., 0., 0., 0.,
          3.26086953e-02, 0., 0., 0., 0., 2.17391308e-02, 0.,
          8.69565234e-02, 3.26086953e-02, 1.08695654e-02, 0., 0.,
          2.17391308e-02, 1.08695654e-02, 0., 1.08695654e-02, 0., 0.,
          1.08695654e-02, 1.08695654e-02, 2.17391308e-02, 0., 0., 0.,
          1.08695654e-02, 1.08695654e-02, 1.08695654e-02, 2.17391308e-02,
          0., 1.08695654e-02, 2.17391308e-02, 0., 1.08695654e-02, 0., 0.,
          0., 1.08695654e-02, 0., 3.26086953e-02, 3.26086953e-02, 0., 0.,
          0., 2.17391308e-02, 1.08695654e-02, 0., 0., 0., 6.52173907e-02,
          0., 0., 0., 0., 2.17391308e-02, 1.08695654e-02, 2.17391308e-02,
          1.08695654e-02, 2.17391308e-02, 1.08695654e-02, 0.,
          2.17391308e-02, 2.17391308e-02, 1.08695654e-02, 0.,
          1.08695654e-02, 0., 0., 0., 2.17391308e-02, 1.08695654e-02, 0.,
          0., 0., 0., 3.26086953e-02, 0., 1.08695654e-02, 0.,
          1.08695654e-02, 1.08695654e-02, 0., 1.08695654e-02, 0., 0., 0.,
          0., 0., 1.08695654e-02, 2.17391308e-02 ]
      - [ 0., 5.26315793e-02, 0., 1.57894731e-01, 0., 0., 0., 0., 0., 0.,
          0., 0., 0., 0., 0., 1.05263159e-01, 0., 0., 5.26315793e-02, 0.,
          0., 0., 0., 0., 0., 0., 0., 0., 0., 0., 0., 0., 0., 0., 0.,
          5.26315793e-02, 0., 0., 0., 0., 0., 0., 0., 0., 0., 0., 0., 0.,
          0., 0., 0., 0., 0., 0., 0., 0., 0., 0., 0., 5.26315793e-02, 0.,
          0., 0., 0., 0., 0., 0., 5.26315793e-02, 0., 0., 0.,
          1.05263159e-01, 0., 0., 0., 0., 0., 0., 0., 1.57894731e-01, 0.,
          0., 0., 0., 0., 0., 0., 0., 5.26315793e-02, 5.26315793e-02, 0.,
          0., 0., 0., 0., 0., 0., 0., 5.26315793e-02, 5.26315793e-02 ]
      - [ 0., 0., 0., 7.69230798e-02, 0., 7.69230798e-02, 0., 0., 0., 0.,
          0., 0., 0., 0., 0., 0., 0., 0., 0., 0., 0., 0., 7.69230798e-02,
          0., 0., 0., 0., 0., 0., 0., 0., 0., 0., 0., 0., 0., 0., 0., 0.,
          0., 3.07692319e-01, 0., 0., 0., 0., 0., 0., 0., 0., 0., 0., 0.,
          0., 0., 0., 0., 0., 0., 0., 0., 0., 0., 0., 0., 0., 0., 0., 0.,
          0., 7.69230798e-02, 0., 0., 0., 7.69230798e-02, 0., 0., 0., 0.,
          0., 7.69230798e-02, 0., 7.69230798e-02, 0., 0., 0., 0., 0., 0.,
          0., 0., 0., 0., 0., 0., 0., 0., 0., 7.69230798e-02, 0.,
          7.69230798e-02 ]
      - [ 0., 3.22580636e-02, 0., 1.29032254e-01, 0., 0., 0., 0.,
          3.22580636e-02, 3.22580636e-02, 6.45161271e-02, 6.45161271e-02,
          0., 3.22580636e-02, 0., 3.22580636e-02, 0., 0., 0., 0., 0., 0.,
          0., 0., 3.22580636e-02, 0., 0., 0., 0., 0., 3.22580636e-02, 0.,
          0., 0., 0., 0., 0., 0., 3.22580636e-02, 0., 3.22580636e-02, 0.,
          0., 0., 0., 3.22580636e-02, 6.45161271e-02, 3.22580636e-02, 0.,
          0., 0., 0., 0., 0., 0., 0., 3.22580636e-02, 0., 0., 0., 0., 0.,
          0., 0., 0., 0., 0., 0., 0., 0., 0., 0., 0., 0., 0., 0.,
          3.22580636e-02, 3.22580636e-02, 3.22580636e-02, 0., 0., 0., 0.,
          0., 0., 0., 0., 0., 3.22580636e-02, 6.45161271e-02,
          3.22580636e-02, 0., 0., 0., 0., 0., 0., 0., 6.45161271e-02, 0. ]
      - [ 0., 1.58730168e-02, 0., 2.38095261e-02, 0., 0., 1.58730168e-02,
          0., 0., 0., 7.93650839e-03, 7.93650839e-03, 0., 2.38095261e-02,
          0., 0., 3.17460336e-02, 7.93650839e-03, 0., 0., 0., 0., 0.,
          3.96825410e-02, 0., 7.93650839e-03, 0., 7.93650839e-03, 0., 0.,
          7.93650839e-03, 2.38095261e-02, 0., 0., 7.93650839e-03,
          7.93650839e-03, 7.93650839e-03, 0., 7.93650839e-03,
          1.58730168e-02, 0., 2.38095261e-02, 0., 7.93650839e-03, 0., 0.,
          7.93650839e-03, 7.93650839e-03, 2.38095261e-02, 4.76190522e-02,
          2.38095261e-02, 0., 0., 0., 0., 1.58730164e-01, 7.93650839e-03,
          0., 0., 3.17460336e-02, 0., 0., 7.93650839e-03, 0.,
          7.93650839e-03, 2.38095261e-02, 7.93650839e-03, 2.38095261e-02,
          1.58730168e-02, 0., 0., 1.58730168e-02, 7.93650839e-03,
          7.93650839e-03, 0., 1.58730168e-02, 1.58730168e-02,
          7.93650839e-03, 2.38095261e-02, 1.58730168e-02, 3.17460336e-02,
          1.58730168e-02, 7.93650839e-03, 0., 0., 0., 0., 1.58730168e-02,
          7.93650839e-03, 1.58730168e-02, 1.58730168e-02, 0.,
          1.58730168e-02, 3.17460336e-02, 0., 0., 0., 1.58730168e-02,
          1.58730168e-02, 0. ]
      - [ 0., 0., 0., 5.26315793e-02, 0., 0., 0., 0., 0., 0., 0., 0., 0.,
          0., 0., 2.63157897e-02, 0., 0., 0., 0., 0., 0., 0., 0., 0., 0.,
          0., 0., 0., 0., 5.26315793e-02, 0., 0., 0., 0., 0.,
          7.89473653e-02, 0., 0., 0., 5.26315793e-02, 2.63157897e-02, 0.,
          0., 0., 0., 0., 0., 0., 0., 0., 0., 0., 0., 0., 0., 0., 0., 0.,
          2.63157897e-02, 0., 0., 0., 0., 0., 0., 0., 2.63157897e-02, 0.,
          0., 0., 0., 0., 7.89473653e-02, 0., 0., 2.63157897e-02, 0.,
          5.26315793e-02, 7.89473653e-02, 2.63157897e-02, 0.,
          2.63157897e-02, 0., 0., 2.63157897e-02, 0., 0., 5.26315793e-02,
          0., 2.63157897e-02, 0., 0., 0., 0., 1.31578952e-01, 0., 0.,
          1.31578952e-01, 0. ]
      - [ 0., 0., 0., 0., 0., 0., 0., 0., 0., 0., 0., 0., 3.22580636e-02,
          0., 0., 0., 3.22580636e-02, 3.22580636e-02, 3.22580636e-02, 0.,
          0., 0., 0., 0., 0., 0., 0., 0., 0., 0., 0., 0., 0., 0., 0., 0.,
          6.45161271e-02, 0., 3.22580636e-02, 0., 6.45161271e-02,
          3.22580636e-02, 0., 0., 0., 0., 0., 3.22580636e-02,
          3.22580636e-02, 0., 0., 0., 0., 0., 3.22580636e-02, 0., 0., 0.,
          0., 3.22580636e-02, 0., 0., 0., 0., 0., 3.22580636e-02, 0.,
          3.22580636e-02, 3.22580636e-02, 0., 0., 3.22580636e-02, 0.,
          9.67741907e-02, 0., 0., 3.22580636e-02, 0., 0., 0., 0., 0., 0.,
          0., 0., 0., 0., 3.22580636e-02, 9.67741907e-02, 0., 0., 0., 0.,
          6.45161271e-02, 0., 0., 3.22580636e-02, 3.22580636e-02, 0.,
          3.22580636e-02 ]
      - [ 0., 0., 0., 0., 0., 0., 0., 0., 1.25000000e-01, 0.,
          1.25000000e-01, 0., 0., 1.25000000e-01, 0., 0., 0., 0., 0., 0.,
          0., 0., 0., 0., 0., 0., 0., 0., 0., 0., 1.25000000e-01, 0., 0.,
          0., 0., 0., 0., 0., 0., 0., 0., 0., 0., 0., 0., 0., 0., 0., 0.,
          0., 0., 0., 0., 0., 0., 0., 1.25000000e-01, 0., 0., 0., 0., 0.,
          0., 0., 0., 0., 0., 0., 0., 1.25000000e-01, 0., 0., 0., 0., 0.,
          0., 0., 0., 0., 0., 0., 0., 0., 2.50000000e-01, 0., 0., 0., 0.,
          0., 0., 0., 0., 0., 0., 0., 0., 0., 0., 0., 0. ]
      - [ 0., 5.68181835e-02, 0., 0., 0., 0., 0., 0., 1.13636367e-02, 0.,
          0., 0., 0., 0., 0., 0., 0., 1.13636367e-02, 0., 3.40909101e-02,
          0., 0., 0., 1.13636367e-02, 0., 0., 0., 0., 0., 7.95454532e-02,
          2.27272734e-02, 0., 0., 0., 0., 3.40909101e-02, 4.54545468e-02,
          0., 7.95454532e-02, 1.13636367e-02, 0., 3.40909101e-02,
          4.54545468e-02, 0., 0., 0., 0., 0., 1.13636367e-02,
          1.13636367e-02, 0., 2.27272734e-02, 0., 0., 0., 2.27272734e-02,
          2.27272734e-02, 0., 0., 0., 1.13636367e-02, 0., 0.,
          3.40909101e-02, 0., 0., 1.13636367e-02, 0., 0., 0., 0., 0., 0.,
          0., 0., 1.13636367e-02, 9.09090936e-02, 0., 1.13636367e-02,
          2.27272734e-02, 1.13636367e-02, 0., 0., 0., 0., 0., 0.,
          1.13636367e-02, 4.54545468e-02, 2.27272734e-02, 5.68181835e-02,
          0., 0., 0., 0., 0., 0., 9.09090936e-02, 0., 0. ]
      - [ 0., 0., 0., 0., 0., 0., 0., 0., 0., 0., 0., 0., 0., 0., 0., 1.,
          0., 0., 0., 0., 0., 0., 0., 0., 0., 0., 0., 0., 0., 0., 0., 0.,
          0., 0., 0., 0., 0., 0., 0., 0., 0., 0., 0., 0., 0., 0., 0., 0.,
          0., 0., 0., 0., 0., 0., 0., 0., 0., 0., 0., 0., 0., 0., 0., 0.,
          0., 0., 0., 0., 0., 0., 0., 0., 0., 0., 0., 0., 0., 0., 0., 0.,
          0., 0., 0., 0., 0., 0., 0., 0., 0., 0., 0., 0., 0., 0., 0., 0.,
          0., 0., 0., 0. ]
      - [ 0., 0., 0., 0., 0., 0., 0., 0., 0., 0., 0., 0., 2.00000003e-01,
          0., 0., 0., 0., 0., 0., 0., 0., 0., 0., 0., 0., 4.00000006e-01,
          0., 0., 0., 0., 0., 0., 0., 0., 0., 0., 0., 0., 0., 0., 0., 0.,
          0., 0., 0., 0., 0., 0., 0., 0., 0., 0., 0., 0., 0., 0., 0., 0.,
          0., 0., 0., 0., 0., 0., 0., 0., 0., 0., 0., 0., 0., 0., 0., 0.,
          0., 0., 0., 0., 0., 0., 0., 0., 0., 0., 0., 0., 0., 0., 0., 0.,
          0., 0., 0., 0., 4.00000006e-01, 0., 0., 0., 0., 0. ]
      - [ 4.47761193e-02, 0., 0., 4.47761193e-02, 0., 0., 0., 0.,
          1.49253728e-02, 0., 1.49253728e-02, 1.49253728e-02,
          1.49253728e-02, 0., 0., 0., 2.98507456e-02, 0., 8.95522386e-02,
          0., 0., 0., 0., 1.49253728e-02, 1.49253728e-02, 0., 0.,
          1.49253728e-02, 0., 0., 0., 0., 0., 4.47761193e-02, 0.,
          1.49253728e-02, 0., 0., 2.98507456e-02, 0., 1.49253728e-02,
          1.49253728e-02, 0., 0., 0., 1.49253728e-02, 0., 0., 0.,
          2.98507456e-02, 1.49253728e-02, 0., 0., 0., 1.49253728e-02,
          1.49253728e-02, 0., 0., 0., 1.49253728e-02, 1.49253728e-02, 0.,
          0., 0., 1.49253728e-02, 0., 0., 1.49253728e-02, 1.49253728e-02,
          0., 0., 2.98507456e-02, 4.47761193e-02, 1.49253728e-02, 0., 0.,
          0., 0., 0., 0., 2.98507456e-02, 0., 0., 0., 0., 1.49253728e-02,
          0., 2.98507456e-02, 2.98507456e-02, 2.98507456e-02, 0., 0.,
          1.04477607e-01, 0., 0., 1.49253728e-02, 1.49253728e-02, 0., 0.,
          4.47761193e-02 ]
      - [ 0., 0., 0., 0., 0., 0., 0., 0., 0., 0., 0., 0., 0., 0., 0., 0.,
          0., 0., 8.69565234e-02, 0., 0., 0., 0., 0., 1.30434781e-01, 0.,
          0., 0., 0., 0., 0., 0., 0., 4.34782617e-02, 0., 0.,
          1.73913047e-01, 0., 0., 4.34782617e-02, 1.30434781e-01, 0., 0.,
          0., 0., 0., 4.34782617e-02, 0., 0., 4.34782617e-02, 0., 0., 0.,
          0., 0., 0., 0., 0., 0., 0., 0., 0., 0., 0., 0., 0., 0., 0., 0.,
          0., 0., 0., 0., 8.69565234e-02, 0., 0., 1.30434781e-01, 0., 0.,
          0., 0., 0., 0., 0., 0., 0., 0., 0., 0., 0., 0., 0., 0.,
          4.34782617e-02, 0., 0., 0., 0., 0., 4.34782617e-02 ]
      - [ 0., 0., 0., 0., 0., 0., 0., 0., 0., 0., 0., 0., 0.,
          1.42857149e-01, 0., 0., 0., 0., 0., 0., 0., 0., 0., 0., 0., 0.,
          0., 0., 0., 1.42857149e-01, 0., 0., 0., 0., 0., 0.,
          1.42857149e-01, 0., 0., 0., 0., 0., 0., 0., 0., 0., 0., 0., 0.,
          0., 0., 0., 0., 0., 0., 0., 0., 0., 0., 0., 0., 0., 0., 0., 0.,
          0., 0., 0., 0., 0., 0., 0., 0., 0., 0., 0., 0., 0., 0.,
          1.42857149e-01, 0., 0., 0., 0., 0., 0., 0., 0., 0., 0.,
          2.85714298e-01, 0., 0., 0., 0., 0., 0., 0., 0., 1.42857149e-01 ]
      - [ 6.72268942e-02, 0., 0., 2.52100863e-02, 0., 0., 0., 0.,
          8.40336177e-03, 8.40336177e-03, 0., 1.51260510e-01, 0., 0., 0.,
          0., 0., 0., 0., 0., 0., 0., 0., 8.40336177e-03, 0., 0.,
          8.40336177e-03, 0., 0., 8.40336177e-03, 0., 9.24369767e-02, 0.,
          1.68067235e-02, 8.40336177e-03, 0., 8.40336177e-03, 0., 0., 0.,
          1.68067235e-02, 0., 0., 0., 0., 0., 0., 8.40336177e-03, 0., 0.,
          0., 0., 8.40336177e-03, 0., 8.40336177e-03, 1.84873953e-01,
          8.40336177e-03, 0., 0., 0., 8.40336177e-03, 8.40336177e-03, 0.,
          0., 7.56302550e-02, 8.40336177e-03, 0., 0., 8.40336177e-03, 0.,
          0., 8.40336177e-03, 2.52100863e-02, 8.40336177e-03, 0., 0.,
          8.40336177e-03, 3.36134471e-02, 0., 8.40336177e-03,
          2.52100863e-02, 8.40336177e-03, 0., 8.40336177e-03,
          1.68067235e-02, 1.68067235e-02, 0., 8.40336177e-03, 0., 0., 0.,
          0., 4.20168079e-02, 8.40336177e-03, 0., 1.68067235e-02, 0., 0.,
          0., 0. ]
      - [ 3.50877196e-02, 0., 0., 0., 0., 1.75438598e-02, 1.22807018e-01,
          0., 0., 3.50877196e-02, 1.75438598e-02, 5.26315793e-02, 0., 0.,
          0., 0., 0., 0., 0., 1.75438598e-02, 3.50877196e-02, 0., 0., 0.,
          0., 0., 0., 0., 0., 0., 0., 1.75438598e-02, 0., 0., 0., 0., 0.,
          3.50877196e-02, 0., 0., 1.75438598e-02, 0., 0., 0., 0., 0., 0.,
          0., 0., 0., 0., 0., 1.75438598e-02, 3.50877196e-02,
          1.75438598e-02, 1.75438598e-02, 0., 0., 0., 0., 0.,
          3.50877196e-02, 0., 0., 0., 0., 1.75438598e-02, 0.,
          1.75438598e-02, 1.75438598e-02, 1.75438598e-02, 0.,
          1.75438598e-02, 0., 0., 0., 0., 5.26315793e-02, 0., 0., 0., 0.,
          0., 1.75438598e-02, 3.50877196e-02, 0., 0., 0., 1.75438598e-02,
          0., 0., 1.75438598e-02, 2.10526317e-01, 0., 0., 0.,
          1.75438598e-02, 1.75438598e-02, 0., 0. ]
      - [ 0., 0., 0., 0., 0., 0., 0., 0., 0., 0., 0., 0., 0., 0., 0., 0.,
          5.55555560e-02, 5.55555560e-02, 0., 0., 0., 0., 0., 0., 0.,
          5.55555560e-02, 0., 0., 0., 0., 5.55555560e-02, 0., 0., 0., 0.,
          5.55555560e-02, 0., 0., 0., 0., 0., 0., 0., 5.55555560e-02, 0.,
          0., 5.55555560e-02, 5.55555560e-02, 0., 0., 0., 0., 0., 0., 0.,
          0., 0., 0., 0., 0., 0., 0., 0., 0., 0., 0., 0., 0., 0.,
          5.55555560e-02, 0., 5.55555560e-02, 0., 0., 0., 0.,
          5.55555560e-02, 0., 0., 0., 0., 0., 0., 0., 0., 0., 0., 0.,
          1.11111112e-01, 5.55555560e-02, 0., 0., 0., 0., 5.55555560e-02,
          0., 0., 5.55555560e-02, 1.11111112e-01, 0. ]
      - [ 0., 0., 0., 0., 0., 0., 0., 0., 0., 0., 0., 0., 0., 0., 0.,
          1.00000001e-01, 0., 0., 0., 0., 0., 0., 0., 0., 0.,
          2.00000003e-01, 0., 0., 0., 0., 0., 0., 0., 0., 0.,
          1.00000001e-01, 0., 0., 0., 0., 0., 0., 0., 0., 0., 0., 0., 0.,
          0., 0., 0., 0., 0., 0., 0., 0., 0., 0., 0., 0., 0., 0., 0., 0.,
          0., 0., 0., 0., 0., 1.00000001e-01, 0., 0., 0., 0., 0., 0., 0.,
          0., 0., 0., 0., 0., 0., 0., 0., 0., 0., 0., 1.00000001e-01,
          1.00000001e-01, 0., 0., 0., 0., 3.00000012e-01, 0., 0., 0., 0.,
          0. ]
      - [ 0., 0., 0., 0., 0., 0., 0., 0., 0., 0., 0., 0., 0., 0., 0., 0.,
          0., 0., 0., 0., 0., 0., 0., 0., 0., 0., 1.25000000e-01, 0., 0.,
          0., 0., 1.25000000e-01, 0., 0., 0., 0., 1.25000000e-01, 0., 0.,
          0., 2.50000000e-01, 1.25000000e-01, 0., 0., 0., 0., 0., 0., 0.,
          0., 0., 0., 0., 0., 0., 0., 0., 0., 0., 0., 0., 1.25000000e-01,
          0., 0., 0., 0., 0., 0., 0., 0., 0., 0., 0., 1.25000000e-01, 0.,
          0., 0., 0., 0., 0., 0., 0., 0., 0., 0., 0., 0., 0., 0., 0., 0.,
          0., 0., 0., 0., 0., 0., 0., 0., 0. ]
      - [ 0., 0., 0., 0., 0., 0., 0., 0., 0., 0., 0., 0., 0., 0., 0.,
          1.42857149e-01, 0., 0., 0., 0., 0., 0., 0., 0., 1.42857149e-01,
          0., 0., 0., 0., 0., 0., 0., 0., 0., 0., 0., 0., 0., 0., 0.,
          1.42857149e-01, 0., 0., 0., 0., 0., 0., 0., 0., 0., 0., 0., 0.,
          0., 0., 0., 0., 0., 0., 0., 0., 0., 0., 0., 0., 0., 0., 0., 0.,
          0., 0., 0., 0., 0., 0., 0., 1.42857149e-01, 0., 0.,
          1.42857149e-01, 0., 0., 0., 0., 0., 0., 0., 0., 1.42857149e-01,
          0., 0., 0., 0., 0., 0., 0., 0., 1.42857149e-01, 0., 0. ]
      - [ 0., 0., 0., 0., 0., 0., 0., 0., 0., 0., 5.55555560e-02, 0., 0.,
          0., 0., 1.66666672e-01, 0., 0., 0., 0., 0., 0., 5.55555560e-02,
          0., 0., 0., 0., 0., 0., 0., 0., 0., 0., 0., 0., 0., 0., 0.,
          5.55555560e-02, 0., 0., 0., 0., 0., 0., 0., 5.55555560e-02, 0.,
          0., 5.55555560e-02, 1.11111112e-01, 0., 0., 0., 0., 0., 0., 0.,
          0., 0., 0., 0., 0., 0., 0., 5.55555560e-02, 0., 0.,
          5.55555560e-02, 0., 0., 0., 0., 5.55555560e-02, 0., 0., 0., 0.,
          1.11111112e-01, 0., 0., 0., 0., 0., 0., 0., 0., 0., 0.,
          5.55555560e-02, 0., 0., 0., 0., 0., 0., 0., 0., 5.55555560e-02,
          5.55555560e-02 ]
      - [ 0., 0., 0., 1.00000001e-01, 0., 0., 0., 0., 0., 0., 0., 0., 0.,
          0., 0., 0., 1.00000001e-01, 0., 0., 0., 0., 0., 0., 0., 0., 0.,
          0., 0., 0., 1.00000001e-01, 0., 0., 0., 0., 0., 0., 0., 0., 0.,
          0., 0., 0., 0., 0., 0., 0., 0., 0., 0., 1.00000001e-01, 0., 0.,
          0., 0., 0., 0., 0., 0., 0., 0., 0., 0., 0., 0., 0., 0., 0., 0.,
          0., 0., 0., 1.00000001e-01, 0., 0., 0., 0., 0., 0., 0.,
          1.00000001e-01, 0., 0., 0., 0., 0., 0., 0., 0., 0., 0., 0., 0.,
          0., 0., 0., 0., 0., 0., 3.00000012e-01, 1.00000001e-01 ]
      - [ 7.69230798e-02, 0., 0., 0., 7.69230798e-02, 0., 0., 0., 0.,
          7.69230798e-02, 0., 0., 0., 0., 0., 0., 0., 0., 0., 0., 0., 0.,
          0., 0., 0., 0., 0., 0., 0., 0., 0., 0., 0., 0., 0., 0., 0., 0.,
          0., 0., 7.69230798e-02, 0., 0., 0., 0., 0., 0., 0.,
          7.69230798e-02, 0., 0., 7.69230798e-02, 0., 0., 0., 0., 0., 0.,
          0., 0., 0., 0., 0., 1.53846160e-01, 0., 0., 0., 0., 0., 0., 0.,
          0., 7.69230798e-02, 0., 0., 0., 1.53846160e-01, 0., 0., 0., 0.,
          0., 0., 0., 0., 0., 0., 0., 0., 0., 0., 0., 0., 0.,
          7.69230798e-02, 7.69230798e-02, 0., 0., 0., 0. ]
      - [ 0., 0., 0., 0., 0., 0., 0., 0., 0., 0., 0., 0., 0., 0., 0., 0.,
          0., 0., 0., 0., 0., 0., 0., 0., 0., 1.42857149e-01, 0., 0., 0.,
          0., 0., 0., 0., 0., 0., 0., 7.14285746e-02, 0., 7.14285746e-02,
          7.14285746e-02, 0., 0., 0., 7.14285746e-02, 0., 0.,
          7.14285746e-02, 0., 0., 0., 0., 0., 0., 0., 0., 0., 0., 0., 0.,
          0., 0., 0., 0., 0., 0., 0., 0., 0., 0., 0., 0., 7.14285746e-02,
          0., 0., 0., 7.14285746e-02, 0., 0., 0., 7.14285746e-02, 0., 0.,
          0., 0., 7.14285746e-02, 0., 0., 0., 0., 0., 7.14285746e-02, 0.,
          0., 0., 1.42857149e-01, 0., 0., 0., 0., 0. ]
      - [ 0., 0., 0., 0., 0., 0., 0., 0., 0., 0., 1.11111112e-01, 0., 0.,
          0., 0., 3.33333343e-01, 0., 0., 0., 0., 0., 0., 0., 0., 0., 0.,
          0., 0., 0., 1.11111112e-01, 0., 0., 0., 0., 0., 0., 0., 0., 0.,
          0., 1.11111112e-01, 0., 0., 0., 0., 0., 1.11111112e-01, 0., 0.,
          0., 0., 0., 0., 0., 0., 0., 0., 0., 0., 0., 0., 0., 0., 0., 0.,
          0., 0., 0., 0., 0., 0., 0., 0., 0., 0., 0., 0., 0.,
          1.11111112e-01, 0., 0., 0., 0., 0., 0., 0., 0., 0., 0., 0., 0.,
          0., 0., 0., 1.11111112e-01, 0., 0., 0., 0., 0. ]
      - [ 0., 1., 0., 0., 0., 0., 0., 0., 0., 0., 0., 0., 0., 0., 0., 0.,
          0., 0., 0., 0., 0., 0., 0., 0., 0., 0., 0., 0., 0., 0., 0., 0.,
          0., 0., 0., 0., 0., 0., 0., 0., 0., 0., 0., 0., 0., 0., 0., 0.,
          0., 0., 0., 0., 0., 0., 0., 0., 0., 0., 0., 0., 0., 0., 0., 0.,
          0., 0., 0., 0., 0., 0., 0., 0., 0., 0., 0., 0., 0., 0., 0., 0.,
          0., 0., 0., 0., 0., 0., 0., 0., 0., 0., 0., 0., 0., 0., 0., 0.,
          0., 0., 0., 0. ]
      - [ 0., 0., 0., 0., 0., 0., 0., 0., 1.25000000e-01, 0.,
          1.25000000e-01, 0., 0., 1.25000000e-01, 0., 0., 0., 0., 0., 0.,
          0., 0., 0., 0., 0., 0., 0., 0., 0., 0., 1.25000000e-01, 0., 0.,
          0., 0., 0., 5.00000000e-01, 0., 0., 0., 0., 0., 0., 0., 0., 0.,
          0., 0., 0., 0., 0., 0., 0., 0., 0., 0., 0., 0., 0., 0., 0., 0.,
          0., 0., 0., 0., 0., 0., 0., 0., 0., 0., 0., 0., 0., 0., 0., 0.,
          0., 0., 0., 0., 0., 0., 0., 0., 0., 0., 0., 0., 0., 0., 0., 0.,
          0., 0., 0., 0., 0., 0. ]
      - [ 0., 0., 0., 0., 0., 0., 0., 0., 0., 0., 0., 0., 1.00000001e-01,
          0., 0., 0., 0., 0., 0., 0., 0., 0., 0., 0., 0., 0., 0., 0., 0.,
          0., 0., 0., 0., 0., 0., 0., 0., 0., 0., 0., 0., 0., 0., 0., 0.,
          0., 0., 0., 0., 0., 0., 0., 0., 0., 0., 4.00000006e-01, 0., 0.,
          0., 0., 0., 0., 0., 0., 2.00000003e-01, 0., 0., 0.,
          2.00000003e-01, 0., 0., 0., 0., 0., 0., 0., 0., 0., 0.,
          1.00000001e-01, 0., 0., 0., 0., 0., 0., 0., 0., 0., 0., 0., 0.,
          0., 0., 0., 0., 0., 0., 0., 0. ]
      - [ 0., 0., 0., 0., 0., 0., 0., 0., 0., 0., 0., 0., 0., 0., 0., 0.,
          0., 0., 0., 0., 0., 0., 0., 0., 0., 0., 0., 0., 0., 0., 0., 0.,
          0., 0., 0., 0., 3.33333343e-01, 0., 0., 0., 0., 0., 0., 0., 0.,
          0., 0., 0., 0., 0., 0., 0., 0., 0., 0., 0., 0., 0., 0., 0., 0.,
          0., 0., 0., 0., 0., 0., 0., 0., 0., 0., 0., 0., 3.33333343e-01,
          0., 0., 0., 0., 0., 3.33333343e-01, 0., 0., 0., 0., 0., 0., 0.,
          0., 0., 0., 0., 0., 0., 0., 0., 0., 0., 0., 0., 0. ]
      - [ 0., 0., 0., 6.25000000e-02, 0., 0., 0., 0., 0., 0., 0., 0., 0.,
          0., 0., 0., 0., 0., 0., 0., 0., 0., 0., 0., 0., 1.25000000e-01,
          0., 0., 0., 1.87500000e-01, 0., 0., 0., 0., 0., 0., 0., 0., 0.,
          6.25000000e-02, 1.87500000e-01, 0., 0., 0., 0., 0., 0., 0., 0.,
          0., 0., 0., 0., 0., 0., 0., 0., 0., 0., 0., 0., 0., 0., 0., 0.,
          0., 0., 0., 0., 0., 0., 0., 0., 6.25000000e-02, 0., 0., 0., 0.,
          0., 6.25000000e-02, 0., 0., 0., 0., 0., 0., 0., 0., 0.,
          6.25000000e-02, 0., 0., 0., 0., 1.25000000e-01, 0., 0., 0., 0.,
          6.25000000e-02 ]
      - [ 0., 0., 0., 0., 0., 0., 0., 0., 0., 0., 0., 0., 0., 0., 0., 0.,
          2.50000000e-01, 0., 0., 0., 0., 0., 0., 0., 0., 0., 0., 0., 0.,
          0., 0., 0., 0., 0., 0., 0., 0., 0., 0., 0., 0., 0., 0., 0., 0.,
          0., 0., 0., 0., 0., 0., 0., 0., 0., 0., 0., 0., 0., 0., 0., 0.,
          0., 0., 0., 0., 0., 0., 0., 0., 0., 0., 2.50000000e-01, 0., 0.,
          0., 0., 0., 0., 2.50000000e-01, 2.50000000e-01, 0., 0., 0., 0.,
          0., 0., 0., 0., 0., 0., 0., 0., 0., 0., 0., 0., 0., 0., 0., 0. ]
      - [ 1.78571437e-02, 0., 0., 0., 1.78571437e-02, 0., 0., 0., 0.,
          1.78571437e-02, 0., 0., 0., 0., 0., 0., 0., 0., 0., 0., 0.,
          1.78571437e-02, 0., 0., 0., 0., 3.57142873e-02, 0., 0., 0., 0.,
          0., 0., 0., 1.78571437e-02, 0., 1.78571437e-02, 0., 0., 0.,
          3.57142873e-02, 0., 4.46428597e-01, 0., 1.78571437e-02,
          1.78571437e-02, 0., 0., 0., 0., 0., 7.14285746e-02, 0., 0., 0.,
          0., 1.78571437e-02, 0., 1.78571437e-02, 0., 0., 1.78571437e-02,
          1.78571437e-02, 3.57142873e-02, 0., 0., 0., 0., 0., 0., 0., 0.,
          1.78571437e-02, 3.57142873e-02, 0., 0., 0., 0., 0.,
          1.78571437e-02, 0., 0., 3.57142873e-02, 0., 0., 0.,
          1.78571437e-02, 1.78571437e-02, 0., 0., 1.78571437e-02, 0., 0.,
          0., 0., 0., 0., 0., 0., 0. ]
      - [ 0., 1.11111112e-01, 0., 0., 0., 0., 0., 0., 5.55555560e-02,
          5.55555560e-02, 0., 0., 0., 0., 0., 0., 0., 0., 0., 0., 0., 0.,
          0., 0., 0., 0., 0., 5.55555560e-02, 0., 0., 0., 0., 0., 0., 0.,
          5.55555560e-02, 0., 0., 0., 0., 0., 0., 0., 0., 0., 0., 0.,
          5.55555560e-02, 5.55555560e-02, 0., 0., 0., 0., 0., 0., 0.,
          5.55555560e-02, 0., 0., 0., 0., 0., 0., 0., 0., 0., 0.,
          5.55555560e-02, 0., 0., 0., 0., 0., 0., 0., 5.55555560e-02, 0.,
          0., 0., 5.55555560e-02, 5.55555560e-02, 5.55555560e-02, 0., 0.,
          0., 0., 0., 0., 0., 0., 5.55555560e-02, 0., 0., 5.55555560e-02,
          0., 0., 0., 5.55555560e-02, 5.55555560e-02, 0. ]
      - [ 0., 0., 0., 0., 0., 0., 0., 0., 0., 0., 0., 0., 0., 0., 0., 0.,
          0., 0., 0., 0., 0., 0., 0., 0., 0., 0., 0., 0., 0., 0.,
          1.25000000e-01, 0., 0., 0., 0., 1.25000000e-01, 0., 0., 0., 0.,
          1.25000000e-01, 0., 0., 0., 0., 0., 0., 0., 0., 0., 0., 0., 0.,
          0., 0., 0., 1.25000000e-01, 0., 0., 0., 0., 0., 0., 0., 0., 0.,
          0., 0., 0., 1.25000000e-01, 0., 0., 0., 0., 0., 0., 0., 0., 0.,
          0., 0., 0., 0., 0., 0., 0., 0., 0., 1.25000000e-01,
          1.25000000e-01, 0., 0., 0., 0., 0., 0., 0., 0., 0.,
          1.25000000e-01 ]
      - [ 0., 0., 5.88235296e-02, 0., 0., 0., 0., 0., 0., 0., 0., 0., 0.,
          2.94117648e-02, 0., 0., 0., 5.88235296e-02, 0., 0., 0.,
          5.88235296e-02, 2.94117648e-02, 0., 0., 2.94117648e-02, 0., 0.,
          0., 0., 0., 2.94117648e-02, 0., 0., 0., 0., 0., 0., 0., 0., 0.,
          0., 0., 0., 0., 0., 0., 0., 0., 0., 0., 0., 0., 0., 0.,
          5.88235296e-02, 0., 0., 0., 1.47058830e-01, 0., 2.94117648e-02,
          0., 2.94117648e-02, 0., 1.17647059e-01, 0., 0., 0., 0., 0., 0.,
          2.94117648e-02, 8.82352963e-02, 0., 0., 5.88235296e-02, 0.,
          2.94117648e-02, 5.88235296e-02, 0., 0., 0., 0., 0., 0., 0., 0.,
          0., 0., 2.94117648e-02, 0., 0., 0., 2.94117648e-02, 0., 0., 0.,
          0., 0. ]
      - [ 0., 0., 0., 0., 0., 0., 0., 0., 2.22222224e-01, 0., 0., 0., 0.,
          0., 0., 0., 0., 1.11111112e-01, 0., 1.11111112e-01, 0., 0., 0.,
          0., 0., 0., 0., 0., 0., 0., 1.11111112e-01, 0., 0., 0., 0., 0.,
          1.11111112e-01, 0., 0., 0., 0., 0., 0., 0., 0., 0., 0., 0., 0.,
          0., 0., 0., 0., 0., 0., 0., 0., 0., 0., 0., 0., 0., 0., 0., 0.,
          0., 0., 0., 0., 2.22222224e-01, 0., 0., 0., 0., 0., 0., 0., 0.,
          0., 1.11111112e-01, 0., 0., 0., 0., 0., 0., 0., 0., 0., 0., 0.,
          0., 0., 0., 0., 0., 0., 0., 0., 0. ]
      - [ 0., 0., 0., 0., 6.25000000e-02, 0., 0., 0., 0., 0.,
          1.25000000e-01, 0., 0., 0., 0., 0., 0., 0., 0., 0., 0., 0., 0.,
          0., 0., 0., 0., 0., 0., 0., 0., 0., 0., 0., 0., 0., 0., 0., 0.,
          6.25000000e-02, 0., 0., 0., 0., 0., 0., 0., 0., 6.25000000e-02,
          0., 0., 0., 0., 0., 0., 0., 6.25000000e-02, 0., 0., 0., 0., 0.,
          0., 0., 0., 0., 0., 0., 0., 6.25000000e-02, 0., 6.25000000e-02,
          0., 1.25000000e-01, 0., 0., 6.25000000e-02, 0., 0.,
          6.25000000e-02, 0., 0., 0., 0., 0., 0., 0., 0., 1.25000000e-01,
          0., 0., 0., 0., 0., 0., 0., 0., 1.25000000e-01, 0., 0. ]
      - [ 0., 0., 1.53846160e-01, 0., 0., 0., 0., 0., 0., 7.69230798e-02,
          0., 0., 0., 0., 0., 0., 0., 0., 0., 0., 0., 7.69230798e-02, 0.,
          0., 0., 0., 0., 0., 0., 0., 0., 0., 7.69230798e-02, 0., 0., 0.,
          0., 0., 0., 0., 0., 0., 7.69230798e-02, 0., 0., 0., 0., 0., 0.,
          0., 0., 1.53846160e-01, 0., 0., 0., 0., 0., 0., 0., 0., 0., 0.,
          0., 0., 7.69230798e-02, 0., 0., 0., 0., 0., 1.53846160e-01, 0.,
          0., 0., 0., 0., 7.69230798e-02, 0., 0., 0., 0., 0., 0., 0., 0.,
          0., 0., 0., 0., 0., 0., 7.69230798e-02, 0., 0., 0., 0., 0., 0.,
          0., 0. ]
      - [ 5.69620281e-02, 0., 0., 6.32911408e-03, 6.32911408e-03,
          6.32911408e-03, 5.69620281e-02, 0., 0., 2.53164563e-02, 0., 0.,
          0., 0., 0., 0., 6.32911408e-03, 1.26582282e-02, 0., 0.,
          1.89873427e-02, 0., 1.26582282e-02, 3.79746854e-02, 0., 0.,
          1.89873427e-02, 0., 0., 6.32911408e-03, 1.26582282e-02,
          9.49367136e-02, 0., 3.79746854e-02, 0., 6.32911408e-03, 0.,
          2.53164563e-02, 0., 0., 0., 0., 0., 0., 0., 6.32911408e-03, 0.,
          0., 0., 6.32911408e-03, 0., 0., 0., 6.32911408e-03, 0.,
          6.96202517e-02, 6.32911408e-03, 0., 0., 6.32911408e-03, 0.,
          3.79746854e-02, 0., 0., 6.96202517e-02, 0., 3.79746854e-02,
          6.32911408e-03, 3.16455700e-02, 0., 0., 6.32911408e-03,
          5.06329127e-02, 1.26582282e-02, 0., 0., 0., 0., 0.,
          1.26582282e-02, 3.16455700e-02, 1.89873427e-02, 0.,
          1.26582282e-02, 6.32911408e-03, 6.32911408e-03, 0.,
          6.32911408e-03, 6.32911408e-03, 0., 0., 0., 5.06329127e-02,
          6.32911408e-03, 6.32911408e-03, 1.89873427e-02, 0., 0., 0.,
          1.26582282e-02 ]
      - [ 0., 5.88235296e-02, 5.88235296e-02, 0., 0., 0., 0., 0., 0., 0.,
          5.88235296e-02, 0., 0., 0., 0., 5.88235296e-02, 5.88235296e-02,
          0., 0., 0., 0., 0., 0., 0., 5.88235296e-02, 5.88235296e-02, 0.,
          0., 0., 0., 5.88235296e-02, 0., 0., 0., 0., 0., 0., 0., 0., 0.,
          0., 0., 1.17647059e-01, 0., 0., 0., 0., 0., 0., 0., 0.,
          5.88235296e-02, 0., 0., 0., 0., 0., 0., 0., 0., 0., 0., 0., 0.,
          0., 1.17647059e-01, 0., 0., 0., 0., 5.88235296e-02, 0., 0.,
          5.88235296e-02, 0., 0., 1.17647059e-01, 0., 0., 0., 0., 0., 0.,
          0., 0., 0., 0., 0., 0., 0., 0., 0., 0., 0., 0., 0., 0., 0., 0.,
          0. ]
      - [ 0., 0., 0., 0., 0., 0., 0., 0., 0., 0., 0., 0., 0., 0., 0., 0.,
          0., 0., 0., 0., 0., 0., 0., 0., 0., 1.81818187e-01, 0., 0., 0.,
          0., 0., 0., 0., 0., 0., 0., 0., 0., 0., 9.09090936e-02, 0., 0.,
          0., 0., 0., 0., 0., 0., 0., 0., 0., 0., 0., 0., 0., 0., 0., 0.,
          0., 0., 0., 0., 0., 0., 0., 0., 0., 0., 0., 0., 0.,
          9.09090936e-02, 0., 9.09090936e-02, 0., 0., 9.09090936e-02, 0.,
          0., 2.72727281e-01, 0., 0., 0., 0., 0., 0., 0., 0., 0., 0., 0.,
          0., 0., 0., 1.81818187e-01, 0., 0., 0., 0., 0. ]
      - [ 0., 0., 4.54545431e-02, 0., 4.13223123e-03, 1.23966932e-02, 0.,
          6.61156997e-02, 0., 4.13223123e-03, 4.13223123e-03, 0., 0.,
          4.13223123e-03, 3.71900797e-02, 1.65289249e-02, 1.65289249e-02,
          4.13223123e-03, 0., 0., 4.13223123e-03, 8.26446246e-03, 0., 0.,
          0., 4.13223123e-03, 0., 0., 1.23966932e-02, 4.13223123e-03, 0.,
          0., 2.89256182e-02, 0., 4.13223123e-03, 0., 0., 0., 0.,
          4.13223123e-03, 0., 0., 3.30578506e-01, 4.13223123e-03,
          7.02479333e-02, 0., 8.26446246e-03, 0., 0., 4.13223123e-03, 0.,
          7.02479333e-02, 4.13223123e-03, 8.26446246e-03, 0., 0., 0.,
          8.26446246e-03, 8.26446246e-03, 8.26446246e-03, 8.26446246e-03,
          4.13223123e-03, 1.65289249e-02, 4.13223132e-02, 0., 0., 0., 0.,
          0., 0., 3.71900797e-02, 4.13223123e-03, 4.13223123e-03, 0.,
          1.23966932e-02, 4.13223123e-03, 0., 0., 0., 0., 0.,
          8.26446246e-03, 0., 0., 0., 0., 0., 4.13223123e-03,
          4.13223123e-03, 8.26446246e-03, 0., 8.26446246e-03, 0., 0.,
          8.26446246e-03, 4.13223123e-03, 0., 0., 8.26446246e-03,
          4.13223123e-03 ]
      - [ 0., 8.33333358e-02, 0., 0., 0., 0., 0., 0., 0., 0.,
          1.66666672e-01, 0., 0., 0., 0., 1.66666672e-01, 0., 0., 0., 0.,
          0., 0., 0., 0., 8.33333358e-02, 1.66666672e-01, 0., 0., 0., 0.,
          0., 8.33333358e-02, 0., 0., 0., 0., 0., 0., 0., 0., 0., 0., 0.,
          0., 0., 0., 0., 0., 0., 0., 0., 0., 0., 0., 0., 0., 0., 0., 0.,
          0., 0., 0., 0., 0., 0., 0., 8.33333358e-02, 0., 0., 0., 0.,
          8.33333358e-02, 0., 0., 0., 0., 0., 0., 0., 0., 0., 0., 0., 0.,
          0., 0., 0., 0., 0., 0., 0., 0., 0., 0., 8.33333358e-02, 0., 0.,
          0., 0., 0. ]
      - [ 1.47058824e-02, 0., 0., 2.94117648e-02, 0., 0., 1.47058824e-02,
          0., 0., 0., 0., 1.47058824e-02, 0., 0., 0., 0., 2.94117648e-02,
          0., 1.47058824e-02, 0., 1.47058824e-02, 0., 0., 1.47058824e-02,
          0., 0., 0., 0., 0., 4.41176482e-02, 0., 1.47058824e-02, 0., 0.,
          1.47058824e-02, 1.47058824e-02, 0., 0., 0., 0., 0., 0., 0., 0.,
          0., 0., 0., 0., 0., 5.88235296e-02, 5.88235296e-02, 0., 0., 0.,
          0., 4.41176482e-02, 1.47058824e-02, 0., 0., 0., 0., 0., 0., 0.,
          4.41176482e-02, 0., 2.94117648e-02, 0., 1.47058824e-02, 0., 0.,
          1.32352948e-01, 5.88235296e-02, 0., 0., 0., 0., 0.,
          1.47058824e-02, 2.94117648e-02, 0., 0., 0., 0., 0., 0., 0.,
          1.02941178e-01, 0., 5.88235296e-02, 0., 0., 1.47058824e-02,
          1.47058824e-02, 0., 0., 0., 0., 4.41176482e-02, 2.94117648e-02 ]
      - [ 0., 0., 0., 0., 0., 0., 0., 0., 0., 0., 1.42857149e-01, 0., 0.,
          0., 0., 0., 0., 0., 0., 0., 0., 0., 0., 1.42857149e-01, 0., 0.,
          0., 0., 0., 0., 0., 0., 0., 0., 0., 0., 0., 0., 0., 0., 0., 0.,
          0., 0., 0., 0., 0., 0., 0., 1.42857149e-01, 0., 0., 0., 0., 0.,
          0., 0., 0., 0., 0., 0., 0., 0., 0., 0., 0., 0., 0., 0., 0., 0.,
          0., 1.42857149e-01, 0., 0., 0., 1.42857149e-01, 0., 0., 0., 0.,
          1.42857149e-01, 0., 0., 0., 0., 0., 0., 1.42857149e-01, 0., 0.,
          0., 0., 0., 0., 0., 0., 0., 0., 0. ]
      - [ 0., 0., 0., 0., 0., 0., 0., 0., 0., 0., 0., 3.33333343e-01, 0.,
          0., 0., 0., 0., 0., 0., 0., 0., 0., 0., 0., 0., 0., 0., 0., 0.,
          0., 0., 0., 0., 0., 0., 0., 0., 0., 0., 0., 0., 0., 0., 0., 0.,
          0., 0., 0., 0., 0., 0., 0., 0., 0., 0., 0., 0., 0., 0., 0., 0.,
          0., 0., 0., 0., 3.33333343e-01, 0., 0., 0., 0., 0., 0., 0., 0.,
          0., 0., 0., 0., 0., 0., 0., 0., 0., 0., 0., 0., 0.,
          3.33333343e-01, 0., 0., 0., 0., 0., 0., 0., 0., 0., 0., 0., 0. ]
      - [ 0., 0., 0., 0., 0., 0., 0., 0., 0., 0., 0., 0., 0., 0., 0., 0.,
          0., 0., 0., 0., 0., 0., 0., 0., 0., 0., 0., 0., 0., 0., 0.,
          3.33333343e-01, 0., 0., 0., 0., 0., 0., 0., 0., 0., 0., 0., 0.,
          0., 0., 0., 0., 0., 0., 0., 0., 0., 0., 0., 0., 0., 0., 0., 0.,
          0., 0., 0., 0., 3.33333343e-01, 0., 0., 0., 0., 0., 0., 0., 0.,
          0., 0., 0., 0., 3.33333343e-01, 0., 0., 0., 0., 0., 0., 0., 0.,
          0., 0., 0., 0., 0., 0., 0., 0., 0., 0., 0., 0., 0., 0. ]
      - [ 0., 0., 0., 0., 0., 0., 1.00000001e-01, 0., 0., 0.,
          2.00000003e-01, 0., 0., 0., 0., 0., 0., 0., 0., 0., 0., 0., 0.,
          0., 0., 0., 0., 0., 0., 0., 0., 0., 0., 0., 0., 0., 0., 0., 0.,
          0., 0., 0., 0., 0., 0., 0., 0., 0., 0., 0., 0., 0.,
          1.00000001e-01, 0., 1.00000001e-01, 0., 0., 0., 0., 0., 0., 0.,
          0., 0., 0., 0., 0., 0., 0., 0., 1.00000001e-01, 0.,
          1.00000001e-01, 0., 0., 0., 1.00000001e-01, 0., 0., 0., 0., 0.,
          0., 0., 0., 1.00000001e-01, 0., 0., 0., 0., 1.00000001e-01, 0.,
          0., 0., 0., 0., 0., 0., 0., 0. ]
      - [ 0., 0., 0., 0., 0., 0., 0., 0., 0., 0., 7.69230798e-02,
          7.69230798e-02, 0., 0., 0., 0., 0., 0., 7.69230798e-02, 0., 0.,
          0., 0., 0., 0., 0., 0., 0., 0., 0., 0., 0., 0., 0., 0., 0.,
          7.69230798e-02, 0., 7.69230798e-02, 0., 0., 0., 0., 0., 0., 0.,
          1.53846160e-01, 0., 0., 0., 0., 0., 0., 0., 0., 0., 0., 0., 0.,
          7.69230798e-02, 0., 0., 7.69230798e-02, 0., 0., 1.53846160e-01,
          0., 0., 0., 0., 0., 0., 0., 0., 0., 0., 0., 0., 0., 0., 0., 0.,
          0., 0., 0., 0., 0., 7.69230798e-02, 0., 0., 0., 0., 0., 0., 0.,
          0., 0., 0., 7.69230798e-02, 0. ]
      - [ 0., 0., 0., 0., 0., 0., 0., 0., 0., 0., 0., 0., 0., 0., 0., 0.,
          0., 0., 0., 0., 0., 0., 0., 0., 0., 0., 0., 0., 0., 0., 0., 0.,
          0., 0., 0., 0., 6.66666687e-01, 0., 0., 0., 0., 0., 0., 0., 0.,
          0., 0., 0., 0., 0., 0., 0., 0., 0., 0., 0., 0., 0., 0., 0., 0.,
          0., 0., 0., 0., 0., 0., 0., 0., 0., 0., 0., 0., 0., 0., 0., 0.,
          0., 0., 0., 0., 0., 0., 0., 0., 0., 0., 0., 0., 0., 0., 0.,
          3.33333343e-01, 0., 0., 0., 0., 0., 0., 0. ]
      - [ 0., 0., 0., 0., 0., 0., 0., 0., 0., 0., 0., 7.69230798e-02, 0.,
          0., 0., 0., 0., 0., 3.07692319e-01, 0., 0., 0., 0., 0., 0., 0.,
          0., 0., 0., 0., 0., 0., 0., 0., 0., 0., 0., 0., 0., 0.,
          7.69230798e-02, 0., 0., 0., 0., 0., 0., 0., 0., 0., 0., 0., 0.,
          0., 7.69230798e-02, 7.69230798e-02, 0., 0., 0., 1.53846160e-01,
          0., 0., 0., 0., 0., 0., 0., 0., 7.69230798e-02, 0., 0., 0., 0.,
          0., 0., 0., 0., 0., 0., 7.69230798e-02, 0., 0., 0., 0.,
          7.69230798e-02, 0., 0., 0., 0., 0., 0., 0., 0., 0., 0., 0., 0.,
          0., 0., 0. ]
      - [ 0., 0., 0., 0., 0., 0., 0., 0., 0., 0., 0., 0., 0., 0., 0., 0.,
          0., 0., 0., 0., 0., 0., 0., 0., 0., 0., 0., 0., 0., 0., 0., 0.,
          0., 1., 0., 0., 0., 0., 0., 0., 0., 0., 0., 0., 0., 0., 0., 0.,
          0., 0., 0., 0., 0., 0., 0., 0., 0., 0., 0., 0., 0., 0., 0., 0.,
          0., 0., 0., 0., 0., 0., 0., 0., 0., 0., 0., 0., 0., 0., 0., 0.,
          0., 0., 0., 0., 0., 0., 0., 0., 0., 0., 0., 0., 0., 0., 0., 0.,
          0., 0., 0., 0. ]
      - [ 0., 0., 0., 0., 0., 0., 0., 0., 0., 0., 0., 0., 0.,
          8.33333358e-02, 0., 0., 0., 0., 0., 0., 0., 0., 0., 0., 0., 0.,
          0., 0., 0., 8.33333358e-02, 0., 0., 0., 8.33333358e-02, 0.,
          8.33333358e-02, 0., 0., 0., 0., 1.66666672e-01, 0., 0., 0., 0.,
          0., 0., 0., 0., 0., 0., 0., 0., 0., 0., 0., 0., 0., 0., 0., 0.,
          0., 0., 0., 0., 8.33333358e-02, 0., 0., 0., 8.33333358e-02, 0.,
          0., 0., 8.33333358e-02, 0., 0., 0., 0., 8.33333358e-02,
          8.33333358e-02, 0., 0., 0., 0., 0., 0., 0., 0., 0., 0., 0., 0.,
          0., 0., 0., 0., 0., 8.33333358e-02, 0., 0. ]
      - [ 0., 0., 6.66666701e-02, 0., 0., 0., 0., 0., 0., 0., 0., 0., 0.,
          6.66666701e-02, 0., 0., 0., 0., 0., 0., 0., 0., 3.33333351e-02,
          0., 0., 0., 0., 0., 0., 0., 0., 0., 0., 0., 0., 6.66666701e-02,
          0., 0., 0., 0., 0., 0., 5.00000000e-01, 0., 0., 0.,
          3.33333351e-02, 0., 3.33333351e-02, 0., 0., 0., 0., 0., 0., 0.,
          0., 0., 0., 0., 0., 0., 0., 1.00000009e-01, 0., 0., 0., 0., 0.,
          0., 0., 0., 0., 0., 0., 0., 3.33333351e-02, 0., 0., 0., 0., 0.,
          0., 0., 0., 0., 0., 0., 0., 0., 3.33333351e-02, 3.33333351e-02,
          0., 0., 0., 0., 0., 0., 0., 0. ]
      - [ 0., 2.40963846e-02, 0., 0., 0., 0., 0., 0., 0., 0., 0., 0., 0.,
          2.40963846e-02, 0., 0., 1.20481923e-02, 0., 0., 1.20481923e-02,
          1.20481923e-02, 0., 0., 0., 0., 1.20481923e-02, 0.,
          1.20481923e-02, 1.20481923e-02, 4.81927693e-02, 0., 0., 0., 0.,
          0., 0., 2.40963846e-02, 0., 0., 2.40963846e-02, 0., 0.,
          1.80722892e-01, 0., 2.04819262e-01, 1.20481923e-02, 0., 0.,
          2.40963846e-02, 0., 0., 2.40963846e-02, 0., 0., 0., 0.,
          1.20481923e-02, 0., 0., 0., 0., 1.20481923e-02, 0.,
          3.61445770e-02, 0., 0., 0., 0., 0., 0., 0., 0., 1.20481923e-02,
          2.40963846e-02, 0., 0., 3.61445770e-02, 2.40963846e-02,
          1.20481923e-02, 2.40963846e-02, 0., 0., 0., 0., 1.20481923e-02,
          0., 0., 1.20481923e-02, 0., 0., 2.40963846e-02, 0.,
          8.43373463e-02, 0., 0., 0., 0., 0., 0., 1.20481923e-02 ]
      - [ 0., 0., 0., 0., 0., 0., 0., 0., 0., 0., 1., 0., 0., 0., 0., 0.,
          0., 0., 0., 0., 0., 0., 0., 0., 0., 0., 0., 0., 0., 0., 0., 0.,
          0., 0., 0., 0., 0., 0., 0., 0., 0., 0., 0., 0., 0., 0., 0., 0.,
          0., 0., 0., 0., 0., 0., 0., 0., 0., 0., 0., 0., 0., 0., 0., 0.,
          0., 0., 0., 0., 0., 0., 0., 0., 0., 0., 0., 0., 0., 0., 0., 0.,
          0., 0., 0., 0., 0., 0., 0., 0., 0., 0., 0., 0., 0., 0., 0., 0.,
          0., 0., 0., 0. ]
      - [ 0., 0., 0., 0., 0., 0., 0., 0., 0., 0., 0., 0., 0., 0., 0., 0.,
          0., 0., 0., 0., 0., 0., 0., 0., 0., 0., 0., 0., 0., 0., 0., 0.,
          0., 0., 0., 0., 0., 0., 0., 0., 0., 0., 0., 0., 0., 0., 0., 0.,
          0., 0., 0., 0., 0., 0., 0., 0., 0., 0., 0., 0., 0., 0., 0., 0.,
          0., 0., 0., 0., 0., 0., 0., 0., 0., 0., 0., 0., 0., 0., 0., 1.,
          0., 0., 0., 0., 0., 0., 0., 0., 0., 0., 0., 0., 0., 0., 0., 0.,
          0., 0., 0., 0. ]
      - [ 0., 1.57894731e-01, 0., 0., 0., 0., 0., 0., 0., 0.,
          5.26315793e-02, 0., 0., 1.05263159e-01, 0., 0., 0.,
          5.26315793e-02, 0., 0., 0., 0., 0., 5.26315793e-02, 0.,
          5.26315793e-02, 0., 0., 0., 0., 5.26315793e-02, 0., 0., 0., 0.,
          0., 0., 0., 0., 0., 5.26315793e-02, 0., 0., 0., 0., 0., 0., 0.,
          0., 0., 0., 0., 0., 0., 0., 0., 0., 0., 0., 0., 0., 0., 0., 0.,
          0., 5.26315793e-02, 0., 0., 0., 5.26315793e-02, 0., 0., 0., 0.,
          0., 0., 5.26315793e-02, 0., 0., 5.26315793e-02, 0., 0., 0., 0.,
          0., 0., 0., 0., 5.26315793e-02, 0., 0., 0., 0., 5.26315793e-02,
          5.26315793e-02, 0., 0., 5.26315793e-02, 0., 0. ]
      - [ 0., 2.08333340e-02, 0., 0., 2.08333340e-02, 0., 4.16666679e-02,
          0., 0., 0., 0., 0., 4.16666679e-02, 2.08333340e-02, 0.,
          2.08333340e-02, 0., 0., 0., 4.16666679e-02, 0., 0., 0., 0., 0.,
          0., 0., 4.16666679e-02, 0., 2.08333340e-02, 0., 0., 0., 0.,
          2.08333340e-02, 2.08333340e-02, 2.08333340e-02, 2.08333340e-02,
          0., 2.08333340e-02, 4.16666679e-02, 2.08333340e-02, 0., 0., 0.,
          2.08333340e-02, 4.16666679e-02, 0., 0., 0., 2.08333340e-02, 0.,
          0., 0., 0., 4.16666679e-02, 0., 0., 0., 0., 0., 0., 0., 0.,
          2.08333340e-02, 0., 0., 0., 0., 2.08333340e-02, 0.,
          2.08333340e-02, 2.08333340e-02, 2.08333340e-02, 0., 0.,
          2.08333340e-02, 0., 2.08333340e-02, 6.25000000e-02, 0.,
          2.08333340e-02, 0., 2.08333340e-02, 0., 2.08333340e-02, 0.,
          4.16666679e-02, 0., 0., 0., 0., 0., 6.25000000e-02, 0., 0., 0.,
          2.08333340e-02, 4.16666679e-02, 0. ]
      - [ 0., 5.76923117e-02, 7.69230798e-02, 0., 0., 0., 0., 0.,
          7.69230798e-02, 0., 1.92307699e-02, 0., 0., 7.69230798e-02, 0.,
          1.92307699e-02, 0., 1.92307699e-02, 0., 1.92307699e-02, 0., 0.,
          0., 0., 0., 0., 0., 0., 0., 0., 3.84615399e-02, 0., 0., 0., 0.,
          0., 1.15384623e-01, 0., 0., 0., 0., 0., 0., 1.92307699e-02, 0.,
          0., 1.92307699e-02, 0., 1.92307699e-02, 0., 0., 0., 0., 0.,
          1.92307699e-02, 0., 3.84615399e-02, 0., 0., 0., 0., 0.,
          7.69230798e-02, 1.92307699e-02, 0., 1.92307699e-02, 0., 0., 0.,
          1.92307699e-02, 1.92307699e-02, 0., 0., 1.92307699e-02, 0., 0.,
          1.92307699e-02, 0., 0., 1.92307699e-02, 0., 0., 0., 0., 0., 0.,
          0., 0., 3.84615399e-02, 1.92307699e-02, 3.84615399e-02,
          1.92307699e-02, 0., 0., 1.92307699e-02, 0., 1.92307699e-02, 0.,
          0., 0. ]
      - [ 0., 0., 0., 9.37500000e-02, 0., 0., 0., 0., 0., 0., 0., 0., 0.,
          9.37500000e-02, 0., 0., 3.12500000e-02, 0., 3.12500000e-02, 0.,
          0., 0., 0., 0., 0., 0., 0., 0., 0., 0., 3.12500000e-02,
          3.12500000e-02, 0., 0., 0., 3.12500000e-02, 6.25000000e-02, 0.,
          0., 6.25000000e-02, 0., 0., 0., 0., 0., 0., 3.12500000e-02, 0.,
          3.12500000e-02, 0., 0., 0., 0., 0., 0., 0., 3.12500000e-02, 0.,
          0., 0., 0., 0., 0., 0., 0., 9.37500000e-02, 3.12500000e-02, 0.,
          0., 3.12500000e-02, 0., 0., 0., 3.12500000e-02, 0., 0.,
          3.12500000e-02, 0., 3.12500000e-02, 9.37500000e-02, 0., 0., 0.,
          0., 0., 0., 0., 0., 0., 3.12500000e-02, 0., 0., 0., 0., 0., 0.,
          3.12500000e-02, 0., 3.12500000e-02, 0. ]
      - [ 2.08333340e-02, 0., 4.16666679e-02, 0., 0., 0., 0., 0.,
          4.16666679e-02, 0., 0., 0., 2.08333340e-02, 6.25000000e-02, 0.,
          0., 2.08333340e-02, 0., 0., 0., 0., 0., 2.08333340e-02, 0., 0.,
          4.16666679e-02, 2.08333340e-02, 0., 0., 0., 0., 0., 0., 0., 0.,
          4.16666679e-02, 8.33333358e-02, 2.08333340e-02, 0., 0.,
          2.08333340e-02, 0., 0., 0., 0., 0., 4.16666679e-02, 0., 0.,
          2.08333340e-02, 0., 0., 0., 0., 0., 0., 0., 0., 0., 0., 0., 0.,
          2.08333340e-02, 0., 0., 4.16666679e-02, 2.08333340e-02, 0.,
          2.08333340e-02, 6.25000000e-02, 2.08333340e-02, 0., 0.,
          2.08333340e-02, 0., 2.08333340e-02, 6.25000000e-02, 0.,
          2.08333340e-02, 0., 0., 0., 0., 2.08333340e-02, 0., 0., 0.,
          2.08333340e-02, 0., 0., 4.16666679e-02, 0., 0., 4.16666679e-02,
          4.16666679e-02, 0., 0., 0., 0., 0. ]
      - [ 0., 0., 0., 0., 0., 0., 0., 0., 0., 0., 2.50000000e-01, 0., 0.,
          0., 0., 2.50000000e-01, 0., 0., 0., 0., 0., 0., 0., 0., 0., 0.,
          0., 0., 0., 0., 0., 0., 0., 0., 0., 0., 0., 0., 0., 0., 0., 0.,
          0., 0., 0., 0., 0., 0., 0., 0., 0., 0., 0., 0., 0., 0., 0., 0.,
          0., 0., 0., 0., 0., 0., 0., 0., 0., 0., 0., 0., 0., 0., 0., 0.,
          0., 0., 0., 0., 2.50000000e-01, 0., 2.50000000e-01, 0., 0., 0.,
          0., 0., 0., 0., 0., 0., 0., 0., 0., 0., 0., 0., 0., 0., 0., 0. ]
      - [ 0., 0., 0., 0., 0., 0., 0., 0., 0., 0., 1.11111112e-01, 0., 0.,
          0., 0., 0., 0., 0., 0., 0., 0., 0., 0., 0., 0., 5.55555560e-02,
          0., 0., 0., 0., 1.11111112e-01, 0., 0., 0., 0., 0., 0., 0., 0.,
          0., 0., 0., 1.66666672e-01, 0., 0., 0., 0., 0., 0., 0., 0.,
          5.55555560e-02, 5.55555560e-02, 5.55555560e-02, 0., 0., 0., 0.,
          0., 0., 5.55555560e-02, 0., 0., 1.11111112e-01, 0., 0., 0., 0.,
          0., 5.55555560e-02, 0., 0., 0., 0., 0., 0., 0., 0., 0., 0., 0.,
          0., 0., 5.55555560e-02, 0., 0., 0., 0., 0., 0., 0., 0., 0., 0.,
          0., 0., 1.11111112e-01, 0., 0., 0. ]
      - [ 4.76190485e-02, 0., 0., 0., 0., 0., 0., 0., 4.76190485e-02,
          4.76190485e-02, 9.52380970e-02, 0., 0., 0., 0., 0., 0., 0., 0.,
          0., 0., 0., 0., 0., 0., 9.52380970e-02, 0., 0., 4.76190485e-02,
          0., 0., 4.76190485e-02, 0., 0., 0., 0., 4.76190485e-02, 0., 0.,
          0., 0., 0., 0., 0., 3.33333343e-01, 0., 0., 0., 0., 0., 0., 0.,
          0., 0., 0., 0., 0., 0., 0., 0., 0., 0., 0., 0., 9.52380970e-02,
          0., 0., 0., 0., 0., 0., 0., 0., 0., 0., 0., 0., 0., 0., 0., 0.,
          0., 0., 0., 0., 0., 0., 0., 0., 0., 0., 0., 0., 0.,
          4.76190485e-02, 0., 0., 4.76190485e-02, 0., 0. ]
      - [ 0., 0., 0., 0., 0., 0., 0., 0., 2.40963846e-02, 0., 0., 0., 0.,
          1.32530123e-01, 0., 0., 0., 0., 0., 0., 0., 0., 0., 0., 0.,
          1.20481923e-02, 0., 0., 0., 2.40963846e-02, 1.20481923e-02,
          1.20481923e-02, 0., 0., 0., 0., 3.73493969e-01, 1.20481923e-02,
          0., 0., 0., 0., 0., 0., 0., 0., 1.20481923e-02, 1.20481923e-02,
          0., 0., 0., 0., 0., 0., 0., 0., 0., 0., 0., 0., 0., 0.,
          2.40963846e-02, 0., 0., 2.40963846e-02, 0., 0., 0.,
          2.40963846e-02, 0., 0., 0., 0., 0., 0., 7.22891539e-02, 0., 0.,
          1.68674693e-01, 0., 0., 1.20481923e-02, 0., 1.20481923e-02, 0.,
          0., 0., 0., 0., 1.20481923e-02, 0., 0., 0., 2.40963846e-02, 0.,
          0., 0., 0., 0. ]
      - [ 0., 2.11267602e-02, 2.11267602e-02, 0., 1.40845068e-02,
          7.04225339e-03, 0., 7.04225339e-03, 0., 0., 1.40845068e-02, 0.,
          0., 0., 0., 2.11267602e-02, 0., 7.04225339e-03, 7.04225339e-03,
          0., 0., 0., 7.04225339e-03, 0., 0., 2.11267602e-02,
          7.04225339e-03, 0., 0., 7.04225339e-03, 0., 0., 2.11267602e-02,
          0., 1.40845068e-02, 0., 7.04225339e-03, 7.04225339e-03, 0., 0.,
          7.04225339e-03, 0., 4.29577470e-01, 0., 7.04225339e-03, 0., 0.,
          0., 0., 0., 7.04225339e-03, 1.05633803e-01, 0., 0., 0., 0., 0.,
          0., 0., 0., 0., 0., 7.04225339e-03, 7.04225302e-02, 0.,
          7.04225339e-03, 0., 0., 0., 1.40845068e-02, 2.81690136e-02, 0.,
          0., 0., 7.04225339e-03, 7.04225339e-03, 0., 0., 7.04225339e-03,
          0., 0., 0., 0., 0., 0., 0., 7.04225339e-03, 0., 1.40845068e-02,
          7.04225339e-03, 7.04225339e-03, 7.04225339e-03, 0., 0.,
          7.04225339e-03, 0., 7.04225339e-03, 7.04225339e-03,
          2.11267602e-02, 0. ]
      - [ 0., 0., 0., 0., 0., 0., 0., 0., 0., 0., 2.50000004e-02, 0., 0.,
          2.50000004e-02, 0., 0., 0., 0., 0., 0., 0., 7.50000030e-02, 0.,
          0., 2.50000004e-02, 3.49999994e-01, 0., 0., 0., 0., 0., 0., 0.,
          0., 0., 0., 2.50000004e-02, 0., 0., 0., 0., 0., 0., 0.,
          2.50000004e-02, 0., 2.50000004e-02, 0., 0., 0., 0., 0., 0., 0.,
          0., 0., 0., 0., 0., 2.50000004e-02, 0., 0., 0., 0., 0., 0., 0.,
          0., 0., 0., 0., 0., 0., 0., 0., 0., 2.50000004e-02, 0., 0.,
          2.50000004e-02, 0., 0., 0., 0., 0., 0., 0., 0., 0., 0., 0., 0.,
          0., 0., 3.25000018e-01, 2.50000004e-02, 0., 0., 0., 0. ]
      - [ 0., 0., 0., 0., 0., 0., 0., 0., 5.88235296e-02, 0.,
          2.94117659e-01, 0., 0., 0., 0., 5.88235296e-02, 0., 0., 0., 0.,
          0., 0., 0., 0., 0., 5.88235296e-02, 0., 0., 0., 0., 0., 0., 0.,
          0., 0., 5.88235296e-02, 0., 0., 5.88235296e-02, 0.,
          5.88235296e-02, 5.88235296e-02, 0., 0., 0., 0., 0., 0., 0., 0.,
          0., 0., 0., 0., 0., 0., 0., 0., 0., 0., 0., 0., 0., 0., 0., 0.,
          0., 0., 5.88235296e-02, 5.88235296e-02, 0., 0., 0.,
          5.88235296e-02, 0., 0., 0., 0., 5.88235296e-02, 0., 0., 0., 0.,
          0., 0., 0., 0., 0., 0., 5.88235296e-02, 0., 0., 0., 0., 0., 0.,
          0., 0., 0., 0. ]
      - [ 0., 2.50000000e-01, 0., 0., 0., 0., 0., 0., 0., 0., 0., 0., 0.,
          0., 0., 0., 0., 0., 0., 0., 0., 0., 0., 0., 0., 0., 0., 0., 0.,
          0., 2.50000000e-01, 0., 0., 0., 0., 0., 0., 0., 0., 0., 0., 0.,
          0., 0., 0., 0., 0., 0., 0., 0., 0., 0., 0., 0., 0., 0., 0., 0.,
          0., 0., 0., 0., 0., 0., 0., 0., 0., 0., 0., 0., 0., 0., 0., 0.,
          0., 0., 0., 0., 2.50000000e-01, 0., 0., 0., 2.50000000e-01, 0.,
          0., 0., 0., 0., 0., 0., 0., 0., 0., 0., 0., 0., 0., 0., 0., 0. ]
      - [ 0., 0., 0., 0., 0., 0., 0., 0., 2.70270277e-02, 2.70270277e-02,
          0., 0., 0., 2.70270277e-02, 0., 2.70270277e-02, 0., 0., 0.,
          8.10810849e-02, 0., 0., 2.70270277e-02, 0., 8.10810849e-02,
          1.35135144e-01, 0., 0., 0., 0., 0., 0., 0., 0., 0.,
          2.70270277e-02, 2.70270277e-02, 0., 0., 0., 5.40540554e-02, 0.,
          1.08108111e-01, 0., 0., 0., 2.70270277e-02, 0., 0., 0., 0., 0.,
          0., 0., 0., 0., 0., 2.70270277e-02, 2.70270277e-02, 0., 0., 0.,
          0., 0., 0., 0., 0., 0., 0., 0., 0., 0., 0., 5.40540554e-02, 0.,
          0., 8.10810849e-02, 0., 0., 0., 0., 0., 0., 0., 0., 0., 0., 0.,
          0., 0., 0., 0., 0., 0., 1.35135144e-01, 0., 0., 0., 0., 0. ]
      - [ 0., 0., 0., 0., 0., 0., 0., 0., 0., 0., 0., 0., 0., 0., 0., 0.,
          0., 0., 0., 0., 0., 0., 0., 7.69230798e-02, 0., 2.30769247e-01,
          0., 0., 0., 0., 0., 0., 0., 0., 7.69230798e-02, 0.,
          7.69230798e-02, 0., 0., 0., 0., 0., 0., 0., 0., 0., 0., 0., 0.,
          0., 0., 0., 0., 0., 0., 0., 0., 0., 0., 0., 0., 0., 0., 0., 0.,
          0., 0., 0., 0., 7.69230798e-02, 0., 0., 0., 0., 0., 0., 0., 0.,
          7.69230798e-02, 7.69230798e-02, 0., 0., 0., 0., 0., 0., 0., 0.,
          0., 0., 0., 0., 0., 0., 1.53846160e-01, 0., 7.69230798e-02, 0.,
          0., 7.69230798e-02 ]
      - [ 0., 0., 0., 0., 0., 0., 0., 0., 0., 0., 0., 0., 0., 0., 0., 0.,
          0., 0., 0., 0., 0., 0., 0., 0., 0., 0., 0., 0., 0., 0., 1., 0.,
          0., 0., 0., 0., 0., 0., 0., 0., 0., 0., 0., 0., 0., 0., 0., 0.,
          0., 0., 0., 0., 0., 0., 0., 0., 0., 0., 0., 0., 0., 0., 0., 0.,
          0., 0., 0., 0., 0., 0., 0., 0., 0., 0., 0., 0., 0., 0., 0., 0.,
          0., 0., 0., 0., 0., 0., 0., 0., 0., 0., 0., 0., 0., 0., 0., 0.,
          0., 0., 0., 0. ]
      - [ 0., 8.33333358e-02, 0., 0., 0., 0., 4.16666679e-02, 0., 0., 0.,
          4.16666679e-02, 0., 8.33333358e-02, 0., 0., 1.25000000e-01,
          4.16666679e-02, 0., 0., 4.16666679e-02, 0., 0., 0., 0., 0., 0.,
          4.16666679e-02, 0., 0., 0., 0., 0., 0., 0., 0., 4.16666679e-02,
          0., 0., 0., 0., 8.33333358e-02, 0., 0., 0., 0., 0., 0., 0., 0.,
          0., 0., 0., 0., 0., 0., 0., 0., 0., 0., 0., 0., 0., 0., 0., 0.,
          0., 0., 4.16666679e-02, 0., 0., 0., 8.33333358e-02, 0.,
          8.33333358e-02, 0., 0., 0., 0., 0., 4.16666679e-02, 0., 0., 0.,
          0., 0., 0., 0., 0., 0., 8.33333358e-02, 0., 0., 0., 0., 0., 0.,
          0., 0., 0., 4.16666679e-02 ]
      - [ 0., 0., 0., 0., 0., 0., 0., 0., 0., 0., 1.00000001e-01, 0., 0.,
          0., 0., 0., 0., 0., 0., 0., 0., 0., 0., 0., 0., 2.00000003e-01,
          0., 0., 0., 0., 0., 0., 0., 0., 0., 0., 0., 0., 0., 0., 0., 0.,
          0., 0., 0., 0., 0., 0., 0., 0., 0., 0., 0., 0., 0., 0., 0., 0.,
          0., 0., 0., 0., 1.00000001e-01, 0., 0., 1.00000001e-01, 0., 0.,
          0., 0., 0., 0., 0., 0., 0., 0., 0., 0., 0., 0., 1.00000001e-01,
          0., 0., 0., 0., 1.00000001e-01, 0., 0., 0., 0., 0., 0., 0.,
          1.00000001e-01, 2.00000003e-01, 0., 0., 0., 0., 0. ]
      - [ 0., 0., 0., 2.22222224e-01, 0., 0., 0., 0., 0., 0.,
          1.11111112e-01, 0., 0., 0., 0., 1.11111112e-01, 0., 0., 0., 0.,
          0., 0., 0., 0., 0., 0., 0., 0., 0., 0., 0., 0., 0., 0., 0., 0.,
          0., 0., 0., 0., 0., 0., 0., 0., 0., 0., 0., 0., 0., 0., 0., 0.,
          0., 0., 0., 0., 0., 0., 0., 0., 0., 0., 0., 0., 0., 0., 0., 0.,
          0., 0., 0., 2.22222224e-01, 0., 0., 0., 0., 1.11111112e-01, 0.,
          0., 0., 0., 0., 0., 0., 0., 0., 0., 0., 0., 1.11111112e-01,
          1.11111112e-01, 0., 0., 0., 0., 0., 0., 0., 0., 0. ]
      - [ 0., 0., 0., 0., 0., 0., 0., 0., 0., 0., 7.69230798e-02, 0., 0.,
          0., 0., 0., 0., 0., 0., 0., 0., 0., 0., 0., 7.69230798e-02, 0.,
          0., 0., 0., 7.69230798e-02, 0., 0., 0., 0., 0., 0., 0., 0., 0.,
          7.69230798e-02, 0., 0., 0., 0., 0., 0., 0., 0., 0., 0.,
          7.69230798e-02, 0., 0., 0., 0., 0., 0., 0., 0., 0., 0., 0., 0.,
          0., 0., 0., 7.69230798e-02, 7.69230798e-02, 0., 0., 0., 0., 0.,
          0., 0., 0., 0., 0., 0., 0., 0., 0., 7.69230798e-02, 0., 0., 0.,
          0., 0., 0., 0., 0., 0., 0., 0., 0., 0., 2.30769247e-01, 0.,
          7.69230798e-02, 7.69230798e-02 ]
      - [ 1.73913036e-02, 8.69565178e-03, 0., 1.73913036e-02, 0., 0.,
          1.73913036e-02, 0., 4.34782580e-02, 0., 0., 0., 0.,
          3.47826071e-02, 0., 0., 0., 1.73913036e-02, 0., 3.47826071e-02,
          8.69565178e-03, 0., 1.73913036e-02, 0., 0., 8.69565178e-03,
          8.69565178e-03, 1.73913036e-02, 0., 0., 3.47826071e-02, 0., 0.,
          8.69565178e-03, 8.69565178e-03, 0., 8.69565178e-03,
          8.69565178e-03, 1.73913036e-02, 8.69565178e-03, 8.69565178e-03,
          2.60869563e-02, 0., 0., 0., 0., 0., 8.69565178e-03,
          1.73913036e-02, 0., 0., 0., 8.69565178e-03, 0., 0., 0.,
          8.69565178e-03, 0., 0., 0., 0., 0., 1.73913036e-02, 0.,
          1.73913036e-02, 5.21739125e-02, 1.73913036e-02, 0., 0.,
          1.73913036e-02, 0., 8.69565178e-03, 8.69565178e-03,
          1.73913036e-02, 0., 8.69565178e-03, 1.73913036e-02,
          8.69565178e-03, 8.69565178e-03, 1.73913036e-02, 0., 0.,
          8.69565178e-03, 5.21739125e-02, 4.34782580e-02, 0., 0., 0.,
          3.47826071e-02, 8.69565178e-03, 5.21739125e-02, 1.73913036e-02,
          1.04347825e-01, 8.69565178e-03, 0., 0., 0., 1.73913036e-02,
          8.69565178e-03, 0. ]
      - [ 2.77777780e-02, 2.77777780e-02, 0., 0., 0., 0., 2.77777780e-02,
          0., 2.77777780e-02, 0., 0., 0., 0., 0., 0., 0., 0.,
          2.77777780e-02, 0., 0., 0., 2.77777780e-02, 0., 0., 0., 0., 0.,
          0., 0., 0., 0., 2.77777780e-02, 0., 2.77777780e-02, 0., 0., 0.,
          0., 0., 0., 0., 2.77777780e-02, 2.77777780e-02, 0., 0., 0., 0.,
          0., 0., 2.77777780e-02, 0., 0., 0., 8.33333358e-02, 0.,
          8.33333358e-02, 0., 0., 0., 0., 0., 0., 0., 0., 2.77777780e-02,
          0., 0., 2.77777780e-02, 0., 0., 0., 0., 0., 0., 0., 0., 0., 0.,
          0., 2.77777780e-02, 0., 0., 0., 0., 0., 0., 0., 0., 0.,
          2.77777780e-02, 0., 0., 4.16666657e-01, 0., 0., 0., 0., 0., 0.,
          0. ]
      - [ 0., 0., 0., 0., 0., 0., 4.34782617e-02, 0., 0., 0., 0., 0., 0.,
          0., 0., 1.30434781e-01, 0., 0., 0., 0., 0., 0., 0., 0., 0., 0.,
          0., 0., 0., 4.34782617e-02, 4.34782617e-02, 0., 0., 0., 0.,
          4.34782617e-02, 0., 0., 0., 0., 0., 0., 0., 0., 0., 0., 0., 0.,
          0., 0., 0., 0., 0., 4.34782617e-02, 0., 0., 4.34782617e-02, 0.,
          0., 0., 0., 0., 0., 0., 0., 4.34782617e-02, 0., 0., 0., 0., 0.,
          4.34782617e-02, 0., 0., 0., 0., 4.34782617e-02, 0.,
          8.69565234e-02, 1.30434781e-01, 0., 0., 0., 0., 0., 0., 0., 0.,
          4.34782617e-02, 8.69565234e-02, 4.34782617e-02, 0., 0., 0., 0.,
          0., 8.69565234e-02, 0., 0., 0. ]
      - [ 0., 0., 5.08474559e-02, 3.38983051e-02, 0., 0., 0.,
          1.69491526e-02, 0., 0., 0., 0., 0., 0., 0., 0., 0., 0.,
          1.69491526e-02, 0., 0., 1.69491526e-02, 0., 0., 1.69491526e-02,
          0., 0., 0., 1.69491526e-02, 1.69491526e-02, 0., 0., 0.,
          1.69491526e-02, 0., 1.69491526e-02, 1.69491526e-02, 0., 0., 0.,
          1.69491526e-02, 0., 2.54237294e-01, 0., 0., 0., 0., 0., 0., 0.,
          0., 8.47457647e-02, 3.38983051e-02, 0., 0., 0., 0., 0., 0., 0.,
          1.69491526e-02, 0., 0., 8.47457647e-02, 0., 0., 1.69491526e-02,
          0., 0., 0., 1.69491526e-02, 1.69491526e-02, 0., 6.77966103e-02,
          0., 0., 1.69491526e-02, 0., 0., 0., 0., 0., 3.38983051e-02, 0.,
          1.69491526e-02, 0., 0., 0., 5.08474559e-02, 0., 0.,
          1.69491526e-02, 0., 0., 0., 0., 0., 0., 0., 1.69491526e-02 ]
      - [ 0., 3.33333343e-01, 0., 0., 0., 0., 0., 0., 0., 0., 0., 0., 0.,
          0., 0., 0., 0., 0., 0., 0., 0., 0., 0., 0., 0., 3.33333343e-01,
          0., 0., 0., 0., 0., 0., 0., 0., 0., 0., 0., 0., 0., 0., 0., 0.,
          0., 0., 0., 0., 0., 0., 0., 0., 0., 0., 0., 0., 0., 0., 0., 0.,
          0., 0., 0., 0., 0., 0., 0., 0., 0., 0., 0., 0., 0., 0., 0.,
          3.33333343e-01, 0., 0., 0., 0., 0., 0., 0., 0., 0., 0., 0., 0.,
          0., 0., 0., 0., 0., 0., 0., 0., 0., 0., 0., 0., 0., 0. ]
      - [ 0., 1.25000000e-01, 0., 0., 0., 0., 0., 0., 0., 0., 0., 0., 0.,
          0., 0., 0., 0., 0., 0., 0., 0., 0., 0., 0., 0., 0., 0., 0., 0.,
          0., 1.25000000e-01, 0., 0., 0., 0., 1.25000000e-01,
          1.25000000e-01, 0., 0., 0., 0., 0., 0., 0., 0., 0., 0., 0., 0.,
          0., 0., 0., 0., 0., 0., 0., 0., 0., 0., 0., 0., 0., 0., 0., 0.,
          0., 0., 0., 0., 0., 0., 0., 0., 1.25000000e-01, 0., 0., 0., 0.,
          0., 2.50000000e-01, 0., 0., 0., 0., 0., 0., 0., 0., 0., 0., 0.,
          0., 0., 0., 0., 0., 0., 1.25000000e-01, 0., 0. ]
      - [ 0., 0., 0., 0., 0., 0., 0., 0., 0., 0., 0., 0., 0., 0., 0., 0.,
          0., 1.00000001e-01, 0., 2.00000003e-01, 0., 0., 0., 0., 0., 0.,
          0., 0., 0., 0., 0., 1.00000001e-01, 0., 0., 0., 0., 0., 0., 0.,
          0., 1.00000001e-01, 0., 0., 0., 0., 0., 0., 0., 0., 0., 0., 0.,
          0., 0., 0., 0., 0., 0., 0., 0., 0., 0., 0., 0., 0., 0., 0., 0.,
          0., 0., 0., 0., 0., 0., 0., 0., 0., 0., 1.00000001e-01,
          2.00000003e-01, 0., 0., 0., 0., 0., 1.00000001e-01, 0., 0., 0.,
          0., 0., 0., 0., 0., 0., 0., 0., 0., 1.00000001e-01, 0. ]
      - [ 0., 0., 0., 0., 0., 0., 0., 0., 0., 0., 1.66666672e-01, 0., 0.,
          0., 0., 0., 0., 0., 0., 0., 0., 0., 0., 0., 0., 0., 0., 0., 0.,
          0., 1.66666672e-01, 0., 0., 0., 0., 0., 1.66666672e-01, 0., 0.,
          0., 0., 0., 0., 0., 0., 0., 0., 0., 0., 0., 0., 0., 0., 0., 0.,
          0., 0., 0., 0., 0., 0., 0., 0., 0., 0., 1.66666672e-01, 0., 0.,
          0., 1.66666672e-01, 0., 0., 0., 0., 0., 0., 1.66666672e-01, 0.,
          0., 0., 0., 0., 0., 0., 0., 0., 0., 0., 0., 0., 0., 0., 0., 0.,
          0., 0., 0., 0., 0., 0. ]
      - [ 0., 0., 0., 0., 0., 0., 0., 0., 0., 0., 0., 0., 0., 0., 0., 0.,
          0., 0., 0., 0., 0., 0., 0., 0., 0., 0., 0., 0., 0., 0., 0., 0.,
          0., 0., 0., 0., 0., 0., 0., 0., 0., 0., 0., 0., 0., 0., 0., 0.,
          0., 0., 0., 0., 0., 0., 0., 0., 0., 0., 0., 0., 0., 0., 0., 0.,
          0., 0., 0., 0., 0., 0., 0., 0., 0., 0., 0., 0., 0., 0., 0., 1.,
          0., 0., 0., 0., 0., 0., 0., 0., 0., 0., 0., 0., 0., 0., 0., 0.,
          0., 0., 0., 0. ]
      - [ 0., 0., 0., 0., 0., 0., 0., 0., 0., 0., 0., 0., 0., 0., 0., 0.,
          0., 0., 0., 0., 0., 0., 0., 0., 0., 0., 0., 0., 0., 0., 0.,
          2.50000000e-01, 0., 0., 0., 0., 0., 0., 0., 0., 0., 0., 0., 0.,
          0., 0., 0., 0., 0., 0., 0., 0., 0., 0., 0., 2.50000000e-01, 0.,
          0., 0., 0., 0., 0., 0., 0., 0., 0., 0., 0., 0., 2.50000000e-01,
          0., 0., 0., 2.50000000e-01, 0., 0., 0., 0., 0., 0., 0., 0., 0.,
          0., 0., 0., 0., 0., 0., 0., 0., 0., 0., 0., 0., 0., 0., 0., 0.,
          0. ]
      - [ 3.70370373e-02, 3.70370373e-02, 0., 0., 3.70370373e-02, 0., 0.,
          0., 7.40740746e-02, 0., 7.40740746e-02, 0., 0., 7.40740746e-02,
          0., 0., 0., 0., 0., 3.70370373e-02, 0., 0., 0., 0., 0., 0., 0.,
          3.70370373e-02, 0., 0., 0., 0., 0., 1.11111112e-01, 0.,
          3.70370373e-02, 1.48148149e-01, 0., 0., 0., 0., 0., 0., 0., 0.,
          0., 0., 3.70370373e-02, 3.70370373e-02, 0., 0., 0., 0., 0., 0.,
          0., 0., 0., 0., 0., 0., 0., 0., 0., 1.11111112e-01, 0., 0., 0.,
          3.70370373e-02, 0., 0., 0., 0., 0., 0., 0., 3.70370373e-02, 0.,
          0., 0., 0., 0., 0., 0., 0., 0., 0., 0., 0., 0., 0., 0., 0., 0.,
          0., 3.70370373e-02, 0., 0., 0., 0. ]
      - [ 0., 0., 0., 0., 0., 0., 0., 0., 0., 0., 0., 0., 0., 0., 0.,
          5.26315793e-02, 0., 0., 0., 0., 0., 0., 0., 0., 0., 0., 0., 0.,
          0., 0., 0., 0., 0., 0., 0., 0., 0., 0., 0., 0., 0., 0.,
          7.89473712e-01, 0., 5.26315793e-02, 0., 0., 0., 0., 0., 0., 0.,
          0., 0., 0., 0., 0., 0., 0., 0., 0., 0., 0., 0., 0., 0., 0., 0.,
          0., 0., 0., 0., 0., 0., 0., 0., 0., 0., 0., 1.05263159e-01, 0.,
          0., 0., 0., 0., 0., 0., 0., 0., 0., 0., 0., 0., 0., 0., 0., 0.,
          0., 0., 0. ]
      - [ 0., 0., 4.16666679e-02, 0., 0., 0., 0., 0., 1.66666672e-01, 0.,
          8.33333358e-02, 0., 0., 1.25000000e-01, 0., 0., 4.16666679e-02,
          0., 0., 4.16666679e-02, 0., 0., 0., 0., 0., 0., 0., 0., 0., 0.,
          0., 0., 0., 0., 0., 0., 1.25000000e-01, 0., 0., 0., 0., 0., 0.,
          0., 0., 0., 0., 0., 0., 0., 0., 0., 0., 0., 0., 0., 0., 0., 0.,
          0., 0., 0., 8.33333358e-02, 0., 0., 4.16666679e-02, 0., 0., 0.,
          8.33333358e-02, 0., 0., 0., 0., 0., 0., 0., 0., 0., 0., 0., 0.,
          0., 0., 0., 0., 0., 0., 0., 0., 1.25000000e-01, 0., 0., 0., 0.,
          0., 0., 4.16666679e-02, 0., 0. ]
      - [ 0., 0., 0., 0., 6.66666701e-02, 0., 0., 0., 1.33333340e-01, 0.,
          0., 0., 0., 0., 0., 0., 0., 0., 0., 0., 0., 0., 0., 0., 0.,
          2.66666681e-01, 0., 0., 0., 0., 0., 0., 0., 0., 0., 0., 0., 0.,
          0., 0., 0., 0., 6.66666701e-02, 0., 0., 0., 0., 0., 0., 0., 0.,
          0., 0., 0., 0., 0., 0., 0., 0., 0., 0., 0., 6.66666701e-02, 0.,
          0., 0., 0., 0., 0., 0., 0., 0., 0., 0., 0., 0., 0., 0., 0., 0.,
          0., 0., 6.66666701e-02, 0., 0., 0., 0., 0., 0., 0., 0., 0., 0.,
          0., 3.33333343e-01, 0., 0., 0., 0., 0. ]
      - [ 0., 0., 0., 0., 0., 0., 0., 0., 0., 0., 0., 0., 0., 0., 0.,
          4.87804860e-02, 2.43902430e-02, 0., 0., 0., 0., 0., 0.,
          2.43902430e-02, 0., 0., 2.43902430e-02, 0., 0., 2.43902430e-02,
          0., 0., 0., 0., 4.87804860e-02, 0., 2.43902430e-02, 0., 0., 0.,
          4.87804860e-02, 0., 0., 0., 0., 0., 2.43902430e-02, 0., 0., 0.,
          2.43902430e-02, 0., 0., 0., 0., 9.75609720e-02, 0., 0., 0., 0.,
          0., 2.43902430e-02, 0., 0., 2.43902430e-02, 2.43902430e-02, 0.,
          2.43902430e-02, 0., 0., 0., 2.43902430e-02, 0., 4.87804860e-02,
          0., 0., 0., 0., 4.87804860e-02, 2.43902430e-02, 2.43902430e-02,
          2.43902430e-02, 0., 4.87804860e-02, 0., 0., 0., 2.43902430e-02,
          2.43902430e-02, 4.87804860e-02, 0., 0., 0., 0., 0.,
          2.43902430e-02, 0., 0., 4.87804860e-02, 7.31707290e-02 ]
      - [ 8.00000038e-03, 0., 0., 4.00000028e-02, 0., 8.00000038e-03,
          1.60000008e-02, 0., 0., 0., 0., 1.60000008e-02, 1.60000008e-02,
          2.40000002e-02, 0., 4.00000028e-02, 1.60000008e-02, 0.,
          1.36000007e-01, 0., 0., 0., 0., 0., 0., 0., 0., 8.00000038e-03,
          0., 8.00000038e-03, 2.40000002e-02, 2.40000002e-02, 0.,
          2.40000002e-02, 1.60000008e-02, 2.40000002e-02, 0.,
          8.00000038e-03, 8.00000038e-03, 8.00000038e-03, 1.60000008e-02,
          0., 0., 0., 0., 8.00000038e-03, 2.40000002e-02, 0.,
          8.00000038e-03, 4.80000004e-02, 8.00000038e-03, 0., 0., 0., 0.,
          0., 8.00000038e-03, 0., 0., 2.40000002e-02, 0., 0., 0., 0.,
          1.60000008e-02, 0., 8.00000038e-03, 8.00000038e-03, 0., 0., 0.,
          2.40000002e-02, 1.60000008e-02, 1.60000008e-02, 0., 0.,
          1.60000008e-02, 8.00000038e-03, 0., 3.20000015e-02,
          1.60000008e-02, 0., 0., 4.80000004e-02, 0., 8.00000038e-03, 0.,
          2.40000002e-02, 3.20000015e-02, 0., 0., 0., 0., 8.00000038e-03,
          8.00000038e-03, 0., 1.60000008e-02, 8.00000038e-03,
          4.00000028e-02, 3.20000015e-02 ]
      - [ 0., 6.25000000e-02, 0., 0., 0., 0., 6.25000000e-02, 0., 0., 0.,
          0., 0., 0., 0., 0., 0., 0., 0., 0., 0., 0., 0., 0., 0., 0.,
          6.25000000e-02, 6.25000000e-02, 6.25000000e-02, 0., 0., 0., 0.,
          0., 0., 0., 6.25000000e-02, 1.25000000e-01, 0., 0., 0.,
          6.25000000e-02, 0., 0., 0., 0., 0., 0., 0., 0., 0., 0., 0., 0.,
          0., 0., 0., 0., 0., 0., 0., 0., 0., 0., 0., 0., 0., 0., 0., 0.,
          6.25000000e-02, 0., 0., 0., 6.25000000e-02, 0., 0.,
          6.25000000e-02, 0., 0., 0., 0., 0., 0., 0., 6.25000000e-02, 0.,
          0., 0., 0., 0., 0., 0., 0., 0., 6.25000000e-02, 1.25000000e-01,
          0., 0., 0., 0. ]
      - [ 0., 0., 0., 0., 0., 0., 0., 0., 0., 0., 0., 0., 0., 0., 0., 0.,
          0., 6.89655170e-02, 0., 0., 0., 0., 0., 0., 0., 1.03448272e-01,
          0., 0., 0., 0., 3.44827585e-02, 0., 0., 0., 0., 0., 0., 0., 0.,
          0., 0., 0., 0., 0., 3.44827585e-02, 0., 6.89655170e-02, 0., 0.,
          0., 0., 0., 0., 0., 0., 0., 0., 0., 0., 0., 0., 0., 0., 0., 0.,
          0., 0., 0., 0., 0., 0., 0., 0., 0., 0., 0., 3.44827585e-02, 0.,
          0., 2.06896544e-01, 0., 0., 1.03448272e-01, 0., 0., 0., 0., 0.,
          0., 0., 0., 0., 0., 0., 2.41379306e-01, 0., 0., 3.44827585e-02,
          6.89655170e-02, 0. ]
      - [ 0., 0., 0., 0., 0., 0., 0., 0., 0., 0., 1.25000000e-01, 0., 0.,
          0., 0., 6.25000000e-02, 0., 0., 0., 0., 0., 0., 0., 0., 0.,
          1.87500000e-01, 0., 0., 0., 0., 0., 0., 0., 6.25000000e-02, 0.,
          0., 0., 0., 0., 0., 1.25000000e-01, 0., 6.25000000e-02, 0., 0.,
          0., 0., 0., 0., 0., 0., 0., 0., 0., 0., 0., 0., 0., 0., 0., 0.,
          0., 0., 0., 0., 6.25000000e-02, 0., 0., 0., 0., 0., 0.,
          6.25000000e-02, 1.25000000e-01, 0., 0., 0., 0., 0., 0., 0., 0.,
          0., 0., 0., 0., 0., 0., 0., 0., 0., 0., 0., 0., 1.25000000e-01,
          0., 0., 0., 0., 0. ]
      - [ 0., 0., 0., 0., 0., 0., 0., 0., 0., 0., 0., 0., 0.,
          1.25000000e-01, 0., 0., 0., 0., 1.25000000e-01, 0., 0., 0., 0.,
          0., 0., 0., 0., 0., 0., 0., 0., 0., 0., 0., 0., 0.,
          1.25000000e-01, 0., 0., 0., 0., 0., 0., 0., 0., 0.,
          1.25000000e-01, 0., 0., 0., 0., 0., 0., 0., 0., 0., 0., 0., 0.,
          0., 0., 0., 0., 0., 0., 0., 0., 0., 0., 0., 0., 0.,
          1.25000000e-01, 0., 0., 0., 0., 0., 0., 0., 0., 0., 0., 0., 0.,
          0., 0., 2.50000000e-01, 1.25000000e-01, 0., 0., 0., 0., 0., 0.,
          0., 0., 0., 0., 0. ]
      - [ 0., 0., 0., 0., 0., 0., 5.88235296e-02, 0., 5.88235296e-02, 0.,
          2.35294119e-01, 0., 0., 0., 0., 0., 0., 5.88235296e-02, 0., 0.,
          0., 0., 0., 5.88235296e-02, 0., 0., 0., 0., 0., 5.88235296e-02,
          0., 5.88235296e-02, 0., 0., 0., 0., 5.88235296e-02, 0., 0., 0.,
          0., 0., 0., 0., 0., 0., 0., 0., 0., 0., 0., 0., 0., 0.,
          5.88235296e-02, 0., 0., 0., 0., 0., 0., 0., 0., 0., 0., 0.,
          5.88235296e-02, 0., 0., 0., 0., 0., 0., 0., 0., 0., 0., 0., 0.,
          5.88235296e-02, 0., 0., 0., 0., 5.88235296e-02, 0., 0., 0., 0.,
          5.88235296e-02, 0., 0., 0., 0., 0., 0., 0., 5.88235296e-02, 0.,
          0. ]
      - [ 0., 0., 0., 0., 0., 0., 0., 0., 0., 0., 0., 0., 0., 0., 0.,
          3.57142873e-02, 0., 1.07142866e-01, 0., 0., 0., 0., 0., 0., 0.,
          0., 0., 0., 0., 0., 3.57142873e-02, 0., 0., 0., 0.,
          3.57142873e-02, 0., 0., 0., 3.57142873e-02, 7.14285746e-02, 0.,
          0., 0., 0., 0., 0., 0., 0., 0., 0., 0., 0., 0., 0., 0., 0., 0.,
          0., 0., 0., 0., 0., 0., 0., 3.57142873e-02, 3.57142873e-02, 0.,
          0., 0., 0., 3.57142873e-02, 0., 3.57142873e-02, 0., 0., 0., 0.,
          3.57142873e-02, 3.57142873e-02, 3.57142873e-02, 0., 0., 0., 0.,
          0., 0., 0., 1.42857149e-01, 3.57142873e-02, 3.57142873e-02, 0.,
          0., 0., 0., 3.57142873e-02, 3.57142873e-02, 7.14285746e-02, 0.,
          7.14285746e-02 ]
      - [ 0., 0., 0., 0., 0., 0., 0., 0., 0., 0., 0., 0., 9.37500000e-02,
          0., 0., 9.37500000e-02, 6.25000000e-02, 0., 0., 0., 0., 0., 0.,
          6.25000000e-02, 0., 0., 0., 0., 0., 0., 0., 0., 0., 0., 0.,
          3.12500000e-02, 0., 0., 0., 0., 0., 6.25000000e-02, 0., 0., 0.,
          0., 0., 3.12500000e-02, 0., 3.12500000e-02, 0., 0., 0., 0., 0.,
          0., 3.12500000e-02, 0., 0., 0., 0., 0., 0., 0., 0., 0., 0., 0.,
          3.12500000e-02, 0., 0., 6.25000000e-02, 0., 0., 0., 0.,
          3.12500000e-02, 0., 0., 6.25000000e-02, 3.12500000e-02, 0., 0.,
          0., 0., 0., 0., 6.25000000e-02, 3.12500000e-02, 0., 0., 0., 0.,
          6.25000000e-02, 0., 0., 3.12500000e-02, 0., 3.12500000e-02,
          6.25000000e-02 ]
      - [ 0., 0., 0., 7.14285746e-02, 0., 0., 0., 0., 0., 0., 0., 0., 0.,
          0., 0., 0., 0., 0., 0., 0., 0., 0., 0., 0., 1.42857149e-01, 0.,
          0., 0., 7.14285746e-02, 0., 0., 0., 0., 0., 0., 0., 0., 0., 0.,
          0., 0., 0., 0., 7.14285746e-02, 0., 0., 0., 7.14285746e-02, 0.,
          0., 0., 0., 0., 0., 0., 0., 7.14285746e-02, 0., 0.,
          1.42857149e-01, 0., 0., 0., 0., 0., 0., 0., 0., 0., 0., 0., 0.,
          0., 0., 0., 0., 7.14285746e-02, 0., 0., 0., 0., 0.,
          7.14285746e-02, 0., 7.14285746e-02, 0., 0., 0., 7.14285746e-02,
          0., 0., 0., 0., 0., 0., 0., 0., 7.14285746e-02, 0., 0. ]
      - [ 0., 0., 0., 0., 0., 0., 0., 0., 0., 0., 4.76190485e-02, 0.,
          4.76190485e-02, 0., 0., 9.52380970e-02, 9.52380970e-02,
          4.76190485e-02, 4.76190485e-02, 0., 0., 0., 0., 0., 0., 0., 0.,
          0., 0., 0., 0., 4.76190485e-02, 0., 0., 0., 0., 0., 0., 0.,
          4.76190485e-02, 4.76190485e-02, 0., 0., 0., 0., 0., 0.,
          4.76190485e-02, 0., 4.76190485e-02, 0., 4.76190485e-02, 0., 0.,
          4.76190485e-02, 0., 0., 0., 0., 0., 0., 0., 0., 0.,
          4.76190485e-02, 4.76190485e-02, 0., 0., 0., 0., 0., 0., 0., 0.,
          0., 0., 0., 0., 0., 4.76190485e-02, 0., 0., 0., 0., 0., 0., 0.,
          4.76190485e-02, 0., 0., 0., 0., 0., 0., 0., 0., 0., 0., 0.,
          9.52380970e-02 ]
      - [ 0., 0., 0., 0., 0., 0., 0., 0., 0., 0., 0., 0., 0., 0., 0., 0.,
          0., 1.25000000e-01, 0., 0., 0., 0., 0., 0., 0., 0., 0., 0., 0.,
          0., 0., 0., 0., 0., 0., 0., 0., 0., 0., 0., 0., 0., 0., 0., 0.,
          0., 0., 0., 0., 0., 0., 0., 0., 0., 0., 0., 0., 0., 0., 0., 0.,
          0., 0., 0., 0., 1.25000000e-01, 0., 0., 0., 1.25000000e-01, 0.,
          0., 0., 0., 0., 0., 1.25000000e-01, 0., 0., 0., 0., 0., 0., 0.,
          0., 0., 0., 1.25000000e-01, 1.25000000e-01, 0., 0., 0., 0., 0.,
          0., 0., 0., 1.25000000e-01, 0., 1.25000000e-01 ]
      - [ 0., 0., 2.94117648e-02, 0., 0., 0., 0., 0., 0., 0., 0., 0., 0.,
          2.94117648e-02, 0., 0., 0., 2.94117648e-02, 0., 0., 0., 0., 0.,
          0., 0., 0., 0., 0., 2.94117648e-02, 0., 2.94117648e-02, 0., 0.,
          0., 0., 0., 2.94117648e-02, 0., 2.94117648e-02, 0., 0., 0.,
          3.52941185e-01, 0., 0., 0., 0., 0., 0., 0., 0., 8.82352963e-02,
          0., 2.94117648e-02, 0., 0., 2.94117648e-02, 0., 0., 0., 0., 0.,
          0., 5.88235296e-02, 0., 0., 0., 0., 0., 2.94117648e-02,
          2.94117648e-02, 0., 0., 0., 0., 0., 0., 0., 0., 8.82352963e-02,
          0., 0., 0., 0., 0., 0., 0., 0., 0., 0., 0., 0., 0., 0.,
          5.88235296e-02, 0., 0., 2.94117648e-02, 0., 0. ]
      - [ 0., 0., 0., 0., 0., 0., 0., 0., 0., 1.11111112e-01, 0., 0., 0.,
          0., 0., 0., 0., 5.55555560e-02, 0., 0., 0., 0., 5.55555560e-02,
          0., 5.55555560e-02, 0., 0., 5.55555560e-02, 0., 0., 0., 0., 0.,
          0., 0., 5.55555560e-02, 0., 0., 0., 5.55555560e-02, 0., 0., 0.,
          0., 1.11111112e-01, 0., 0., 0., 0., 0., 0., 0., 0.,
          5.55555560e-02, 0., 5.55555560e-02, 0., 0., 0., 5.55555560e-02,
          0., 0., 0., 0., 5.55555560e-02, 0., 0., 0., 0., 0., 0.,
          5.55555560e-02, 5.55555560e-02, 0., 0., 0., 5.55555560e-02, 0.,
          0., 0., 0., 0., 0., 0., 5.55555560e-02, 0., 0., 0., 0., 0., 0.,
          0., 0., 0., 0., 0., 0., 0., 0., 0. ]
      - [ 0., 0., 0., 0., 0., 0., 0., 0., 0., 0., 0., 0., 0., 0., 0., 0.,
          0., 0., 0., 0., 0., 0., 0., 0., 0., 0., 0., 0., 0., 0., 0., 0.,
          0., 0., 0., 0., 0., 0., 0., 0., 0., 0., 4.44444448e-01, 0.,
          1.11111112e-01, 0., 0., 0., 0., 0., 0., 1.66666672e-01, 0., 0.,
          0., 0., 0., 0., 0., 0., 0., 0., 5.55555560e-02, 0., 0., 0., 0.,
          0., 0., 5.55555560e-02, 1.11111112e-01, 0., 0., 0., 0., 0., 0.,
          0., 0., 5.55555560e-02, 0., 0., 0., 0., 0., 0., 0., 0., 0., 0.,
          0., 0., 0., 0., 0., 0., 0., 0., 0., 0. ]
      - [ 0., 0., 0., 0., 0., 0., 0., 0., 0., 0., 1.42857149e-01, 0., 0.,
          0., 0., 0., 0., 1.42857149e-01, 0., 0., 0., 0., 0., 0.,
          1.42857149e-01, 0., 0., 0., 0., 0., 0., 0., 0., 0., 0., 0., 0.,
          0., 0., 1.42857149e-01, 0., 0., 0., 0., 0., 0., 0., 0., 0., 0.,
          0., 0., 0., 0., 0., 0., 0., 0., 0., 0., 0., 0., 0., 0., 0.,
          1.42857149e-01, 0., 0., 0., 0., 0., 0., 0., 0., 0., 0., 0., 0.,
          0., 1.42857149e-01, 0., 0., 0., 0., 0., 0., 0., 0., 0., 0.,
          1.42857149e-01, 0., 0., 0., 0., 0., 0., 0., 0., 0. ]
      - [ 0., 1.00000001e-01, 0., 1.00000001e-01, 0., 0., 0., 0., 0., 0.,
          0., 0., 0., 0., 0., 0., 0., 0., 0., 0., 0., 0., 0., 0., 0., 0.,
          0., 0., 0., 2.00000003e-01, 0., 1.00000001e-01, 0., 0., 0., 0.,
          0., 0., 0., 0., 0., 0., 0., 0., 0., 0., 0., 0., 0., 0., 0., 0.,
          0., 0., 0., 0., 0., 0., 0., 0., 0., 0., 0., 0., 0., 0., 0., 0.,
          0., 0., 0., 0., 0., 1.00000001e-01, 0., 0., 0., 0.,
          1.00000001e-01, 1.00000001e-01, 0., 0., 0., 0., 0., 0., 0., 0.,
          0., 0., 1.00000001e-01, 0., 0., 0., 0., 0., 0., 0.,
          1.00000001e-01, 0. ]
      - [ 0., 0., 0., 0., 0., 0., 0., 0., 0., 0., 0., 0., 0., 0., 0., 0.,
          0., 0., 0., 0., 0., 0., 0., 0., 0., 5.00000000e-01, 0., 0., 0.,
          0., 0., 0., 0., 0., 0., 0., 0., 0., 0., 0., 0., 0., 0., 0., 0.,
          0., 0., 0., 0., 0., 0., 0., 0., 0., 0., 0., 0., 0., 0., 0., 0.,
          0., 0., 0., 0., 0., 0., 0., 0., 0., 0., 0., 0., 0., 0., 0., 0.,
          0., 0., 0., 0., 0., 0., 0., 0., 0., 0., 0., 0., 0., 0., 0., 0.,
          0., 5.00000000e-01, 0., 0., 0., 0., 0. ]
   decision_functions:
      -
         sv_count: 1
         rho: -1.2260384627741928e-01
         alpha: [ 1. ]
         index: [ 0 ]
