%YAML:1.0
---
opencv_ml_svm:
   format: 3
   svmType: C_SVC
   kernel:
      type: LINEAR
   C: 1.0000000000000001e-01
   term_criteria: { iterations:100 }
   var_count: 100
   class_count: 2
   class_labels: !!opencv-matrix
      rows: 2
      cols: 1
      dt: i
      data: [ 0, 1 ]
   sv_total: 1
   support_vectors:
      - [ 1.88549736e-03, 5.52354427e-03, -1.44927541e-03,
          -3.68113001e-03, 4.82183369e-03, 1.35782559e-03,
          -2.89855083e-03, 2.86603183e-03, 2.04102648e-03,
          -9.14497577e-05, -4.48585255e-03, 3.46968439e-03,
          -4.76190541e-03, 0., 0., 3.51676065e-03, 0., 2.52693566e-03,
          4.07347688e-03, 1.71327803e-04, -1.44927541e-03,
          -1.67875143e-03, -2.74349266e-04, 2.82824598e-03,
          -5.93512785e-03, -3.12802684e-03, 0., 0., -4.76190541e-03,
          -1.44927541e-03, 2.90331827e-03, 0., -7.12490117e-04,
          6.78912783e-03, 3.83947836e-03, -9.38578323e-03,
          -9.14497577e-05, 2.78167846e-03, 4.10554378e-04,
          -3.12802684e-03, -1.44927541e-03, -8.15425301e-05,
          -9.37981065e-04, 1.46067888e-03, 1.98810548e-03,
          -3.49659931e-05, 1.35782559e-03, -4.12375550e-04, 0.,
          -3.60605773e-03, -9.61526018e-03, 3.58112575e-03,
          1.35782559e-03, 2.71565118e-03, -1.58730173e-03,
          -2.29476049e-04, -1.58730173e-03, 0., -1.04847155e-03, 0.,
          -4.62387875e-03, 1.35330309e-03, -3.03657702e-03,
          -4.84149111e-03, 1.08347635e-03, 9.42748680e-04,
          -2.29476049e-04, 9.42748680e-04, 6.58116862e-03,
          1.98810548e-03, 2.31292867e-03, 3.65839992e-03, 1.02785463e-03,
          1.35782559e-03, -4.58952098e-04, 5.18880959e-04, 0.,
          9.42748680e-04, 2.07773410e-03, 0., 7.88344943e-04, 0.,
          -3.17460345e-03, 3.51586007e-03, 2.30057421e-03,
          -4.48585255e-03, 0., 8.51298915e-04, 1.35782559e-03, 0., 0.,
          4.02374752e-03, -3.03657702e-03, -3.17460345e-03, 0.,
          -3.17460345e-03, 1.76838005e-03, -3.17460345e-03,
          -6.98471325e-04, 4.00803838e-04 ]
   uncompressed_sv_total: 8
   uncompressed_support_vectors:
      - [ 0., 6.25000000e-02, 0., 0., 6.25000000e-02, 0., 0.,
          6.25000000e-02, 1.87500000e-01, 0., 0., 0., 0., 0., 0.,
          6.25000000e-02, 0., 0., 0., 0., 0., 0., 0., 0., 0., 0., 0., 0.,
          0., 0., 0., 0., 6.25000000e-02, 0., 0., 0., 0., 0., 0., 0., 0.,
          1.25000000e-01, 0., 0., 0., 1.25000000e-01, 0., 0., 0., 0., 0.,
          6.25000000e-02, 0., 0., 0., 0., 0., 0., 0., 0., 0., 0., 0., 0.,
          0., 0., 0., 0., 6.25000000e-02, 0., 6.25000000e-02, 0., 0., 0.,
          0., 6.25000000e-02, 0., 0., 0., 0., 0., 0., 0., 0., 0., 0., 0.,
          0., 0., 0., 0., 0., 0., 0., 0., 0., 0., 0., 0., 0. ]
      - [ 0., 5.79710156e-02, 1.44927539e-02, 1.44927539e-02, 0., 0.,
          2.89855078e-02, 2.89855078e-02, 1.44927539e-02, 1.44927539e-02,
          2.89855078e-02, 1.44927539e-02, 0., 0., 0., 7.24637657e-02, 0.,
          1.44927539e-02, 0., 0., 1.44927539e-02, 1.44927539e-02,
          4.34782617e-02, 0., 4.34782617e-02, 2.89855078e-02, 0., 0., 0.,
          1.44927539e-02, 0., 0., 4.34782617e-02, 0., 0., 1.44927539e-02,
          1.44927539e-02, 0., 0., 2.89855078e-02, 1.44927539e-02, 0.,
          2.89855078e-02, 2.89855078e-02, 0., 2.89855078e-02, 0.,
          2.89855078e-02, 0., 1.44927539e-02, 1.44927539e-02, 0., 0., 0.,
          0., 0., 0., 0., 1.44927539e-02, 0., 1.44927539e-02, 0.,
          1.44927539e-02, 2.89855078e-02, 4.34782617e-02, 0., 0., 0., 0.,
          0., 1.44927539e-02, 0., 1.44927539e-02, 0., 0., 0., 0., 0.,
          1.44927539e-02, 0., 0., 0., 0., 1.44927539e-02, 0.,
          2.89855078e-02, 0., 1.44927539e-02, 0., 0., 0., 0.,
          1.44927539e-02, 0., 0., 0., 0., 0., 4.34782617e-02, 0. ]
      - [ 0., 3.17460336e-02, 0., 3.17460336e-02, 0., 0., 0., 0., 0., 0.,
          1.58730168e-02, 0., 4.76190522e-02, 0., 0., 0., 0., 0., 0.,
          3.17460336e-02, 0., 1.58730168e-02, 0., 0., 1.58730168e-02,
          1.58730168e-02, 0., 0., 4.76190522e-02, 0., 0., 0.,
          3.17460336e-02, 0., 1.58730168e-02, 7.93650821e-02, 0., 0., 0.,
          1.58730168e-02, 0., 1.58730168e-02, 0., 0., 0., 0., 0.,
          1.58730168e-02, 0., 3.17460336e-02, 9.52381045e-02, 0., 0., 0.,
          1.58730168e-02, 1.58730168e-02, 1.58730168e-02, 0.,
          1.58730168e-02, 0., 3.17460336e-02, 0., 1.58730168e-02,
          3.17460336e-02, 0., 0., 1.58730168e-02, 0., 0., 0.,
          1.58730168e-02, 0., 1.58730168e-02, 0., 3.17460336e-02,
          1.58730168e-02, 0., 0., 1.58730168e-02, 0., 1.58730168e-02, 0.,
          3.17460336e-02, 0., 0., 1.58730168e-02, 0., 0., 0., 0., 0., 0.,
          1.58730168e-02, 3.17460336e-02, 0., 3.17460336e-02, 0.,
          3.17460336e-02, 0., 1.58730168e-02 ]
      - [ 0., 6.25000000e-02, 0., 0., 0., 0., 0., 0., 0., 0., 0.,
          1.25000000e-01, 0., 0., 0., 1.25000000e-01, 0., 1.25000000e-01,
          0., 6.25000000e-02, 0., 0., 0., 0., 0., 0., 0., 0., 0., 0., 0.,
          0., 6.25000000e-02, 0., 0., 0., 0., 0., 0., 0., 0., 0., 0.,
          6.25000000e-02, 6.25000000e-02, 0., 0., 0., 0., 0., 0., 0., 0.,
          0., 0., 0., 0., 0., 6.25000000e-02, 0., 0., 0., 0., 0., 0., 0.,
          0., 0., 0., 6.25000000e-02, 0., 0., 0., 0., 0., 0., 0., 0.,
          6.25000000e-02, 0., 0., 0., 0., 0., 0., 0., 0., 0., 0., 0., 0.,
          6.25000000e-02, 0., 0., 0., 0., 0., 0., 0., 6.25000000e-02 ]
      - [ 0., 9.09090936e-02, 0., 0., 0., 0., 0., 0., 0., 0., 0., 0., 0.,
          0., 0., 9.09090936e-02, 0., 0., 0., 0., 0., 0., 0., 0., 0., 0.,
          0., 0., 0., 0., 9.09090936e-02, 0., 0., 0., 0., 0., 0.,
          9.09090936e-02, 0., 0., 0., 0., 9.09090936e-02, 9.09090936e-02,
          0., 0., 0., 0., 0., 9.09090936e-02, 0., 0., 0., 0., 0., 0., 0.,
          0., 0., 0., 0., 0., 0., 0., 0., 0., 0., 0., 0., 0., 0., 0., 0.,
          0., 0., 0., 0., 0., 0., 0., 9.09090936e-02, 0., 0.,
          9.09090936e-02, 0., 0., 0., 0., 0., 0., 0., 1.81818187e-01, 0.,
          0., 0., 0., 0., 0., 0., 0. ]
      - [ 5.00000007e-02, 0., 0., 2.50000004e-02, 2.50000004e-02, 0., 0.,
          5.00000007e-02, 0., 0., 0., 2.50000004e-02, 0., 0., 0.,
          2.50000004e-02, 0., 0., 0., 0., 0., 0., 0., 7.50000030e-02, 0.,
          0., 0., 0., 0., 0., 5.00000007e-02, 0., 2.50000004e-02, 0.,
          2.50000004e-02, 0., 0., 2.50000004e-02, 0., 0., 0., 0.,
          2.50000004e-02, 2.50000004e-02, 0., 0., 0., 0., 0., 0., 0.,
          7.50000030e-02, 0., 0., 0., 0., 0., 0., 0., 0., 0.,
          2.50000004e-02, 0., 0., 0., 2.50000004e-02, 0., 2.50000004e-02,
          7.50000030e-02, 0., 7.50000030e-02, 2.50000004e-02,
          5.00000007e-02, 0., 0., 2.50000004e-02, 0., 2.50000004e-02, 0.,
          0., 0., 0., 0., 0., 2.50000004e-02, 0., 0., 2.50000004e-02, 0.,
          0., 0., 0., 0., 0., 0., 0., 0., 0., 7.50000030e-02, 0. ]
      - [ 0., 9.09090936e-02, 0., 0., 3.03030312e-02, 0., 0.,
          3.03030312e-02, 9.09090936e-02, 0., 0., 0., 0., 0., 0., 0., 0.,
          0., 0., 0., 0., 0., 0., 0., 0., 0., 0., 0., 0., 0., 0., 0.,
          3.03030312e-02, 0., 3.03030312e-02, 0., 0., 6.06060624e-02,
          3.03030312e-02, 0., 0., 0., 0., 3.03030312e-02, 0., 0., 0., 0.,
          0., 0., 0., 0., 0., 0., 0., 0., 0., 0., 0., 0., 0.,
          3.03030312e-02, 0., 9.09090936e-02, 0., 0., 0., 0.,
          1.21212125e-01, 0., 3.03030312e-02, 0., 6.06060624e-02, 0., 0.,
          3.03030312e-02, 0., 0., 3.03030312e-02, 0., 0., 0., 0.,
          9.09090936e-02, 0., 0., 0., 0., 0., 0., 0., 0., 0., 0., 0., 0.,
          3.03030312e-02, 0., 6.06060624e-02, 0. ]
      - [ 0., 1.01449281e-01, 0., 0., 2.89855078e-02, 1.44927539e-02, 0.,
          2.89855078e-02, 0., 1.44927539e-02, 0., 0., 0., 0., 0.,
          4.34782617e-02, 0., 0., 4.34782617e-02, 1.44927539e-02, 0.,
          1.44927539e-02, 4.34782617e-02, 0., 0., 1.44927539e-02, 0., 0.,
          0., 0., 0., 0., 2.89855078e-02, 7.24637657e-02, 4.34782617e-02,
          0., 1.44927539e-02, 0., 0., 1.44927539e-02, 0., 0., 0., 0., 0.,
          1.44927539e-02, 1.44927539e-02, 4.34782617e-02, 0., 0.,
          1.44927539e-02, 0., 1.44927539e-02, 2.89855078e-02, 0.,
          1.44927539e-02, 0., 0., 0., 0., 0., 0., 0., 0., 5.79710156e-02,
          0., 1.44927539e-02, 0., 1.44927539e-02, 0., 1.44927539e-02,
          2.89855078e-02, 1.44927539e-02, 1.44927539e-02, 2.89855078e-02,
          0., 0., 0., 2.89855078e-02, 0., 1.44927539e-02, 0., 0.,
          2.89855078e-02, 1.44927539e-02, 0., 0., 1.44927539e-02,
          1.44927539e-02, 0., 0., 0., 0., 0., 0., 0., 1.44927539e-02, 0.,
          0., 0. ]
   decision_functions:
      -
         sv_count: 1
         rho: -9.9781875962959077e-01
         alpha: [ 1. ]
         index: [ 0 ]
