%YAML:1.0
---
opencv_ml_svm:
   format: 3
   svmType: C_SVC
   kernel:
      type: LINEAR
   C: 1.0000000000000001e-01
   term_criteria: { iterations:100 }
   var_count: 100
   class_count: 2
   class_labels: !!opencv-matrix
      rows: 2
      cols: 1
      dt: i
      data: [ 0, 1 ]
   sv_total: 1
   support_vectors:
      - [ 2.14560656e-03, 3.48306750e-03, 1.88477250e-04, 2.54506315e-03,
          -2.77030049e-03, -3.50942686e-02, 8.03806074e-03,
          6.38421858e-04, -4.28051036e-03, 0., 7.49425590e-03,
          -5.11197187e-03, 2.14560656e-03, -5.78555162e-04,
          -4.53495188e-03, -1.39448652e-02, -1.42372737e-03,
          -3.90465418e-03, 8.48444644e-03, -5.93237858e-03,
          7.30674481e-03, 2.58934754e-03, -3.45557742e-03,
          1.96130783e-03, -4.05253423e-03, -4.60401672e-04,
          4.74167289e-03, 8.16096552e-03, 0., -3.59213259e-03,
          -4.19056043e-03, -5.05528587e-04, -2.66608689e-03,
          -4.63932194e-03, -7.32387230e-03, 4.01557377e-03,
          9.14060697e-03, -5.22869080e-03, -1.95361604e-03,
          1.38017887e-04, -2.09270138e-03, -3.80952400e-03,
          -1.22379244e-03, 8.48774333e-03, 0., -1.85887853e-04,
          -1.30731228e-03, 2.02596816e-03, 2.32028193e-03,
          -3.16502876e-03, 4.67959652e-03, 1.77170779e-03,
          -3.07944953e-03, 1.53998821e-03, 1.24657545e-02,
          -3.18027870e-03, 0., -5.87713206e-04, 5.27780177e-03,
          -6.32440532e-03, 6.91229478e-04, 2.16003810e-03,
          2.42423057e-03, 1.74451130e-03, -3.00460961e-03,
          2.28369352e-03, -1.19772903e-03, 6.23244885e-03,
          2.26562303e-02, 4.41234373e-03, 2.95077311e-03, 1.49245914e-02,
          -5.82265807e-03, 3.16700112e-04, -1.16751960e-03,
          -4.60401672e-04, 9.82980360e-04, -1.68813090e-03,
          2.08129466e-04, 7.26476370e-04, 3.18258349e-03,
          -1.60832342e-03, -9.45841800e-03, 5.79566415e-03,
          -5.57217048e-03, 2.62809079e-03, 9.51622380e-04,
          1.19861402e-03, -1.24165171e-03, -9.15038958e-03,
          -7.64655124e-04, 3.62527813e-03, -2.00079125e-03,
          -6.81075966e-04, -3.79104004e-03, -3.13861971e-03,
          -1.27311505e-04, -1.49782305e-03, 1.08017086e-03,
          1.14225750e-05 ]
   uncompressed_sv_total: 16
   uncompressed_support_vectors:
      - [ 0., 0., 0., 1.87500000e-01, 0., 6.25000000e-02, 1.87500000e-01,
          0., 0., 0., 0., 0., 0., 0., 0., 0., 0., 6.25000000e-02, 0., 0.,
          0., 0., 0., 0., 0., 0., 6.25000000e-02, 0., 0., 0., 0., 0., 0.,
          0., 0., 0., 0., 0., 0., 0., 0., 0., 0., 0., 0., 0., 0., 0.,
          6.25000000e-02, 0., 0., 0., 0., 0., 0., 0., 0., 0., 0., 0., 0.,
          0., 0., 0., 0., 0., 0., 1.25000000e-01, 0., 0., 0., 0., 0., 0.,
          0., 0., 0., 0., 0., 0., 0., 0., 0., 0., 0., 0., 0., 0., 0.,
          6.25000000e-02, 0., 6.25000000e-02, 0., 6.25000000e-02,
          6.25000000e-02, 0., 0., 0., 0., 0. ]
      - [ 0., 0., 0., 2.89855078e-02, 0., 2.89855078e-02, 0.,
          4.34782617e-02, 0., 0., 0., 1.44927539e-02, 0., 1.44927539e-02,
          0., 0., 2.89855078e-02, 1.44927539e-02, 1.44927539e-02,
          4.34782617e-02, 0., 1.44927539e-02, 0., 1.44927539e-02,
          1.44927539e-02, 0., 2.89855078e-02, 2.89855078e-02, 0.,
          1.44927539e-02, 0., 2.89855078e-02, 4.34782617e-02, 0., 0., 0.,
          1.44927539e-02, 1.44927539e-02, 1.44927539e-02, 0.,
          1.44927539e-02, 0., 0., 1.44927539e-02, 0., 0., 1.44927539e-02,
          0., 1.44927539e-02, 4.34782617e-02, 1.44927539e-02, 0., 0., 0.,
          2.89855078e-02, 1.44927539e-02, 0., 0., 0., 0., 0.,
          1.44927539e-02, 0., 0., 0., 0., 0., 1.44927539e-02,
          1.44927539e-02, 2.89855078e-02, 0., 0., 2.89855078e-02, 0.,
          1.44927539e-02, 0., 0., 1.44927539e-02, 0., 0., 0.,
          1.44927539e-02, 0., 2.89855078e-02, 1.44927539e-02,
          1.44927539e-02, 0., 0., 0., 1.44927539e-02, 1.44927539e-02, 0.,
          0., 5.79710156e-02, 4.34782617e-02, 0., 0., 1.44927539e-02,
          2.89855078e-02, 0. ]
      - [ 0., 0., 0., 1.58730168e-02, 0., 0., 1.58730168e-02,
          3.17460336e-02, 0., 0., 0., 1.58730168e-02, 0., 0.,
          1.58730168e-02, 4.76190522e-02, 0., 0., 1.58730168e-02,
          3.17460336e-02, 0., 0., 1.58730168e-02, 0., 1.58730168e-02, 0.,
          1.58730168e-02, 0., 0., 1.58730168e-02, 3.17460336e-02,
          1.58730168e-02, 0., 1.58730168e-02, 4.76190522e-02, 0., 0., 0.,
          1.58730168e-02, 0., 3.17460336e-02, 1.58730168e-02,
          1.58730168e-02, 0., 0., 1.58730168e-02, 0., 0., 1.58730168e-02,
          0., 0., 0., 3.17460336e-02, 0., 3.17460336e-02, 1.58730168e-02,
          0., 1.58730168e-02, 0., 4.76190522e-02, 0., 0., 0., 0.,
          3.17460336e-02, 0., 1.58730168e-02, 0., 0., 0., 0., 0.,
          1.58730168e-02, 0., 0., 0., 0., 0., 3.17460336e-02,
          3.17460336e-02, 1.58730168e-02, 1.58730168e-02, 4.76190522e-02,
          1.58730168e-02, 1.58730168e-02, 0., 0., 0., 0., 3.17460336e-02,
          0., 0., 4.76190522e-02, 0., 1.58730168e-02, 3.17460336e-02,
          1.58730168e-02, 0., 0., 0. ]
      - [ 0., 3.03030312e-02, 0., 3.03030312e-02, 0., 1.21212125e-01,
          3.03030312e-02, 0., 0., 0., 0., 0., 0., 0., 0., 0., 0.,
          6.06060624e-02, 0., 0., 3.03030312e-02, 3.03030312e-02, 0., 0.,
          0., 0., 3.03030312e-02, 1.21212125e-01, 0., 0., 0., 0., 0., 0.,
          0., 0., 0., 0., 0., 0., 0., 0., 0., 9.09090936e-02, 0.,
          3.03030312e-02, 0., 6.06060624e-02, 0., 3.03030312e-02, 0., 0.,
          0., 3.03030312e-02, 0., 0., 0., 0., 0., 0., 0., 0., 0., 0., 0.,
          0., 0., 0., 3.03030312e-02, 3.03030312e-02, 3.03030312e-02,
          6.06060624e-02, 0., 0., 0., 0., 0., 0., 0., 0., 3.03030312e-02,
          0., 0., 0., 0., 0., 3.03030312e-02, 0., 0., 0., 0.,
          3.03030312e-02, 0., 0., 3.03030312e-02, 0., 0., 0., 0., 0. ]
      - [ 0., 1.44927539e-02, 0., 0., 0., 5.79710156e-02, 1.44927539e-02,
          5.79710156e-02, 0., 0., 0., 1.44927539e-02, 0., 1.44927539e-02,
          0., 1.44927539e-02, 0., 0., 4.34782617e-02, 0., 2.89855078e-02,
          1.44927539e-02, 0., 0., 0., 0., 1.01449281e-01, 1.44927539e-02,
          0., 0., 0., 0., 0., 1.44927539e-02, 0., 0., 2.89855078e-02, 0.,
          0., 0., 0., 0., 1.44927539e-02, 0., 0., 0., 0., 0.,
          1.44927539e-02, 0., 0., 0., 0., 2.89855078e-02, 0.,
          1.44927539e-02, 0., 0., 1.44927539e-02, 0., 0., 0., 0.,
          2.89855078e-02, 0., 0., 0., 2.89855078e-02, 1.44927539e-02, 0.,
          0., 1.44927539e-02, 0., 1.44927539e-02, 0., 0., 0.,
          1.44927539e-02, 2.89855078e-02, 5.79710156e-02, 2.89855078e-02,
          0., 0., 0., 0., 0., 0., 0., 0., 0., 0., 1.44927539e-02, 0.,
          4.34782617e-02, 4.34782617e-02, 2.89855078e-02, 0.,
          1.44927539e-02, 1.01449281e-01, 0. ]
      - [ 0., 0., 0., 0., 0., 9.09090936e-02, 9.09090936e-02, 0., 0., 0.,
          0., 0., 0., 0., 0., 0., 0., 0., 0., 0., 0., 0., 0., 0., 0., 0.,
          0., 9.09090936e-02, 0., 0., 0., 0., 0., 0., 0., 0., 0., 0., 0.,
          0., 1.81818187e-01, 0., 0., 0., 0., 0., 0., 0., 0., 0., 0., 0.,
          0., 0., 0., 0., 0., 0., 9.09090936e-02, 0., 0., 0., 0., 0., 0.,
          0., 0., 0., 0., 2.72727281e-01, 9.09090936e-02, 0., 0., 0., 0.,
          0., 0., 0., 0., 0., 9.09090936e-02, 0., 0., 0., 0., 0., 0., 0.,
          0., 0., 0., 0., 0., 0., 0., 0., 0., 0., 0., 0. ]
      - [ 0., 0., 0., 2.00000003e-01, 0., 0., 0., 0., 0., 0., 0., 0., 0.,
          0., 0., 1.00000001e-01, 0., 1.00000001e-01, 0., 0., 0., 0., 0.,
          0., 0., 0., 0., 0., 0., 0., 0., 0., 0., 0., 0., 2.00000003e-01,
          0., 0., 0., 0., 0., 0., 0., 0., 0., 1.00000001e-01, 0., 0., 0.,
          0., 1.00000001e-01, 0., 0., 0., 0., 0., 0., 0., 0., 0., 0., 0.,
          1.00000001e-01, 0., 0., 0., 0., 0., 0., 0., 0., 0., 0., 0., 0.,
          0., 0., 0., 0., 0., 0., 0., 0., 0., 0., 0., 0., 0., 0., 0.,
          1.00000001e-01, 0., 0., 0., 0., 0., 0., 0., 0., 0. ]
      - [ 0., 2.19780225e-02, 3.29670347e-02, 0., 2.19780225e-02,
          3.29670347e-02, 0., 0., 0., 0., 2.19780225e-02, 1.09890113e-02,
          0., 2.19780225e-02, 1.09890113e-02, 0., 2.19780225e-02,
          3.29670347e-02, 0., 0., 3.29670347e-02, 2.19780225e-02,
          1.09890113e-02, 2.19780225e-02, 0., 0., 0., 0., 0., 0., 0., 0.,
          1.09890113e-02, 0., 2.19780225e-02, 1.09890113e-02, 0., 0., 0.,
          2.19780225e-02, 0., 0., 1.09890113e-02, 5.49450554e-02, 0.,
          2.19780225e-02, 1.09890113e-02, 1.09890113e-02, 2.19780225e-02,
          1.09890113e-02, 3.29670347e-02, 3.29670347e-02, 0., 0., 0., 0.,
          0., 0., 1.09890113e-02, 0., 3.29670347e-02, 4.39560451e-02,
          2.19780225e-02, 0., 1.09890113e-02, 0., 0., 0., 1.09890113e-02,
          0., 0., 0., 0., 0., 0., 0., 1.09890113e-02, 0., 1.09890113e-02,
          1.09890113e-02, 2.19780225e-02, 0., 0., 1.09890113e-02,
          2.19780225e-02, 3.29670347e-02, 4.39560451e-02, 1.09890113e-02,
          0., 1.09890113e-02, 0., 2.19780225e-02, 1.09890113e-02,
          4.39560451e-02, 0., 0., 0., 0., 0., 1.09890113e-02 ]
      - [ 0., 0., 0., 0., 0., 7.14285746e-02, 0., 0., 0., 0.,
          7.14285746e-02, 0., 0., 0., 0., 0., 0., 0., 0., 0., 0., 0., 0.,
          0., 0., 0., 7.14285746e-02, 7.14285746e-02, 0., 0., 0.,
          2.14285731e-01, 0., 0., 0., 0., 7.14285746e-02, 0.,
          7.14285746e-02, 0., 0., 0., 0., 0., 0., 0., 0., 0., 0., 0., 0.,
          0., 0., 0., 7.14285746e-02, 0., 0., 0., 7.14285746e-02, 0., 0.,
          0., 0., 0., 0., 0., 0., 0., 0., 0., 0., 0., 0., 0., 0., 0., 0.,
          0., 7.14285746e-02, 0., 0., 0., 0., 0., 0., 0., 0., 0., 0., 0.,
          0., 0., 0., 0., 7.14285746e-02, 7.14285746e-02, 0., 0., 0., 0. ]
      - [ 0., 0., 0., 6.32911408e-03, 1.26582282e-02, 6.32911408e-03, 0.,
          2.53164563e-02, 1.89873427e-02, 0., 1.89873427e-02,
          6.32911408e-03, 0., 1.89873427e-02, 6.32911408e-03,
          6.32911408e-03, 6.32911408e-03, 0., 3.79746854e-02, 0.,
          1.26582282e-02, 0., 0., 5.69620281e-02, 6.32911408e-03,
          6.32911408e-03, 0., 0., 0., 0., 6.32911408e-03, 6.32911408e-03,
          6.32911408e-03, 1.26582282e-02, 1.26582282e-02, 3.79746854e-02,
          0., 0., 3.79746854e-02, 6.32911408e-03, 0., 0., 1.26582282e-02,
          0., 0., 0., 1.89873427e-02, 6.32911408e-03, 6.32911408e-03,
          6.32911408e-03, 6.32911408e-03, 5.06329127e-02, 6.32911408e-03,
          0., 0., 6.32911408e-03, 0., 2.53164563e-02, 6.32911408e-03, 0.,
          0., 0., 6.32911408e-03, 0., 3.16455700e-02, 1.51898742e-01,
          6.32911408e-03, 0., 0., 0., 0., 0., 0., 0., 2.53164563e-02,
          6.32911408e-03, 3.79746854e-02, 0., 6.32911408e-03, 0.,
          6.32911408e-03, 1.26582282e-02, 6.32911408e-03, 6.32911408e-03,
          6.32911408e-03, 0., 1.26582282e-02, 0., 6.32911408e-03,
          6.32911408e-03, 1.89873427e-02, 6.32911408e-03, 0.,
          1.26582282e-02, 1.26582282e-02, 1.89873427e-02, 1.89873427e-02,
          1.26582282e-02, 6.32911408e-03, 2.53164563e-02 ]
      - [ 5.88235296e-02, 0., 0., 0., 0., 1.76470593e-01, 0.,
          1.17647059e-01, 0., 0., 0., 0., 5.88235296e-02, 0., 0., 0., 0.,
          0., 0., 5.88235296e-02, 0., 0., 0., 0., 0., 0., 0.,
          5.88235296e-02, 0., 0., 0., 0., 0., 0., 0., 0., 0., 0., 0., 0.,
          0., 0., 0., 0., 0., 0., 0., 0., 0., 0., 0., 0., 0., 0.,
          2.35294119e-01, 0., 0., 0., 0., 0., 0., 0., 0., 0., 0., 0., 0.,
          1.17647059e-01, 5.88235296e-02, 0., 0., 5.88235296e-02, 0., 0.,
          0., 0., 0., 0., 0., 0., 0., 0., 0., 0., 0., 0., 0., 0., 0., 0.,
          0., 0., 0., 0., 0., 0., 0., 0., 0., 0. ]
      - [ 0., 0., 0., 0., 0., 3.00000012e-01, 0., 0., 0., 0., 0., 0., 0.,
          0., 0., 0., 0., 0., 1.00000001e-01, 0., 0., 0., 0., 0., 0., 0.,
          0., 0., 0., 0., 0., 0., 0., 0., 0., 0., 1.00000001e-01, 0., 0.,
          0., 0., 0., 0., 0., 0., 0., 0., 0., 0., 0., 0., 0., 0., 0.,
          1.00000001e-01, 0., 0., 0., 0., 0., 0., 0., 0., 0., 0., 0., 0.,
          0., 2.00000003e-01, 0., 0., 1.00000001e-01, 0., 0., 0., 0., 0.,
          0., 0., 0., 0., 0., 0., 1.00000001e-01, 0., 0., 0., 0., 0., 0.,
          0., 0., 0., 0., 0., 0., 0., 0., 0., 0. ]
      - [ 0., 0., 0., 0., 0., 8.57142925e-01, 0., 0., 0., 0., 0., 0., 0.,
          0., 0., 0., 0., 1.42857149e-01, 0., 0., 0., 0., 0., 0., 0., 0.,
          0., 0., 0., 0., 0., 0., 0., 0., 0., 0., 0., 0., 0., 0., 0., 0.,
          0., 0., 0., 0., 0., 0., 0., 0., 0., 0., 0., 0., 0., 0., 0., 0.,
          0., 0., 0., 0., 0., 0., 0., 0., 0., 0., 0., 0., 0., 0., 0., 0.,
          0., 0., 0., 0., 0., 0., 0., 0., 0., 0., 0., 0., 0., 0., 0., 0.,
          0., 0., 0., 0., 0., 0., 0., 0., 0., 0. ]
      - [ 0., 0., 1.49253728e-02, 0., 0., 2.98507456e-02, 1.49253728e-02,
          0., 0., 0., 7.46268630e-02, 0., 0., 0., 0., 1.49253728e-02, 0.,
          2.98507456e-02, 0., 0., 2.98507456e-02, 0., 1.49253728e-02,
          1.49253728e-02, 0., 0., 0., 1.49253728e-02, 0., 0., 0.,
          2.98507456e-02, 1.49253728e-02, 0., 0., 2.98507456e-02, 0.,
          2.98507456e-02, 0., 0., 0., 0., 0., 4.47761193e-02, 0.,
          1.49253728e-02, 0., 1.49253728e-02, 4.47761193e-02, 0.,
          1.49253728e-02, 0., 0., 2.98507456e-02, 0., 0., 0.,
          1.49253728e-02, 1.49253728e-02, 0., 5.97014911e-02,
          4.47761193e-02, 0., 0., 1.49253728e-02, 0., 4.47761193e-02, 0.,
          0., 0., 1.49253728e-02, 0., 0., 0., 2.98507456e-02, 0., 0., 0.,
          1.49253728e-02, 0., 0., 2.98507456e-02, 0., 0., 0.,
          1.49253728e-02, 0., 2.98507456e-02, 0., 1.49253728e-02,
          2.98507456e-02, 2.98507456e-02, 2.98507456e-02, 1.49253728e-02,
          0., 1.49253728e-02, 1.49253728e-02, 0., 0., 0. ]
      - [ 0., 0., 0., 3.90625000e-02, 1.56250000e-02, 7.81250000e-03, 0.,
          0., 2.34375000e-02, 0., 0., 2.34375000e-02, 0., 0.,
          2.34375000e-02, 1.40625000e-01, 0., 0., 0., 0., 0., 0.,
          2.34375000e-02, 0., 0., 0., 0., 7.81250000e-03, 0., 0., 0., 0.,
          0., 7.81250000e-03, 4.68750000e-02, 3.12500000e-02, 0.,
          3.90625000e-02, 0., 7.81250000e-03, 7.81250000e-03, 0., 0.,
          1.56250000e-02, 0., 2.34375000e-02, 0., 1.56250000e-02,
          7.81250000e-03, 0., 7.81250000e-03, 7.81250000e-03, 0.,
          1.56250000e-02, 0., 0., 0., 0., 0., 1.56250000e-02,
          4.68750000e-02, 1.56250000e-02, 2.34375000e-02, 0.,
          7.81250000e-03, 0., 1.56250000e-02, 0., 0., 0., 0., 0.,
          7.81250000e-03, 0., 7.81250000e-03, 0., 0., 0., 0., 0.,
          7.81250000e-03, 0., 3.12500000e-02, 7.81250000e-03,
          2.34375000e-02, 0., 1.56250000e-02, 1.56250000e-02,
          7.81250000e-03, 7.03125000e-02, 4.68750000e-02, 3.12500000e-02,
          0., 7.81250000e-03, 1.56250000e-02, 3.12500000e-02, 0., 0., 0.,
          7.81250000e-03 ]
      - [ 0., 5.55555569e-03, 3.88888903e-02, 0., 3.33333351e-02, 0., 0.,
          0., 2.22222228e-02, 0., 1.11111114e-02, 1.66666675e-02, 0.,
          2.22222228e-02, 1.66666675e-02, 0., 5.55555569e-03, 0.,
          1.66666675e-02, 5.55555569e-03, 1.11111114e-02, 0.,
          1.66666675e-02, 5.55555569e-03, 1.11111114e-02, 5.55555569e-03,
          0., 0., 0., 5.55555569e-03, 1.11111114e-02, 0., 5.55555569e-03,
          3.33333351e-02, 0., 2.22222228e-02, 1.66666675e-02,
          2.22222228e-02, 0., 1.11111114e-02, 1.11111114e-02,
          2.22222228e-02, 1.66666675e-02, 5.55555569e-03, 0.,
          3.33333351e-02, 1.11111114e-02, 1.11111114e-02, 1.66666675e-02,
          1.11111114e-02, 0., 1.11111114e-02, 0., 2.22222228e-02,
          5.55555569e-03, 1.11111114e-02, 0., 5.55555569e-03,
          5.55555569e-03, 0., 2.22222228e-02, 2.22222228e-02, 0., 0.,
          1.66666675e-02, 0., 1.66666675e-02, 1.11111114e-02,
          1.11111114e-02, 5.55555569e-03, 1.66666675e-02, 5.55555569e-03,
          5.55555569e-03, 5.55555569e-03, 1.66666675e-02, 5.55555569e-03,
          5.55555569e-03, 1.11111114e-02, 1.11111114e-02, 5.55555569e-03,
          1.66666675e-02, 1.11111114e-02, 1.66666675e-02, 0.,
          2.22222228e-02, 0., 2.77777780e-02, 5.55555569e-03,
          5.55555569e-03, 1.11111114e-02, 0., 1.11111114e-02,
          5.55555569e-03, 3.33333351e-02, 2.22222228e-02, 5.55555569e-03,
          0., 1.11111114e-02, 2.22222228e-02, 5.55555569e-03 ]
   decision_functions:
      -
         sv_count: 1
         rho: -9.9985749579433381e-01
         alpha: [ 1. ]
         index: [ 0 ]
